{"layers":[{"out_depth":3,"out_sx":32,"out_sy":32,"layer_type":"input"},{"sx":5,"sy":5,"stride":1,"in_depth":3,"out_depth":16,"out_sx":32,"out_sy":32,"layer_type":"conv","l1_decay_mul":0,"l2_decay_mul":1,"pad":2,"filters":[{"sx":5,"sy":5,"depth":3,"w":{"0":-0.04005859705432004,"1":0.03194857667053828,"2":0.0977742323852199,"3":0.08369294887136484,"4":-0.04589624565613041,"5":0.06881178205748154,"6":0.05276531405978787,"7":0.09911115742161,"8":0.07796110932989073,"9":0.032054342829538146,"10":0.12810297579569208,"11":0.010805120986756376,"12":-0.08193946488764695,"13":-0.18443230026575366,"14":0.10044766637207556,"15":-0.1947367524618003,"16":0.0832712685227815,"17":0.09248963782548023,"18":-0.10764763782684152,"19":0.07187542857603307,"20":-0.0272697322150853,"21":0.30849839184827166,"22":0.038639103665790965,"23":0.1678575654448355,"24":0.2538536472842107,"25":0.1815224904030878,"26":-0.03888346328158164,"27":-0.06758666427562694,"28":-0.214855640102199,"29":-0.04069102807463055,"30":-0.05936253230508858,"31":0.05671757429181945,"32":-0.09691869239245073,"33":-0.17723731008013915,"34":-0.12441128543454427,"35":-0.12011618712219418,"36":0.1218760999993697,"37":0.012953436089766145,"38":0.12622763514490196,"39":0.039446886547966784,"40":-0.01755264248421847,"41":-0.006107359395976323,"42":-0.11366703789646165,"43":-0.17201376688456071,"44":-0.06114395859078145,"45":-0.16532101523281006,"46":-0.13425351968851354,"47":0.08549712834951799,"48":0.01026639146123154,"49":-0.14242571485510572,"50":0.0018556269124455904,"51":0.28001971017470395,"52":0.057842885528597315,"53":0.13200981322714336,"54":-0.0011869636990330377,"55":0.17864052074884845,"56":-0.01384809909152422,"57":-0.03856160890730388,"58":-0.07660647117968138,"59":-0.0856024766269637,"60":0.04895898541912907,"61":-0.1916886139891343,"62":-0.036353085399126246,"63":-0.3132450452539916,"64":0.05880926821149199,"65":-0.1047483414416527,"66":0.1728093177092195,"67":0.25327285653486314,"68":-0.0542681634362149,"69":0.020034768667368474,"70":0.1237407737537631,"71":0.011947583298333649,"72":0.009175792483889151,"73":-0.09914590393966438,"74":-0.13638200791873445}},{"sx":5,"sy":5,"depth":3,"w":{"0":-0.022528712050471206,"1":0.11551662503548832,"2":0.11639690412987387,"3":0.07667410012752107,"4":0.031395416858291884,"5":-0.12352173685632516,"6":-0.02036954328072261,"7":0.032036085940638295,"8":0.054157509069903645,"9":-0.23762111764469493,"10":0.0028765297280382665,"11":-0.10269180917933858,"12":-0.06035643466109345,"13":-0.16479253949646405,"14":-0.27217591669871144,"15":-0.03540097912894989,"16":0.12761992640883224,"17":0.015233038238823228,"18":-0.07238097038436764,"19":0.08320986284190002,"20":0.0177935964738834,"21":-0.14746645694413688,"22":-0.16059635240419978,"23":-0.09220393274259028,"24":0.13814456805859163,"25":-0.14634152121011604,"26":-0.22181478225890539,"27":-0.3040367281513484,"28":0.05774953385851834,"29":-0.035903728318634906,"30":0.10165205728837036,"31":-0.021266387289597635,"32":-0.03499433999673584,"33":0.1214317172075899,"34":-0.022959945404665946,"35":-0.06363211626124604,"36":0.09873824133226687,"37":-0.04284989274831708,"38":-0.23198102404606646,"39":0.047910169235728904,"40":-0.31098987319703464,"41":0.07525768393173347,"42":-0.090953710382782,"43":-0.17490821115286645,"44":0.21650064271877634,"45":0.17169065373691308,"46":0.10050260269142677,"47":-0.15700991312436924,"48":0.05009256921866382,"49":-0.11973665706532449,"50":0.0029189582510770772,"51":-0.09689511867939443,"52":0.031187245523168695,"53":0.06692459855869048,"54":0.04237058701204938,"55":-0.03371212947848171,"56":-0.030925882060140984,"57":-0.06536685185906656,"58":-0.0676350453716823,"59":-0.07268116091381349,"60":0.14651724566827196,"61":-0.041698355799112734,"62":0.08542423626567411,"63":0.06851988650652471,"64":0.0947455344798491,"65":-0.022279547481116806,"66":0.16596897228435029,"67":-0.025426003052292694,"68":-0.1026634283208432,"69":-0.029743962969404614,"70":-0.05793723918850433,"71":-0.03889761443212395,"72":0.016485443219192236,"73":0.01250038506742866,"74":-0.16335374897831276}},{"sx":5,"sy":5,"depth":3,"w":{"0":-0.09507034671083457,"1":0.12433257832896116,"2":0.1251994844757351,"3":-0.02278587161930989,"4":0.2192419521154558,"5":0.014366966336669883,"6":-0.032948975500846085,"7":0.0929987213388428,"8":0.19121316971078428,"9":-0.011217072944972147,"10":0.13796751430051354,"11":0.1973788955982332,"12":0.012249626352324955,"13":0.1330191077567584,"14":0.0621068217989516,"15":0.01920231300788991,"16":0.00023005868812147625,"17":-0.04847691800876941,"18":-0.1693890367920354,"19":-0.007985049416607836,"20":-0.07609834201901952,"21":-0.053121629823302575,"22":0.044794405247497705,"23":-0.05794324904593879,"24":-0.14995945427725754,"25":0.04897647460915174,"26":-0.23387017171145405,"27":-0.09636774073183862,"28":-0.02158343815494342,"29":-0.0699609034909399,"30":-0.18475883544322982,"31":0.11721671998518991,"32":0.1219686605497686,"33":-0.07421102645619063,"34":0.0021320872870992007,"35":-0.07152879425243544,"36":0.049989903030401954,"37":0.00011984542938061542,"38":0.130015292156577,"39":0.04666291994405312,"40":-0.020412182568880204,"41":0.004038855239773005,"42":0.05368524483314104,"43":0.007349618741281272,"44":0.0869300461572578,"45":-0.057345412442633976,"46":0.07833060527246793,"47":0.06727912716043588,"48":-0.04741920784534362,"49":0.06927832142762373,"50":0.05645385727729264,"51":-0.05903921709545317,"52":0.20298977421979592,"53":0.018194418926237566,"54":-0.07370069970530128,"55":-0.024077171486950464,"56":-0.0245426009367797,"57":-0.11511495331051762,"58":0.164582957749996,"59":-0.03430206821397189,"60":-0.15743442134079108,"61":0.11256918425137608,"62":0.04471158685040971,"63":-0.011680136333991694,"64":0.01316896544353885,"65":-0.1686454693127731,"66":0.12211792378502302,"67":0.054951361910763934,"68":-0.1442640289688007,"69":-0.04337259586080189,"70":-0.04968126359957574,"71":-0.15660560938604176,"72":0.0383362340334117,"73":0.04683092267441867,"74":-0.06256949213000645}},{"sx":5,"sy":5,"depth":3,"w":{"0":0.03586910098158364,"1":-0.17438153290760064,"2":0.06143045877583431,"3":0.03411545003131572,"4":0.1316302340079523,"5":0.12821525627490252,"6":-0.08139834386759331,"7":-0.10437966805103674,"8":-0.0979933053420813,"9":0.11296105169871432,"10":-0.04352280910358607,"11":0.09766560177122864,"12":0.04215981386776721,"13":0.043026604885866966,"14":-0.01444687962472148,"15":0.1469380258703073,"16":0.02552273234332455,"17":-0.0534002540597486,"18":-0.03605090836701225,"19":-0.016248175804617425,"20":0.06278187430330255,"21":0.055159605286684246,"22":-0.03135122066355524,"23":-0.002090737200829403,"24":0.14970054541668656,"25":-0.013805217427352651,"26":-0.06354357060933338,"27":0.041156426695444684,"28":-0.25098778461113663,"29":-0.1419873449768441,"30":0.12137311978728633,"31":0.06163969545478838,"32":-0.1088525580783645,"33":0.07482032936277258,"34":-0.12945305567186105,"35":0.024713568008268943,"36":0.056470040113555546,"37":0.06246587876974793,"38":-0.02999802204527922,"39":0.08278457043696288,"40":0.16214487513035272,"41":-0.056863570714282045,"42":-0.06918835291781719,"43":-0.002612872928324669,"44":-0.04923196798950849,"45":0.15345609773708035,"46":0.0329688591191706,"47":-0.049243097120699394,"48":-0.002500392000415068,"49":-0.16103992518239238,"50":-0.10722576031100574,"51":0.0220863375168652,"52":-0.043652999341190823,"53":0.04827637949896074,"54":-0.19327218900137297,"55":-0.07447859696880064,"56":-0.11390850534238385,"57":0.007521058093421536,"58":-0.05349964325014476,"59":-0.001349460887647586,"60":-0.07304060705227791,"61":-0.057783397963848765,"62":-0.0022051700916796216,"63":-0.002552683572900039,"64":0.10551978656383923,"65":0.0288351158619012,"66":0.023843465987391677,"67":0.1284879534649185,"68":-0.09214772655861818,"69":0.035999381414834754,"70":0.053690508375586955,"71":-0.048544742828824976,"72":0.0607911303135007,"73":0.055950750829872255,"74":-0.02866724380335542}},{"sx":5,"sy":5,"depth":3,"w":{"0":0.023944919385525405,"1":0.039274152213146056,"2":-0.10554478251837994,"3":-0.08954523391977848,"4":-0.016405721868694635,"5":0.01212340494480547,"6":0.0008901102074364528,"7":0.0682155676793304,"8":-0.014176266304305954,"9":0.08851986566241293,"10":-0.042725208965299855,"11":-0.15737143056836955,"12":0.1548362770736811,"13":-0.08845054771026739,"14":0.11101081794339318,"15":-0.047093611668415455,"16":0.12507678962555552,"17":-0.0508098158447114,"18":-0.05456960413279119,"19":-0.04000150747915031,"20":0.052227872208688936,"21":0.0260153031589178,"22":0.23526113017536424,"23":-0.15133958591790336,"24":0.05656298962086885,"25":-0.08299814329074374,"26":0.017831466798609585,"27":0.18726856684579218,"28":-0.1840793704441989,"29":-0.042943934184552224,"30":-0.19256741896873852,"31":-0.010717181581800326,"32":-0.042688668233812385,"33":-0.06395928578354812,"34":0.056094377694681466,"35":0.06216537931529647,"36":0.20810543211865198,"37":0.08823356586795625,"38":0.09457637423308418,"39":-0.2351945248914954,"40":0.06026062071738294,"41":0.13916202195603405,"42":0.05881560390959409,"43":-0.18804465865149692,"44":-0.10441107430216519,"45":0.09378872928569462,"46":-0.14936890404718403,"47":-0.06940977026661231,"48":-0.02180371801693918,"49":0.15449660686499828,"50":-0.1661739314035027,"51":-0.016634660288141416,"52":0.049493525134447575,"53":-0.045208124632754365,"54":-0.06460935701968866,"55":-0.05556974784310674,"56":-0.015600900956998086,"57":-0.05197936941511361,"58":0.10365428196057334,"59":0.03752320332390182,"60":0.1859346084353329,"61":0.21313243363980872,"62":0.1563169022613862,"63":-0.034107415307256646,"64":-0.06380703889356275,"65":-0.09092534900650798,"66":-0.11278313190798166,"67":0.019379449482818733,"68":0.053010736541411564,"69":0.0034414021590017576,"70":-0.2001564639027463,"71":0.08001590374612047,"72":-0.02596951281348752,"73":0.06419767585130876,"74":0.059404426277947224}},{"sx":5,"sy":5,"depth":3,"w":{"0":-0.06086588923578734,"1":-0.20010253334084202,"2":-0.1517555314356279,"3":0.00588453496136317,"4":-0.19630000612319481,"5":-0.12426233186825919,"6":-0.09639630350428254,"7":0.061073896804248046,"8":-0.08946666673480128,"9":0.251298619426688,"10":0.07035487434335974,"11":0.06018787757590541,"12":0.0939698796481515,"13":0.06202753039346172,"14":0.25446577657494535,"15":0.11963897450304539,"16":-0.06238306048841343,"17":-0.12137428885585816,"18":-0.140242789484537,"19":-0.18094546578073903,"20":-0.06759699411647678,"21":-0.13127312719106063,"22":-0.13488581214047754,"23":-0.11700330848583147,"24":0.1569646256631176,"25":0.09124730415364056,"26":0.07456332836256609,"27":0.08874152003615046,"28":0.21227264102967086,"29":0.20434339667249762,"30":-0.1045603467197974,"31":0.07937658460588427,"32":0.1387960915242744,"33":-0.05601627532303828,"34":-0.1632062167970185,"35":0.17222375554408673,"36":0.15415392301945827,"37":-0.0813284798042438,"38":0.06189304396292299,"39":-0.07944568462999844,"40":-0.18239630767229906,"41":-0.16585239439507943,"42":0.12334722262921505,"43":-0.02836396062335231,"44":0.0679127064596372,"45":-0.017053803589108272,"46":0.11877503606104793,"47":0.017373054470165055,"48":-0.0015047526863650998,"49":0.102996710645066,"50":0.006719786597902662,"51":0.07906919442162087,"52":0.051639528722971735,"53":0.03588779851232424,"54":0.021954799846639318,"55":0.01797787434585845,"56":-0.06199085079400714,"57":-0.4039084992973905,"58":0.09200361576634598,"59":0.03200311863154887,"60":0.11394273448814524,"61":0.024684880526199788,"62":0.044594915500034936,"63":0.23000995602935045,"64":0.06677554791271913,"65":0.34929275342804406,"66":0.1063998765636142,"67":0.0025588230444700995,"68":0.0014365366271367327,"69":-0.0022729725499219993,"70":-0.041947398592596455,"71":-0.16012439821913627,"72":-0.2407439990770235,"73":-0.2537714742001183,"74":-0.17942102783515432}},{"sx":5,"sy":5,"depth":3,"w":{"0":-0.28082734634484807,"1":-0.25542759084464567,"2":-0.017596754939144848,"3":-0.2578179155093069,"4":-0.16188569940997366,"5":-0.11672528489423416,"6":0.09374611437709814,"7":-0.09236512143807282,"8":0.0012433301415836267,"9":0.004907978241161585,"10":0.0833893346092739,"11":-0.00920052179944866,"12":0.16385014251247318,"13":-0.01435642009768169,"14":0.039612447641729824,"15":-0.07089093352012688,"16":-0.1099391806191227,"17":-0.08853466683787595,"18":-0.15760313624569508,"19":-0.07205228374797629,"20":0.06762046565936272,"21":-0.09821023291611351,"22":-0.07858202595588676,"23":-0.1530523493674699,"24":-0.10419390549451692,"25":0.011078340498519716,"26":0.11244050073754273,"27":0.17917754760164564,"28":0.12550012509692746,"29":0.07847129770836393,"30":0.20545602220225465,"31":-0.15164644276656328,"32":-0.2123529541852221,"33":-0.11476096787188703,"34":-0.008117837356928496,"35":-0.08083368330007883,"36":0.008146051597580275,"37":-0.04535196536287771,"38":-0.0015332979582361314,"39":0.12115356481954945,"40":-0.02354725633353669,"41":0.03868359623631931,"42":0.18795287562896648,"43":0.10174823671537758,"44":0.34333464615644965,"45":-0.0036155610661480877,"46":-0.0553141423908289,"47":0.01620375492383684,"48":0.057076846459809094,"49":-0.14464056323755187,"50":0.12104745294575152,"51":0.005391177439545111,"52":0.07505549485149576,"53":-0.06682379900520365,"54":0.13751020618421755,"55":-0.034715949445080295,"56":0.06973769727498533,"57":-0.006374342443216188,"58":-0.09651492138351682,"59":-0.0236017565122091,"60":0.11817091368670832,"61":0.0974006178395178,"62":0.20619007578534354,"63":0.11360292067088752,"64":0.18883768352735344,"65":0.00568369378647287,"66":0.020208626665046196,"67":0.160580979085614,"68":0.2532346047213677,"69":0.07985174339389732,"70":-0.10930758259470129,"71":0.20782481376483045,"72":0.07444057503217254,"73":0.10977127295587591,"74":0.0019820106970165814}},{"sx":5,"sy":5,"depth":3,"w":{"0":0.08813664024812916,"1":-0.22531782232810285,"2":0.034556901773868186,"3":0.2972021011295661,"4":-0.09049869696868737,"5":0.3069881633562821,"6":-0.03262864307882006,"7":-0.005964562962443893,"8":-0.053085359542777405,"9":0.07425848832019374,"10":-0.07415827961030391,"11":0.12207878457357878,"12":0.05258542687106986,"13":0.010431606321889159,"14":0.08507502915084604,"15":0.03944419259930719,"16":0.08039387439506661,"17":-0.20063968733586263,"18":-0.026162174925439666,"19":-0.18974164236933538,"20":-0.07684076822838574,"21":0.03249080231331935,"22":-0.0988875543002339,"23":-0.012976882985671661,"24":-0.10568935821616303,"25":0.13584270404752694,"26":-0.04288054277571835,"27":0.13106563374794133,"28":-0.17976569320528415,"29":-0.06328097017802824,"30":0.02291476175451336,"31":0.07726419617059122,"32":-0.08747531245780356,"33":0.09195495228853402,"34":-0.21015765643655995,"35":0.2841202384292006,"36":0.02479437977174752,"37":-0.007228101117846256,"38":-0.1647563429732207,"39":0.016326915891441203,"40":0.046839602142779505,"41":-0.0006166256379509422,"42":0.10868375333992267,"43":-0.10392820597808028,"44":0.037347863592610664,"45":-0.17368965182604057,"46":0.010857007584937512,"47":-0.2224224455842144,"48":0.10098371111164543,"49":-0.012565686659245935,"50":0.09762989190884046,"51":-0.09805849304007876,"52":0.02172588828310092,"53":-0.12430122378630369,"54":-0.03053797832363108,"55":0.05421094055151734,"56":-0.06252702625771513,"57":-0.03754353572120875,"58":-0.07506099892221932,"59":-0.09351814838961196,"60":0.12084011516644592,"61":0.1513772131260549,"62":-0.09560864723444108,"63":-0.12469191891061422,"64":0.09948897364338763,"65":0.02939872348593026,"66":-0.03841723983890463,"67":-0.008672099230520635,"68":0.12871425572630796,"69":0.11714635424325708,"70":-0.1360001987633016,"71":-0.017712956896623323,"72":0.06496234947897452,"73":0.009566956189952716,"74":0.19296582796887396}},{"sx":5,"sy":5,"depth":3,"w":{"0":0.06935493922717861,"1":-0.04862950819701846,"2":0.06517166135291345,"3":0.0301694254939154,"4":0.1390337897778927,"5":0.09517130630415663,"6":-0.13077600667985903,"7":-0.09445746267770692,"8":-0.0515854319177562,"9":-0.11224740703146689,"10":-0.044192669214216676,"11":0.023306377040565273,"12":-0.18164189935084152,"13":0.03219264641498794,"14":-0.020509817750847,"15":-0.05604974082606554,"16":-0.08240726648366742,"17":0.07429329373191756,"18":-0.016089216770231708,"19":0.02223720779425272,"20":-0.11422610866888198,"21":0.03876282768013842,"22":-0.08623326759662255,"23":-0.28356706784281527,"24":0.048384245188709145,"25":0.015173938331610546,"26":-0.06574208602296562,"27":0.15437170745600443,"28":0.12075721153341472,"29":-0.09481313656195495,"30":0.24010431826102138,"31":-0.015596732347032419,"32":-0.009580673454208731,"33":-0.04460914472120297,"34":0.10267584607757556,"35":0.041110060893638896,"36":0.11376099271282722,"37":0.0936519931269595,"38":0.13499142008849918,"39":0.05652105877443473,"40":0.15221526130570967,"41":-0.05198128513133983,"42":0.03157935836136267,"43":0.024177860270054544,"44":-0.034275302447015134,"45":-0.08668620776317765,"46":-0.23615685169191755,"47":0.023481556148266365,"48":0.15728024980747654,"49":0.07337856173950413,"50":-0.124922656963579,"51":-0.08397424241521287,"52":0.13501537508643027,"53":0.03348670129728917,"54":-0.0462463967988827,"55":0.20818342861715358,"56":-0.16341432197311825,"57":-0.03433129542055881,"58":-0.1435048356731287,"59":-0.14523430102789622,"60":-0.05607008047743332,"61":-0.041580939220896417,"62":-0.09909378798790829,"63":0.045526345418879545,"64":-0.013000629864116028,"65":0.16352370952348808,"66":-0.2065110227440374,"67":0.035902766404192925,"68":0.002968349821085067,"69":0.14733592318532435,"70":0.11667729289440174,"71":0.08239088446292478,"72":-0.06630298329346813,"73":0.16797957297282298,"74":0.01734493175753352}},{"sx":5,"sy":5,"depth":3,"w":{"0":-0.00305002187946529,"1":0.06351820409909087,"2":-0.07558222743977873,"3":-0.039618226948959785,"4":0.034811889570758404,"5":-0.18629211102237098,"6":-0.0152475517646034,"7":0.18094513332788667,"8":-0.019668942772410318,"9":0.18116870847479216,"10":0.005772112200263755,"11":-0.019210883555422064,"12":-0.06251951905651915,"13":0.13096453831562233,"14":-0.0777844701337461,"15":-0.12290382253007813,"16":-0.06004835066961713,"17":-0.013471915081230447,"18":-0.028936828463360566,"19":-0.09525345223827647,"20":-0.06349545447501079,"21":0.04063695470662519,"22":0.04111098634690712,"23":-0.16384106969000645,"24":0.06961196579173527,"25":0.051666191895600566,"26":-0.051360120108014364,"27":0.11055200360301105,"28":0.12059853190366891,"29":-0.09407437901044122,"30":-0.2654871240607629,"31":0.07942194505959699,"32":-0.05906276892930995,"33":-0.16371526749936535,"34":-0.12966881990890633,"35":-0.16600733588726993,"36":0.002646832740994376,"37":0.03257239424032815,"38":-0.03901405171551802,"39":-0.05533467454697751,"40":-0.060184332353042415,"41":-0.087012156990974,"42":0.07735653519913978,"43":0.016663402893630084,"44":-0.13137427628113446,"45":-0.11065805233497586,"46":-0.08572612873954275,"47":0.011172549151733064,"48":-0.1674572535574717,"49":0.12259095616864847,"50":-0.11347147067878269,"51":-0.060954047139936456,"52":-0.009505916761253898,"53":-0.30043675638111633,"54":-0.11062997875103903,"55":-0.04490718579353207,"56":-0.017980786535484402,"57":0.05156779816420135,"58":0.03061053364045737,"59":-0.017304375182277884,"60":0.09355466095228365,"61":-0.029879757865774376,"62":0.021528709702539253,"63":0.0019123844844615742,"64":-0.0385661558608097,"65":-0.058847120380540484,"66":-0.22270223590911606,"67":0.1769592951218867,"68":-0.13400773124641996,"69":-0.06720548082581439,"70":0.04731283465724239,"71":-0.022886777874753867,"72":0.12005559844405142,"73":-0.03757486112859074,"74":0.039599856629024426}},{"sx":5,"sy":5,"depth":3,"w":{"0":0.05370947377389559,"1":-0.022587232492668283,"2":-0.0008712020816760218,"3":-0.1277111448493529,"4":-0.1552622190443623,"5":-0.10337096852937276,"6":-0.14481310944079692,"7":0.10036017224850356,"8":-0.1105687872020294,"9":-0.12337277984877312,"10":0.04559057942854479,"11":-0.007547317694274609,"12":-0.07875233828136063,"13":0.0832885041456391,"14":0.24464749918292591,"15":-0.19515411719135992,"16":0.21053778818526547,"17":0.05972585716968022,"18":-0.044324566207517895,"19":-0.06677347790975983,"20":0.12192329288850313,"21":-0.18973355027078884,"22":0.3004164512814516,"23":0.205536763396138,"24":0.07374268961868187,"25":0.0897109313262353,"26":0.1283702649938144,"27":-0.02985029376300464,"28":-0.054835760255742924,"29":0.06704393289726412,"30":0.12382482117688257,"31":0.14143033919926856,"32":0.052643367752941074,"33":-0.19803919609947357,"34":0.045663714052655666,"35":0.047214611393884026,"36":-0.23780750479647267,"37":0.06299741057702857,"38":0.22774960165771765,"39":-0.06010834795336766,"40":-0.09988621158511597,"41":0.18037839265457126,"42":-0.022178227130136997,"43":0.04239514569542708,"44":0.15218478641003205,"45":-0.09742552307360088,"46":0.0862755453494917,"47":-0.1515119668458749,"48":-0.19543607566227134,"49":0.06714505311928604,"50":-0.017075878795507368,"51":-0.1604027584171644,"52":-0.013481513173668452,"53":0.07496580177716144,"54":-0.11298136434521013,"55":0.029292479064065898,"56":0.13492731024349786,"57":-0.0715699646857178,"58":0.05178246164494751,"59":0.12156933434181286,"60":0.048413870908444914,"61":0.0074222708817685635,"62":0.0610665352064416,"63":0.006575664610928432,"64":0.14262785067246833,"65":0.046417728596043366,"66":-0.04402667808647623,"67":0.03519561908861711,"68":-0.0120981650544829,"69":-0.1652877254869336,"70":-0.12460197548718478,"71":0.18421283731611757,"72":-0.004319422735103388,"73":0.04701197270679092,"74":0.0679209302761864}},{"sx":5,"sy":5,"depth":3,"w":{"0":0.09567995356366375,"1":0.24373677551186462,"2":0.05932807841611602,"3":-0.11958870868774191,"4":0.007588296591595195,"5":-0.0978392198310852,"6":-0.19994053682370302,"7":-0.02754235772540782,"8":0.1317661004802847,"9":-0.08902508119515275,"10":-0.18846727749783912,"11":0.0290530124706619,"12":0.04168882400781223,"13":-0.05950425258156976,"14":-0.10206770812612627,"15":0.054841263475782616,"16":0.07248636135640676,"17":0.1669966821151188,"18":0.04060346187620894,"19":0.009362289412982852,"20":-0.08884047979869787,"21":-0.07974331971989601,"22":-0.024555997751411523,"23":-0.0038865640645336145,"24":0.17920289744967977,"25":-0.0541018353220081,"26":0.031050369993995876,"27":0.16236512653771382,"28":0.013188182899155612,"29":0.0433939723367492,"30":-0.014779836939830517,"31":0.06800184187080244,"32":0.1687789115569302,"33":-0.08508733807713784,"34":-0.029659166143322636,"35":-0.03660642830597036,"36":0.11052059502946804,"37":-0.09948960364211422,"38":0.06723718646440403,"39":-0.14810438055665204,"40":-0.1978094872445552,"41":0.009317481085236756,"42":-0.051823253222399515,"43":-0.004339541833565978,"44":0.0359687093208894,"45":0.23670100234096697,"46":0.1471698925426145,"47":0.11616360375571659,"48":-0.11820074988478699,"49":-0.12497542305570901,"50":-0.12386029508263653,"51":-0.0882873270072871,"52":0.17164366094267114,"53":0.0753279968893241,"54":-0.024194557687446203,"55":-0.009284640470538523,"56":0.021271084238846837,"57":-0.0400371079733648,"58":0.10806914039257934,"59":0.13248644870478124,"60":0.06728172457635,"61":-0.06857497777481598,"62":0.22159095691934946,"63":-0.15363839098100787,"64":-0.04470946439734184,"65":-0.13181000417785815,"66":-0.13166793677556335,"67":-0.06931177605375818,"68":0.0303925046718647,"69":0.02458166903626156,"70":-0.07784165265354114,"71":0.1434427855269111,"72":-0.1327616479786765,"73":0.17335933522653005,"74":-0.18273524329307597}},{"sx":5,"sy":5,"depth":3,"w":{"0":-0.13160394742867534,"1":-0.08998490778817732,"2":0.04631820747333833,"3":-0.014746089117958924,"4":0.01875608128488065,"5":0.015196740807876826,"6":-0.013237825854292474,"7":-0.10079983218753603,"8":-0.16912930834594675,"9":-0.06470756197776885,"10":0.07723329632269225,"11":-0.017823929125010848,"12":-0.06154009291846759,"13":-0.010497000869272697,"14":0.006293942896963703,"15":-0.04249977948878776,"16":-0.08704788641560966,"17":-0.059426319084962334,"18":0.08018954668823838,"19":0.18053089812159492,"20":-0.11576644570053828,"21":0.054596723767890744,"22":-0.05836406579870075,"23":-0.05571994263121152,"24":-0.0818568216639585,"25":0.02758163969495089,"26":-0.06633584364293016,"27":0.10835584094366217,"28":0.05120878397157656,"29":-0.05105491041235522,"30":-0.08171770628827615,"31":0.15973386965201006,"32":0.07303721788095964,"33":0.10164101800766931,"34":0.21503517785657572,"35":0.007597757059151382,"36":0.08589699328888724,"37":-0.07139534678440614,"38":0.06380169059790297,"39":0.1782603636053162,"40":0.13817311638519353,"41":-0.06928361762381723,"42":-0.0727159101355254,"43":0.09801726106263957,"44":0.15638393354680286,"45":0.055745509644937394,"46":-0.08707898168595792,"47":-0.060910196522949475,"48":0.026320390438042997,"49":0.02925183811259032,"50":0.01637553799227659,"51":0.022476747615409628,"52":-0.12194627549608493,"53":-0.03941978335768819,"54":-0.00673746437614262,"55":0.09184979435639401,"56":-0.01963700073393948,"57":0.07903423529284853,"58":0.07674589599367729,"59":-0.0004003416109436309,"60":0.038012893770247316,"61":0.0900681424391404,"62":-0.06774874905461582,"63":0.14402075815222137,"64":0.1401916247172772,"65":0.18072467120748023,"66":0.09644943114794213,"67":-0.03624546364429122,"68":0.06918492890107815,"69":0.0900329587748385,"70":0.039018290499347116,"71":0.09871500011748731,"72":-0.05053000692255914,"73":0.20516316652565011,"74":0.07134927413127547}},{"sx":5,"sy":5,"depth":3,"w":{"0":0.2032266065195025,"1":0.06955993801239743,"2":0.0953005979418434,"3":0.17096368821198607,"4":0.026937847781954734,"5":0.1341249649140713,"6":0.03914320447214626,"7":0.06554856466873636,"8":0.14448370079783712,"9":0.09911639678999348,"10":-0.021402283501551843,"11":0.22550353215206542,"12":0.03991890320694732,"13":-0.08142554222597143,"14":-0.005540037600534535,"15":-0.024297017093211755,"16":0.0656987118569657,"17":0.0777938722478222,"18":0.2367052213593064,"19":0.006275925106090689,"20":0.20314435351950283,"21":0.16356836098346303,"22":0.05500764098288192,"23":0.03938758013000407,"24":0.21890888063096528,"25":-0.0047986430516545895,"26":0.173183513336909,"27":0.03194055312866715,"28":0.11944411954641013,"29":0.0998531592045055,"30":-0.08756821340389927,"31":-0.06925438037080757,"32":0.20268754149316254,"33":0.1202946655086515,"34":-0.04533987744552727,"35":0.2549973458959011,"36":0.03028212560230805,"37":0.09311901668682977,"38":0.19396738717321613,"39":0.1389394840458288,"40":0.042922923952884766,"41":0.0281915079402097,"42":0.11705503929873913,"43":-0.11910989332067075,"44":0.07200445920730389,"45":-0.21799969328336657,"46":0.13572376371868441,"47":0.01770188131749022,"48":0.06529624149127229,"49":0.005725418186239374,"50":0.0971198265810065,"51":0.12156366848232411,"52":0.010720561653374705,"53":0.06735024866179372,"54":0.02451728931793034,"55":-0.09292789041234092,"56":0.0002173229254944828,"57":0.18500547302059447,"58":0.07932332744462178,"59":0.14514680653104275,"60":0.05928987279159292,"61":0.02067688687570781,"62":0.013747550362122468,"63":-0.012542595071952203,"64":-0.017951237195832703,"65":0.04889756285737983,"66":0.13538965325438926,"67":-0.07445800741646191,"68":0.03271018937596974,"69":0.12883535560008358,"70":0.027654239816535815,"71":-0.06241655580628352,"72":0.13479884017983243,"73":-0.20452062484133549,"74":-0.11953544309075621}},{"sx":5,"sy":5,"depth":3,"w":{"0":-0.2250092302763352,"1":0.13342827837123458,"2":-0.06063552371024477,"3":-0.07413436098866086,"4":0.15601159113597288,"5":-0.11650706001485284,"6":-0.022167813328355736,"7":0.15411176428063925,"8":0.040067412934754076,"9":-0.0021091511963485365,"10":0.09900479658548629,"11":-0.010090313859259244,"12":-0.12582053770992416,"13":0.2256367846198831,"14":0.007045319116538126,"15":0.04239238400864785,"16":0.12982798313927668,"17":0.08962566513340581,"18":-0.19426645148035568,"19":0.03728646699811931,"20":-0.001732621837579025,"21":0.017818285482821085,"22":0.00903270207207987,"23":0.030537287872025476,"24":-0.2540802024046331,"25":0.04125709972271598,"26":0.08852906948546163,"27":0.03505577094576135,"28":-0.007233466596179387,"29":0.007344171365241844,"30":0.07005483977591294,"31":0.05558486149742538,"32":-0.02491682269498655,"33":0.031676394049865865,"34":0.06781274528698543,"35":-0.132841074212169,"36":-0.014748962837600115,"37":0.008111353149529498,"38":0.023729280644773577,"39":-0.16569291013382942,"40":0.169252517366841,"41":0.0007151956335883277,"42":0.054640236027980474,"43":0.112941802579692,"44":-0.03816523611470085,"45":-0.045923497522927154,"46":0.0939846206285418,"47":0.0646596122283982,"48":-0.06900733070753343,"49":0.04706032973628381,"50":0.07746612819968508,"51":0.04070363084584023,"52":0.2216468863477061,"53":0.16795105295681945,"54":-0.19392353560129388,"55":0.04937802586480428,"56":0.06132823182328921,"57":0.05446424134018523,"58":0.1577208700422213,"59":0.006688814500672343,"60":-0.08088191350679477,"61":0.06642831736485935,"62":0.09798237187068269,"63":-0.0015358403937387112,"64":-0.0067809576347241975,"65":-0.01381183677308253,"66":-0.100596549819221,"67":0.05619556756832835,"68":-0.0947153320541489,"69":-0.1810392415790774,"70":0.02436609176937095,"71":0.04278283008923923,"72":-0.11242139135687244,"73":0.10591948465171273,"74":-0.06530261355968503}},{"sx":5,"sy":5,"depth":3,"w":{"0":-0.04713944814706517,"1":-0.17140699750329594,"2":0.025664188173337068,"3":-0.17232535428430507,"4":-0.2706647951516793,"5":0.04517509341814623,"6":-0.0624348221361264,"7":-0.2603371816741578,"8":-0.1518099864713105,"9":0.06128940381243541,"10":-0.08815292609457535,"11":0.02648350617825263,"12":0.04442586362892134,"13":0.012362910181110487,"14":-0.04992039350899607,"15":0.04224327191990007,"16":-0.09008318570814944,"17":-0.0020247204955575774,"18":0.11700705144655675,"19":-0.08598324507824769,"20":-0.048460944727414274,"21":0.19785802223781898,"22":-0.0411702596824925,"23":0.05666871806829323,"24":0.0031863377526734327,"25":0.09290886364014939,"26":0.13404552848802348,"27":0.07399493482280398,"28":0.11495820902414078,"29":0.0838168435776511,"30":-0.01829805917758228,"31":0.21477033848099417,"32":-0.021161112039065857,"33":0.12230055771818513,"34":0.07348686414409446,"35":0.12362927099222339,"36":-0.009300551477992922,"37":-0.1665259089385545,"38":0.19336075100881156,"39":0.05988629496940169,"40":-0.13614674577028682,"41":0.1655252820868324,"42":0.14566799702197086,"43":0.01348667586150188,"44":0.1513366096954179,"45":0.019925609246580475,"46":-0.15300697495106286,"47":0.08151685437084703,"48":-0.15044666666676212,"49":-0.11349738653669002,"50":0.05388011135917028,"51":-0.05726479907497245,"52":0.022516844554111407,"53":-0.1465963058994689,"54":-0.0651864248317729,"55":0.08956507245296941,"56":-0.0589718192704048,"57":0.01059900548077861,"58":-0.053363352606654466,"59":-0.03168680092902954,"60":-0.05994726409130906,"61":0.0018620898424476576,"62":-0.0308092775299458,"63":0.06675193941044782,"64":-0.08130228167303184,"65":-0.044350021294346,"66":0.10776598067413147,"67":-0.08503033233420808,"68":0.10588875108520446,"69":0.04070136685266297,"70":-0.07346674517488426,"71":0.036815252653346175,"72":0.18539102928583337,"73":-0.0033723454363260835,"74":-0.04426614766338445}}],"biases":{"sx":1,"sy":1,"depth":16,"w":{"0":0.001293808146162953,"1":0.1052875706186186,"2":0.041287606293113344,"3":0.06628021439433895,"4":-0.04022006224731887,"5":-0.047197413892558555,"6":0.07373737715281466,"7":0.03721086013876209,"8":0.033445672656652596,"9":0.08642170917578568,"10":0.03799990477829392,"11":0.03272469549956375,"12":0.07484155995913627,"13":0.19674493255472236,"14":-0.0043560412382516005,"15":0.0016431765955223698}}},{"out_depth":16,"out_sx":32,"out_sy":32,"layer_type":"relu"},{"sx":2,"sy":2,"stride":2,"in_depth":16,"out_depth":16,"out_sx":16,"out_sy":16,"layer_type":"pool","pad":0},{"sx":5,"sy":5,"stride":1,"in_depth":16,"out_depth":20,"out_sx":16,"out_sy":16,"layer_type":"conv","l1_decay_mul":0,"l2_decay_mul":1,"pad":2,"filters":[{"sx":5,"sy":5,"depth":16,"w":{"0":-0.02606151309339978,"1":-0.021317801392975358,"2":-0.036231532557380694,"3":-0.06202277542937078,"4":-0.09547275704529422,"5":-0.17605103809442726,"6":-0.022790666989252733,"7":-0.022744289563912383,"8":-0.06277221919752751,"9":-0.015017451495820974,"10":-0.004746872717094947,"11":0.006851705694665614,"12":0.006088359991029977,"13":-0.1735601788360278,"14":-0.02289338290474704,"15":-0.08856905568867718,"16":-0.029651688015215217,"17":-0.10051531725832155,"18":0.0013797718718979758,"19":-0.09760244647268193,"20":-0.05950005859316831,"21":-0.12983445488300352,"22":0.02235166608636539,"23":-0.04232828178779808,"24":-0.04948262746346333,"25":-0.07510765377111069,"26":-0.027089152513953565,"27":0.032630540602650825,"28":-0.05074332237576399,"29":-0.17658137022158185,"30":0.05381623290490339,"31":-0.08089765495532056,"32":-0.003752565599727231,"33":-0.023013306608159173,"34":0.08659879418461627,"35":-0.03220896899241712,"36":-0.020865527143624777,"37":-0.1216324358610464,"38":0.059935422048944226,"39":0.06662323428354898,"40":-0.06594145575582433,"41":0.014840090767233789,"42":-0.030996195812827317,"43":0.04950686383094449,"44":0.013344136187517577,"45":-0.06120363196175789,"46":0.04575819126935218,"47":-0.011435564237639742,"48":0.054118743109487916,"49":-0.003131845415119777,"50":0.048797766988676626,"51":-0.0014092987914046712,"52":-0.04010438367791935,"53":-0.08032816895960518,"54":-0.044888712998098934,"55":0.004808319505813712,"56":0.01347344262604578,"57":0.03408034128400939,"58":0.08006983456946039,"59":0.08415802405238458,"60":0.07247485941116345,"61":-0.08093876418601487,"62":0.03248042014676332,"63":-0.03645488154280137,"64":0.04466227048578273,"65":-0.02863091744686065,"66":0.009528467278165734,"67":-0.03804475531404407,"68":-0.010271377062707525,"69":-0.028602070109429292,"70":-0.02052161787599633,"71":-0.07463062229888207,"72":-0.011028336044974746,"73":0.03893221009665288,"74":0.09065197716289071,"75":0.0006363879766091668,"76":0.09622102766223498,"77":0.021586935388285336,"78":-0.029620155482533994,"79":-0.05033462439308734,"80":0.026144263457401427,"81":-0.03969351498379907,"82":0.02831597399631443,"83":-0.12467213708641642,"84":-0.035260020080245355,"85":-0.10793193439897188,"86":-0.015981104462097336,"87":0.007484815939822147,"88":-0.01205958184667202,"89":0.044851388792740206,"90":0.0019513133388725716,"91":-0.021263925908359488,"92":0.016643193051882797,"93":0.006436252734901983,"94":0.04645632045198286,"95":-0.08558193984944698,"96":-0.0689734127707836,"97":0.04085079339889171,"98":0.044406754289033845,"99":-0.03142272217986296,"100":-0.039978186939460224,"101":-0.11308261446829611,"102":-0.036671535616714185,"103":0.020991340779967713,"104":-0.013562993758100241,"105":0.033347982505832964,"106":0.07155104210973877,"107":0.06497316758168038,"108":0.010292338228010131,"109":-0.05958421843202445,"110":0.04649158425349445,"111":-0.020787240870602294,"112":0.09418291377310746,"113":-0.010811815691573742,"114":0.06828302405998898,"115":-0.0007933683686522871,"116":0.02626717055378402,"117":-0.008442813062836434,"118":0.004844561490512504,"119":0.0996419941225303,"120":-0.07160793462483761,"121":0.033771178758245084,"122":0.058877330057441224,"123":0.0483653738807961,"124":0.037812156482828305,"125":-0.05212202459915036,"126":0.005506463631578007,"127":-0.056034431288267385,"128":-0.0007373884697171196,"129":0.03398666998451211,"130":0.1061332713650127,"131":0.01470134443891753,"132":0.08256321086822377,"133":-0.02247670446114211,"134":0.05410759499085701,"135":0.0557197601848143,"136":0.010743988743961524,"137":0.12062375183701912,"138":0.05363368572914704,"139":0.12206153376556844,"140":0.11840226564109357,"141":-0.037507623154286726,"142":0.07406020911774339,"143":0.03714903727591061,"144":0.03186737508521274,"145":-0.023401901204973746,"146":-0.04817658618436976,"147":-0.03489100641481864,"148":-0.013658458871130083,"149":-0.05504984427163173,"150":-0.025780760507554228,"151":0.021863237155097047,"152":-0.07750173604620368,"153":0.07676278976130536,"154":0.04242983390239795,"155":0.025981271719223244,"156":-0.04101644083794089,"157":-0.04171973581839381,"158":0.051715757413319983,"159":0.0023613645971632628,"160":0.03641782634820036,"161":0.038937711561220396,"162":-0.0018264154023993817,"163":-0.06785967164663745,"164":0.04429733583133451,"165":-0.08887291438753628,"166":-0.03828449129035113,"167":-0.0720016705443425,"168":-0.0534228914187224,"169":-0.0704112330223113,"170":0.051303092618147694,"171":-0.010931779085476084,"172":-0.0019225807288209438,"173":-0.1203511592181219,"174":0.0318622610791934,"175":0.025666323799241036,"176":-0.104491750428311,"177":0.01130261098420524,"178":0.10553315912528166,"179":-0.08286507942231355,"180":0.020862063649350872,"181":-0.11035435572735633,"182":0.045353824634318335,"183":0.023644702347570285,"184":-0.025524373996234362,"185":-0.12391424318565775,"186":0.15366313225984737,"187":0.013861483741603937,"188":0.09451969170810111,"189":-0.04825939220032343,"190":0.06030576541699993,"191":0.027350649679822276,"192":0.06742168130789707,"193":0.007715365244150812,"194":0.10683029951587479,"195":-0.07302020529263105,"196":0.017913607715065304,"197":-0.03863534139302865,"198":0.08354079749675135,"199":0.02088779421264655,"200":0.07323538947926682,"201":0.004277476193535799,"202":0.08191683997882683,"203":0.042542533694299896,"204":0.10201414632771796,"205":0.00599391669518479,"206":0.08243592188227865,"207":0.061503284521525405,"208":-0.016058159583804542,"209":0.05510014229465914,"210":0.0038859294543271278,"211":-0.02881808910165558,"212":0.07997480435478044,"213":-0.05233238316685259,"214":0.034872766312075865,"215":0.012703858068809085,"216":0.08482127668482911,"217":0.03567039512109712,"218":0.1320952292099948,"219":0.055429036752338956,"220":0.09301098492115423,"221":-0.028372429180679157,"222":0.0260262907134177,"223":0.03719791297952244,"224":0.04952582734704342,"225":0.020992144324642577,"226":0.09341154209435205,"227":-0.039861279756863675,"228":0.014477631201672931,"229":-0.1421668303038294,"230":0.08123749013859352,"231":0.04235908844650912,"232":-0.0010423852063688962,"233":-0.07978781339809697,"234":0.08084863314694185,"235":0.049306481474993405,"236":0.12122710350203558,"237":-0.055095493741445935,"238":0.009653252217874829,"239":0.09940789843481192,"240":-0.08585823456620928,"241":-0.0783149507988058,"242":-0.0009645773346638179,"243":-0.04872683223950485,"244":-0.00767942739340014,"245":-0.038844520773770166,"246":0.00864642296667356,"247":-0.08553815351335858,"248":-0.0725263384764575,"249":-0.034607636377775905,"250":0.018347967369565333,"251":0.027409081005910257,"252":-0.03396701645939059,"253":-0.005840750756986754,"254":-0.022361256387571943,"255":0.11676158183555876,"256":0.025200680059089858,"257":-0.07426713730334872,"258":0.05494836642314399,"259":-0.13658897822185473,"260":-0.03420184899474291,"261":-0.17019766806629508,"262":0.011269647556713351,"263":-0.06370613579364379,"264":-0.048160714790179686,"265":-0.033004585483504226,"266":0.011699187978628973,"267":0.024570170319411784,"268":0.055546667350346246,"269":-0.04913650051668506,"270":0.09031759040438124,"271":0.12178634984323265,"272":0.09819036521025973,"273":-0.031138660176345173,"274":0.09999186032727204,"275":-0.05136708985440644,"276":0.013774752866025149,"277":-0.0605170783327858,"278":0.003945949528369453,"279":0.018893624804945556,"280":0.11347010225267509,"281":-0.011320089066704323,"282":0.0873519303560815,"283":0.1435933048129762,"284":0.09112159431330442,"285":0.007643320224554587,"286":0.1048500711363849,"287":0.058825706028408684,"288":0.10935236437236599,"289":0.048851801766930714,"290":0.0803699586690198,"291":-0.08850172836481397,"292":0.08097526513936969,"293":-0.01842172407978103,"294":0.06281026912720591,"295":0.06196474034525141,"296":-0.007662010332404844,"297":-0.014430302987522441,"298":0.15124727738739493,"299":0.11192576874871091,"300":0.06571876789891537,"301":-0.002286216759474398,"302":0.06371606999301677,"303":0.11422084917948355,"304":0.013343150655703299,"305":-0.09430931144461698,"306":0.12064608916923557,"307":-0.041633377575549926,"308":-0.017694316231076892,"309":-0.06310135959390879,"310":-0.039184011868711614,"311":0.011293651100969528,"312":-0.02331991183371889,"313":0.03909691344802444,"314":0.11679030900064119,"315":0.05435057009316144,"316":0.050029943588159445,"317":-0.029936984681548026,"318":0.08600625576273084,"319":0.037527845840624977,"320":0.06888610957636802,"321":0.018241318158974923,"322":0.07798074542967293,"323":-0.13008516776009474,"324":0.04713631085817207,"325":-0.10921882651281929,"326":0.02441017118916569,"327":-0.019516935688929413,"328":-0.027751787956989637,"329":0.024050823835095297,"330":0.09782502286522102,"331":-0.03881091334268075,"332":-0.014878281975526512,"333":-0.04813440090792175,"334":0.06234508154493688,"335":0.022408949996618615,"336":-0.025220615598204425,"337":-0.04912722127328174,"338":0.10250143072771575,"339":-0.11231697899063575,"340":-0.039885393067694626,"341":-0.1901924554536205,"342":-0.0638124838939386,"343":0.06259203389476081,"344":-0.08729399590893686,"345":-0.011717831968177477,"346":0.04126749409569968,"347":0.012510229714153807,"348":0.025115879285269097,"349":0.027453075913063632,"350":-0.03665256950332193,"351":0.03662178388128667,"352":0.13511545005119507,"353":0.03401165563077387,"354":0.10047224577121217,"355":0.004133212007355279,"356":0.016247895975897726,"357":-0.08299172247118203,"358":-0.03614958970221742,"359":0.03377866542339451,"360":-0.01872921956935864,"361":0.05099667647525682,"362":0.07189168741899742,"363":0.07416375870690232,"364":0.09400088691374794,"365":0.014179892286216016,"366":0.09353811952982863,"367":0.053814826312661504,"368":0.08094268305348302,"369":-0.015895095681259623,"370":0.07541846123046851,"371":-0.008594383402681968,"372":0.015435540363574123,"373":-0.1035427884965501,"374":-0.03629395555317266,"375":0.10339361916117136,"376":-0.06104331976528117,"377":0.010661813807253773,"378":0.03516404319525313,"379":0.11837839065643076,"380":0.07974596882331803,"381":0.005733025344939941,"382":-0.0375354936031555,"383":0.07452022300254367,"384":0.06855450481410275,"385":-0.02634675304118202,"386":0.017928767176639805,"387":-0.0053394894371409955,"388":-0.009001743906413857,"389":-0.02450264303537113,"390":0.022038687678794234,"391":0.0174105306474883,"392":-0.013459052314954097,"393":0.07576631618375046,"394":0.06279604079841253,"395":0.009672450746677434,"396":0.012097696589430353,"397":-0.04435947069191579,"398":0.08887024784947217,"399":0.03959045693807124}},{"sx":5,"sy":5,"depth":16,"w":{"0":0.07831923976627837,"1":0.05399115698355704,"2":0.03204016912649621,"3":0.023427409970069202,"4":-0.027581010653395868,"5":-0.06284412994720902,"6":0.06278377650665957,"7":0.030665658992223097,"8":0.033220931201516334,"9":-0.03589150314414438,"10":0.06658819822413341,"11":0.14899259906278753,"12":0.04522962096524007,"13":0.13022264441565304,"14":0.049928910569837365,"15":0.10933491086646609,"16":0.03214770793372024,"17":0.05838800732345613,"18":0.05622964878413637,"19":0.0026418825929326087,"20":-0.026370612463624394,"21":-0.10791295540132753,"22":0.06459744038781169,"23":0.08629063061224777,"24":-0.03550611230479045,"25":-0.006351869457685401,"26":0.01347353100492111,"27":0.02076305980039605,"28":0.05061671745730895,"29":0.03419077950640122,"30":0.031981700232605645,"31":0.06509212365152331,"32":0.03125600518253759,"33":0.01763224001454461,"34":0.033794695445312196,"35":0.005005590277953251,"36":-0.07046997646797892,"37":-0.11754341255214336,"38":0.06711933885427725,"39":0.04596982934915408,"40":0.07083708001751227,"41":0.02251782083822074,"42":0.09281252393966481,"43":0.06655158384113832,"44":0.09804643494794997,"45":0.023666113480564997,"46":0.022137571216983166,"47":0.1307949770086117,"48":-0.017758487003599815,"49":-0.0022636019767817237,"50":0.07486970459777405,"51":-0.026541649275312426,"52":-0.027686484577076113,"53":-0.11441387939756134,"54":-0.07399240145397935,"55":-0.09248591117070984,"56":0.0419475694028723,"57":-0.08779409024163178,"58":0.0117244375399837,"59":-0.008110867576441286,"60":0.11145299133259012,"61":0.023982334519241033,"62":-0.02653741626636993,"63":0.05937684259312122,"64":-0.07605320707750289,"65":-0.07505249663275831,"66":0.03695953253604191,"67":-0.09713042961855994,"68":-0.18147399308818396,"69":-0.17456548028703123,"70":-0.09081671474862743,"71":-0.008245560063917804,"72":-0.008429935404346892,"73":-0.11404900987714298,"74":0.08930389025921233,"75":0.003850049416518818,"76":0.09394605659180569,"77":0.026343105927603472,"78":0.008078611423294057,"79":0.052366121887805046,"80":0.02094859720804339,"81":0.03858468858035038,"82":0.0954615332192048,"83":0.030885620169953356,"84":-0.11942355535879612,"85":-0.035230854471863186,"86":-0.04679413448621968,"87":0.12978692009023013,"88":-0.07549135124324481,"89":0.04344487147842369,"90":0.029081109979059792,"91":0.11352048395077433,"92":-0.0656104686236412,"93":0.03153209280061531,"94":-0.020717314375231714,"95":0.042309827201933846,"96":0.08187834851888337,"97":0.024137925555155967,"98":0.10242912458673288,"99":0.027066323690400716,"100":0.05377790252306484,"101":-0.010670765726022737,"102":-0.04471159872122657,"103":0.08621992373344191,"104":-0.09238631551806464,"105":0.055256007343775795,"106":0.015297459273599736,"107":0.08829795088304493,"108":-0.03647060612216913,"109":0.024285799427647147,"110":-0.04362033991178967,"111":-0.0018356870823861501,"112":0.0465306208408152,"113":0.013695887683089637,"114":0.06671256890362565,"115":0.06739290834434657,"116":-0.02594843203974224,"117":-0.13937621835626646,"118":-0.1068548127227044,"119":0.14801113379514894,"120":-0.011716679135123064,"121":0.04184478229524797,"122":0.044862973143157646,"123":0.033766924830224206,"124":0.028723525073355332,"125":0.008665932150727465,"126":-0.03563345220162161,"127":0.0720470437765693,"128":0.05950596695662141,"129":-0.08530185891096155,"130":0.040709981430272976,"131":-0.045020493117989946,"132":0.015616310639978504,"133":-0.2664829566330908,"134":-0.03212512645454899,"135":0.11639573592026865,"136":-0.11054934608909732,"137":0.023010742981985022,"138":0.02611603105187405,"139":-0.13555021133650144,"140":-0.042735566903188214,"141":0.06094203184621225,"142":0.000954051143746656,"143":-0.02015283987956099,"144":0.02030790734699797,"145":-0.08362710123125999,"146":0.13021490456891088,"147":-0.06339844571096506,"148":-0.026694715722144435,"149":-0.15516094778475775,"150":-0.14640143144335907,"151":0.08509999345280668,"152":-0.09643374939684905,"153":-0.05995891264561133,"154":0.022994444153312463,"155":0.0024856807570817485,"156":-0.0034474588923061314,"157":0.012646974741479298,"158":0.018783419449886506,"159":0.04647532635546792,"160":0.016188821404921998,"161":-0.0010197565875466055,"162":0.02071754056877944,"163":0.0065600716798261205,"164":-0.11195382138744339,"165":-0.07990446026977875,"166":-0.04653219676924878,"167":0.10096828940068199,"168":-0.04499686577936672,"169":0.08824015746292455,"170":0.0429537925128856,"171":0.0804281877818053,"172":-0.03571847832543363,"173":-0.06844664811661146,"174":-0.010427350689037409,"175":0.04681427218021265,"176":0.019874226800830896,"177":0.037063327378404294,"178":0.02179492468258452,"179":-0.10563619858274115,"180":-0.054663658949591215,"181":-0.028494594664381978,"182":-0.03712937347467862,"183":0.0021709830726904687,"184":0.047523283465471314,"185":0.06493216333382998,"186":-0.020311019133479137,"187":-0.018673014582049653,"188":0.008260757592629533,"189":-0.0008131603000869081,"190":0.0008476518803398633,"191":0.04402519005695527,"192":-0.05082790359651871,"193":-0.017955199453790715,"194":0.08762468824232404,"195":0.0045680372335638155,"196":-0.0724982430919088,"197":-0.09627026832609224,"198":0.005810593642110156,"199":-0.002353015279155855,"200":0.0110626125195277,"201":0.03047028947831956,"202":0.06072768496152914,"203":-0.00445092368096377,"204":0.10902448138225612,"205":-0.05838642696263192,"206":-0.04283125188493488,"207":-0.004651071157770282,"208":-0.014940816654550968,"209":-0.03843015446468645,"210":0.05799791126370791,"211":0.04118415047541736,"212":-0.16349207083814787,"213":-0.19267054367941258,"214":-0.059487032639705326,"215":0.1046358581572494,"216":-0.029032970547887005,"217":0.009901979041475412,"218":-0.07729243976291056,"219":-0.1170841503322181,"220":0.07035942467040565,"221":-0.06046517978087384,"222":-0.08500516638548035,"223":-0.016590346526569696,"224":-0.06886285298473217,"225":-0.04405415441541283,"226":-0.01662126147907793,"227":-0.03708353628980926,"228":-0.16637085684580755,"229":-0.19254661749801047,"230":-0.10478379127849068,"231":0.06244481730071923,"232":-0.0680409635345457,"233":-0.0782623294533158,"234":-0.06029431281680363,"235":0.008447168779235443,"236":-0.051882494738958174,"237":-0.13679777468457882,"238":0.01328476138451903,"239":-0.0946045178918007,"240":-0.023179443876023678,"241":0.05231387858003324,"242":-0.06549462352459999,"243":0.014939269352528496,"244":-0.12367953419568853,"245":-0.050014747495621646,"246":-0.015700644130445245,"247":0.05133826081411933,"248":-0.018983291302030896,"249":-0.02410076725338265,"250":-0.028502460496494037,"251":0.10533267533394014,"252":0.056996726699572814,"253":-0.0816679034906807,"254":0.04707838117328572,"255":-0.03980581290362244,"256":0.04409699007891225,"257":0.012992378013540999,"258":-0.04885334461088914,"259":-0.006073136416543828,"260":-0.01133220438670063,"261":-0.07139369915986074,"262":-0.06161307007910504,"263":0.034316384158813634,"264":0.03138226148230732,"265":0.14236746210106502,"266":-0.02909052894594854,"267":-0.028936539618565786,"268":-0.01248794746346144,"269":-0.055206794021459775,"270":-0.04548326747573494,"271":-0.027785778223368824,"272":-0.019797655237164268,"273":0.049492318033026034,"274":-0.08296701901131613,"275":0.11237605684762095,"276":-0.13553819355320942,"277":-0.05485943797531851,"278":-0.0019044263717166302,"279":0.08975731776658283,"280":0.033471889754964346,"281":0.03745912165832379,"282":-0.019758322528090136,"283":-0.026021554995327052,"284":0.020073201472184953,"285":-0.046972885659332025,"286":-0.021179828643891726,"287":-0.019993920532663863,"288":-0.024973111812360515,"289":-0.0324609359094045,"290":0.0341241900755708,"291":0.03530333923014409,"292":-0.16670567347955667,"293":-0.15492146569399404,"294":-0.06308492417079221,"295":0.017537876763155723,"296":0.011159956504929867,"297":-0.09337690584798894,"298":-0.010018679992907316,"299":-0.06789078061042712,"300":0.00400670985377416,"301":-0.043479035812165924,"302":-0.0800618294524546,"303":-0.034543851615477364,"304":-0.17097416808920674,"305":-0.07131408489811195,"306":0.0015063511343775568,"307":-0.015041839811821708,"308":-0.20885499369602584,"309":-0.2045801606544611,"310":-0.12259600350445073,"311":0.05570447107804948,"312":-0.09782186788720473,"313":-0.08599403831664927,"314":-0.06027541864194472,"315":0.02373171251688421,"316":-0.03471054898999997,"317":-0.12382015484584867,"318":0.030800473665627916,"319":-0.04148152581016464,"320":-0.02138335263866377,"321":0.0013914654502065465,"322":-0.06271934217798855,"323":0.025011461097462,"324":0.059351549648753686,"325":0.018526513079810576,"326":0.02502314223488341,"327":-0.03945144509142763,"328":0.04088768488957603,"329":0.030311335907638865,"330":0.002954810848125284,"331":-0.029755829481401787,"332":-0.04429270791607909,"333":-0.05012545628977716,"334":-0.045912769161225546,"335":0.011139106729259895,"336":0.06676705534357097,"337":0.0385979031340189,"338":0.012809392498086138,"339":0.11505741519003534,"340":0.005013163979604063,"341":-0.04922058278854908,"342":-0.013470846131370031,"343":-0.03273721655042401,"344":0.05728694713202153,"345":0.0003452611733188414,"346":-0.04211732465319336,"347":-0.020836889937172264,"348":0.08544910778152887,"349":-0.07436960289619834,"350":-0.028597668390004948,"351":0.038481086847469634,"352":-0.02090353277669367,"353":0.00004185234365894912,"354":-0.024878664774006236,"355":0.0342078184149883,"356":-0.005752279483799462,"357":-0.02537396110536272,"358":0.007106534992620822,"359":0.1289904097017295,"360":0.004220579808511,"361":-0.031288004158705196,"362":0.1285134292256752,"363":-0.004752739495187813,"364":0.03173430311291158,"365":-0.026634841833152862,"366":-0.032590007036607034,"367":0.012526504681566833,"368":-0.044171372015251474,"369":-0.02469811156923872,"370":-0.007711696914038284,"371":0.06879865430877648,"372":-0.03528040968515418,"373":-0.09013111859048116,"374":-0.04537796027004132,"375":0.009425866100356716,"376":0.06558226923338277,"377":-0.0486689417726776,"378":-0.06144889864856733,"379":-0.09777509303705317,"380":0.017494658647991008,"381":-0.04398429884782449,"382":-0.10359266855202384,"383":0.002918124266446903,"384":-0.13225045346772815,"385":-0.03632330925251315,"386":-0.052610213914411806,"387":-0.03968230804035782,"388":-0.07772747946923927,"389":-0.20978935428642909,"390":-0.09373247172392099,"391":0.05774969740328845,"392":0.016282290421272962,"393":-0.08851101642241532,"394":-0.039803474888911755,"395":-0.010893102843650724,"396":0.023522441372076243,"397":-0.014676314353212616,"398":-0.011336734925065758,"399":-0.0693261837231808}},{"sx":5,"sy":5,"depth":16,"w":{"0":-0.035187769797150666,"1":-0.004718708526395217,"2":0.11358196581136329,"3":-0.019541027462638957,"4":-0.03284016822302467,"5":-0.032851836433279366,"6":-0.06992108763033722,"7":-0.0171453351329817,"8":-0.039149755966977895,"9":-0.005438257870060163,"10":-0.013451032107390357,"11":-0.038081685230079904,"12":-0.02314507865750527,"13":-0.08538148227383768,"14":-0.019269011376792444,"15":-0.04850880502225234,"16":0.026000694746112978,"17":-0.0263341033951464,"18":0.06474376387808066,"19":-0.0015233860281250637,"20":0.042439276148002594,"21":-0.09545388430275148,"22":-0.02177337520914739,"23":0.018681297356011362,"24":-0.031030600318213752,"25":-0.017099956765361125,"26":-0.008101430032204798,"27":-0.006821097023821624,"28":0.07295705325754681,"29":-0.010025953355701715,"30":-0.020256423311223917,"31":0.014210545511065086,"32":-0.05161761437434098,"33":-0.0013432272610215568,"34":-0.02283573357302027,"35":-0.021411824318801963,"36":0.011024347188167957,"37":-0.017241805029781232,"38":0.00891759805638904,"39":0.027902698046342555,"40":-0.016720802346449265,"41":-0.04634415400442967,"42":0.043796069533906426,"43":0.06039803623606603,"44":-0.00036732591043271495,"45":0.0019039325277654577,"46":0.05758765425682525,"47":-0.029718516382166552,"48":0.10644302926151875,"49":-0.022092670662725904,"50":0.03598401642720378,"51":0.03021817205410849,"52":0.10898270717864825,"53":-0.0663049985055341,"54":-0.037700157291604176,"55":0.07246824103673398,"56":-0.03389753473608623,"57":0.030014071578658187,"58":-0.03796614792600729,"59":0.03822873561206375,"60":0.07562013898442868,"61":0.05322250963985378,"62":-0.009029416030568777,"63":0.0412644196497996,"64":-0.01211184283509139,"65":-0.04106190668588075,"66":0.08134733961312154,"67":0.018960454242106923,"68":-0.12227378338187948,"69":-0.09051468144680276,"70":-0.012772292489789235,"71":0.07343589763043583,"72":0.01099225217243061,"73":-0.04668307454512868,"74":-0.017689630873920354,"75":0.008456483746622877,"76":0.058546756552904124,"77":0.05946390467338719,"78":-0.02900743308457927,"79":-0.03502574303605688,"80":-0.008242295887452409,"81":-0.004025581353041569,"82":0.06962157501736388,"83":-0.022844641411257645,"84":-0.013775128285005388,"85":-0.06854372860040614,"86":0.005235806222951649,"87":0.07497282417650614,"88":-0.012781409097432162,"89":0.013098921251621928,"90":-0.03876791494067146,"91":-0.10362829297503909,"92":-0.05587934453665793,"93":-0.03349704468095078,"94":0.03965507146742226,"95":-0.07226158658497506,"96":0.020044587339997765,"97":0.03167499395498548,"98":0.03988588537730784,"99":0.0164294160869621,"100":-0.0025250005309609474,"101":-0.07708866085922149,"102":-0.07826529175671468,"103":-0.08122331077574248,"104":-0.06841647173176049,"105":0.0040556512727301436,"106":-0.06664459243606739,"107":0.023956031077195492,"108":0.005805386102211226,"109":-0.01459822572695213,"110":-0.07715085936244759,"111":-0.09563819420941129,"112":-0.005224350989452683,"113":0.027687098909774634,"114":-0.1006481324476195,"115":0.007684475747592919,"116":-0.04417512615081211,"117":-0.013562153048646277,"118":-0.023450522359335983,"119":0.01736508732944376,"120":-0.019789751846233952,"121":-0.012572491007207752,"122":0.10520048024006753,"123":0.02223630550468383,"124":-0.05871560639690925,"125":-0.02953792649958968,"126":-0.016969744761597506,"127":-0.04832213096304157,"128":0.10274983902481091,"129":0.040079744064673566,"130":0.06933548508907371,"131":0.05531559262695889,"132":-0.029847748027592706,"133":-0.04506832532076857,"134":-0.019356058081202356,"135":0.026509245799350975,"136":0.014558087075382035,"137":-0.06880233218576945,"138":-0.07041494834346798,"139":-0.009249163480279182,"140":-0.03778622746808678,"141":0.009534888494507713,"142":-0.08277730105044757,"143":0.05151023497615875,"144":-0.043261847874267394,"145":-0.089399655874972,"146":0.05642785491320332,"147":-0.04983329271475126,"148":-0.08661120072678255,"149":-0.06240719808332139,"150":-0.06625981621084333,"151":0.009306939516405592,"152":-0.02108937626734243,"153":-0.02996104345738204,"154":0.05209752064282273,"155":0.08725083105444213,"156":0.02650409081059592,"157":-0.018977765625371977,"158":0.04213457119693282,"159":-0.09323737081370818,"160":-0.03254661119656991,"161":-0.02704257173492015,"162":0.01880842068617562,"163":0.07504393246446198,"164":0.04377125574077357,"165":-0.01805908277592332,"166":-0.007220935327923711,"167":0.011399793361632812,"168":0.023778706098439517,"169":0.040068350530433464,"170":0.0347289359101415,"171":0.024615560609793103,"172":0.05846969774663633,"173":-0.04241579128909443,"174":0.017501101500441575,"175":-0.033121495334614545,"176":0.003790579027957106,"177":-0.02525834676081895,"178":-0.05779162561880963,"179":-0.05942644371237719,"180":0.04477502139294934,"181":-0.07292036007654905,"182":-0.04823237727682685,"183":0.005230324586164913,"184":-0.03452706909308083,"185":-0.10204029604002028,"186":0.06821609794440708,"187":-0.027890623589316797,"188":0.06388599575802696,"189":0.011270421892752194,"190":0.006241968415697155,"191":-0.08699371068892772,"192":-0.05630969122083343,"193":0.009362961176664549,"194":-0.005763925520199634,"195":0.06396895890988044,"196":0.02617206400162699,"197":0.021607899385975328,"198":-0.01976536401478296,"199":0.029049438500461846,"200":-0.007137073322465658,"201":0.033255633919436145,"202":0.018708353502382247,"203":0.041450713325014404,"204":0.07506932883989552,"205":-0.008063289602064089,"206":-0.0007600666482701957,"207":0.015590281370623864,"208":0.07550004108775886,"209":-0.005418114752956742,"210":-0.05828671132022325,"211":-0.0069570936720857336,"212":0.020509800506406505,"213":-0.10151464788916752,"214":-0.000281912818055948,"215":0.08437473340908783,"216":0.05343283569211696,"217":-0.05063654452365892,"218":0.017625920468555937,"219":-0.05701996807971627,"220":0.06580009427125799,"221":0.008315328950164723,"222":0.00410469430796619,"223":-0.042946479693239684,"224":-0.007065061134805412,"225":-0.06402789878170778,"226":-0.04270024813295953,"227":-0.06744183372175154,"228":-0.03354347203044463,"229":-0.1413435469181495,"230":-0.008640931527881781,"231":0.08650755256321366,"232":-0.031194374894169673,"233":0.029015496541106522,"234":-0.039606925762822806,"235":0.0003206306465940223,"236":0.07200960997325995,"237":0.003872072211589143,"238":0.0473486153427052,"239":0.01430898954697868,"240":0.038685430096878956,"241":-0.0719507131428232,"242":-0.02536902083181848,"243":0.007132940655840189,"244":-0.024282275141877547,"245":0.01700244777204178,"246":-0.011138812860086032,"247":0.027221477497313486,"248":-0.039191099426742565,"249":0.07369100339495936,"250":0.03051226398687469,"251":0.015452172988577652,"252":-0.051206995239004245,"253":0.017841754319438893,"254":0.035524126012129446,"255":0.060166852111293925,"256":0.008363011392116072,"257":0.01074667368993553,"258":0.07065153923576502,"259":0.013833934384262005,"260":0.035322805211705846,"261":0.03116633959795087,"262":-0.021983466689592272,"263":0.05956602604343895,"264":0.005587622572605094,"265":-0.02214633727145064,"266":-0.04834703217098144,"267":0.028569648361918557,"268":0.06468100504304652,"269":-0.012533302926550147,"270":-0.013253134045688382,"271":-0.000042962405755226794,"272":-0.001537361206625055,"273":-0.010932245510244328,"274":-0.061337728183835025,"275":0.08379694551385268,"276":0.026549689521102003,"277":0.01689402769574976,"278":-0.01489987380956935,"279":0.025333836753156598,"280":-0.011323777313172464,"281":-0.0010953968020611569,"282":-0.00686450954076619,"283":0.0772917097462697,"284":-0.012587846807459398,"285":-0.05132548889868131,"286":0.015161816362447463,"287":0.006266499336400399,"288":0.09221477666196405,"289":0.01942834463078285,"290":0.13914748873296312,"291":0.04566033637946141,"292":0.04984086448889319,"293":-0.07384567450527421,"294":-0.0827040402032648,"295":0.017309192676224803,"296":-0.021090191029251873,"297":-0.06864066813236788,"298":0.022479379378478378,"299":0.04202595908095096,"300":0.10529287957637559,"301":-0.11488289245486022,"302":0.0023088726948238157,"303":0.010805192011757515,"304":-0.1696320559178373,"305":-0.05366779830161093,"306":0.03516600395424753,"307":-0.037160972893641224,"308":-0.03189195470123194,"309":-0.043314885566675856,"310":-0.08483241269294474,"311":0.029733669883699448,"312":-0.04970417012174395,"313":-0.02498171859753421,"314":-0.03204196760896453,"315":0.116265502301494,"316":0.028051410224176565,"317":-0.03667506876035599,"318":0.06551539019197188,"319":-0.06525527299150552,"320":-0.009958840417763284,"321":0.027911678193155237,"322":0.046117657378234124,"323":-0.01001405434113415,"324":-0.009407086305580561,"325":-0.11146645240829568,"326":-0.02918151843782572,"327":0.011953551806690057,"328":0.011884175106830517,"329":-0.0007374073956419255,"330":0.06571643002524816,"331":0.061134722678457855,"332":0.022800193131861667,"333":-0.08911377258571859,"334":0.0518788987475726,"335":0.09638162043708536,"336":0.0019904677552656483,"337":0.013513931173781468,"338":0.005743337863487821,"339":-0.0679834726758489,"340":-0.015089312107292507,"341":-0.07972335291651421,"342":-0.03437021615591493,"343":0.009466999194027149,"344":0.010550277561585608,"345":-0.02639859744214515,"346":-0.036767906441123224,"347":-0.024758723905688753,"348":-0.05573213335882822,"349":-0.0385225610563164,"350":0.0054714562759421315,"351":-0.01063659385156346,"352":0.05157948165267302,"353":-0.05022041092965872,"354":-0.016800885246183894,"355":0.02824568872127937,"356":-0.058638781165657794,"357":0.018112433191412994,"358":-0.05576146291037383,"359":0.009791634461914814,"360":0.012235427888987033,"361":-0.007195992697891981,"362":0.008646673300537531,"363":0.07287519302003465,"364":0.0727583829201307,"365":-0.024255352421646628,"366":0.08579325718109745,"367":-0.013655949506691425,"368":0.05677667390092537,"369":-0.023884784916546394,"370":0.015906013633113735,"371":0.021030173001095945,"372":0.027227516593133185,"373":-0.06545093620533955,"374":-0.05614033471670938,"375":0.046681985074664506,"376":0.004551771200359851,"377":0.0011841181882632,"378":0.002082354426146201,"379":-0.05308382644711299,"380":-0.016227634688773657,"381":-0.008049017579587854,"382":-0.027224260354605567,"383":0.06796385131068838,"384":-0.036753098286718,"385":-0.05369784440825869,"386":0.038974837240478566,"387":-0.04315167838049052,"388":-0.07227423485449413,"389":-0.10506917768927404,"390":-0.025987932700903733,"391":0.05798786705062372,"392":-0.027747041698770836,"393":0.018955376450658482,"394":0.04535992114167032,"395":-0.0013157474046640685,"396":0.04370169271520442,"397":-0.0688270092929502,"398":0.10627547455584986,"399":-0.0643442630884824}},{"sx":5,"sy":5,"depth":16,"w":{"0":-0.028316002483557236,"1":0.00016781853731758856,"2":0.012767889459461416,"3":0.033980817975457184,"4":-0.031021203515020235,"5":0.02087802408954199,"6":0.022639359616000276,"7":-0.007340443639935688,"8":0.020510483203818663,"9":-0.03386978125568957,"10":-0.06278987751368019,"11":0.06245792688599258,"12":-0.03833111346543492,"13":0.05161537991065971,"14":-0.054277778408330535,"15":-0.0011432370561657212,"16":-0.01880369156425332,"17":-0.016400238286520052,"18":-0.06031074433581953,"19":-0.044834392080444624,"20":-0.020783123970963244,"21":-0.05850861565636284,"22":0.005861425483245651,"23":-0.06606484242681206,"24":-0.04170985339678925,"25":-0.03156560751011112,"26":-0.06822156536361772,"27":0.018261748126793334,"28":0.02762398172517087,"29":0.06100169546992815,"30":-0.1150034797219401,"31":0.004172673236237603,"32":-0.03457546326480714,"33":-0.005006635528014609,"34":-0.09988790683285712,"35":-0.028116087165720387,"36":-0.006904610633862672,"37":-0.002562375475891274,"38":-0.013509559006841485,"39":0.02071680549157109,"40":0.0400967294023422,"41":0.004688344749844675,"42":-0.20038226623547056,"43":-0.0502646502540329,"44":0.04161553218803137,"45":0.040602833287868845,"46":-0.0962639962094979,"47":0.020791318546690526,"48":-0.08436434801577848,"49":-0.043970896012734524,"50":-0.10299918850645923,"51":0.08661443592791507,"52":-0.04145329467493527,"53":0.0024306667623199317,"54":0.005119359585973894,"55":0.04750744499180272,"56":0.017667080068733094,"57":0.023908541862879915,"58":-0.06701143688699047,"59":-0.05586893181559489,"60":0.06926799138969225,"61":-0.0105042773479192,"62":-0.1479778880608469,"63":-0.030021520251834966,"64":-0.03527208801540522,"65":0.06330685590869896,"66":-0.0182963179362922,"67":0.04095858519471646,"68":-0.027033410989314735,"69":0.019489407879657118,"70":0.042422840091235904,"71":0.05024556741095399,"72":-0.03509095168785381,"73":0.0026176509658169702,"74":-0.04104565889295591,"75":-0.017743430678585612,"76":0.045402569066165285,"77":0.04781616473671569,"78":-0.09982858860680018,"79":-0.047565960388003176,"80":-0.04106061458806437,"81":0.04378169797883778,"82":-0.07513267528797887,"83":-0.013106297213621738,"84":0.00392299077733597,"85":0.08128994103723491,"86":0.06551232054115896,"87":-0.0027544753301043364,"88":0.0335184882673288,"89":-0.0065944033414162976,"90":-0.07482305641990858,"91":-0.0026898616339105915,"92":0.04737971043775893,"93":0.07741313568317387,"94":-0.04782514745190107,"95":0.0338428138648519,"96":-0.04693315291629895,"97":-0.03727111919255171,"98":-0.03404552006564119,"99":0.019496421508495277,"100":-0.005053735439861921,"101":0.030607560790341947,"102":-0.004834695913216352,"103":-0.016630456760288216,"104":-0.02817725170931674,"105":0.003000413675924209,"106":-0.09948682548564992,"107":-0.06144465389488794,"108":-0.013145817171039782,"109":-0.0068021237080342365,"110":-0.14381686446993247,"111":0.07364956099241203,"112":0.04776816250450183,"113":-0.011106127753184095,"114":-0.09143522840312035,"115":-0.01676486735279798,"116":0.002103364456767758,"117":0.08766650274470678,"118":0.024260656485754914,"119":-0.024456657379838168,"120":-0.053453547986568865,"121":-0.12417220272534675,"122":-0.1593884654950976,"123":-0.061503034872367676,"124":-0.015141654856489018,"125":0.05226876003316234,"126":-0.2099997857754365,"127":0.11152643488972826,"128":0.00865755146018615,"129":0.019129187672128158,"130":-0.13832655683498432,"131":0.0158066067875165,"132":0.033446881669019185,"133":0.03482719560651219,"134":-0.04100165322556436,"135":0.08852650802340249,"136":0.025010156811674233,"137":-0.0677422919934521,"138":-0.14172622182265016,"139":-0.033841900461624407,"140":0.017037239791812278,"141":-0.0012475933126752331,"142":-0.0790082400012303,"143":0.04891113280617088,"144":-0.06801023654709693,"145":0.005626836726087517,"146":-0.036621623901285476,"147":0.02519420328247526,"148":-0.041121824786450684,"149":0.05043367902823481,"150":0.042054264848587,"151":0.010426722090252026,"152":-0.023354736387627698,"153":-0.051913820802266884,"154":-0.08255477223325354,"155":-0.04866951775966984,"156":-0.03859795852893279,"157":0.008745363058253214,"158":-0.06620400960973258,"159":-0.0005424293617166019,"160":-0.029909203074124986,"161":-0.08124307649025166,"162":-0.043920807060891916,"163":0.07991045490444124,"164":0.0031254151418118165,"165":0.037966134512612965,"166":0.09485316755064158,"167":0.04621942482579477,"168":0.03819116463647577,"169":-0.05414397126473502,"170":-0.1856470234401536,"171":-0.012172305270814383,"172":-0.027042748780497134,"173":0.009867407001062244,"174":-0.08717205386301155,"175":-0.004388991604201382,"176":-0.050731734918946884,"177":-0.05153601420460802,"178":-0.08824492726651953,"179":-0.006919040905103538,"180":0.05747323499420838,"181":0.04318451736323494,"182":0.02822753436888585,"183":0.005684932153134485,"184":-0.05174765507495258,"185":-0.06407392573838838,"186":-0.14642609205775425,"187":-0.047876847166468374,"188":-0.014401631075755171,"189":0.13458072979426747,"190":-0.2178519907601967,"191":0.09100654661834919,"192":-0.04605911837596515,"193":-0.07456204325191716,"194":-0.12902902588019846,"195":0.05828125569587295,"196":0.052741630230389795,"197":0.04375857853059154,"198":0.03450600201546267,"199":-0.0058222346905338115,"200":-0.013706952824962607,"201":-0.04757567926271056,"202":-0.09251066373301743,"203":-0.10492277664223239,"204":0.0014995320984958105,"205":0.12258802178202839,"206":-0.15073201664287422,"207":0.09800684938653105,"208":-0.02053702747006691,"209":-0.03808483700540507,"210":-0.0801540312619837,"211":-0.004673609968696672,"212":-0.04563568984062491,"213":0.10679567219997993,"214":0.030014829058744055,"215":-0.018855368041773284,"216":-0.02210641252771935,"217":-0.08085712791408572,"218":-0.12541304775331133,"219":0.00903351614686614,"220":-0.03039699857815234,"221":0.021950365598501578,"222":-0.21216596960088532,"223":0.05096752219916517,"224":-0.055306436229197585,"225":0.0340197906286498,"226":-0.13213372410101562,"227":-0.04283058279315986,"228":-0.18243807604249546,"229":0.08098387566325292,"230":-0.07504111595339341,"231":0.02249571365528485,"232":0.05883701486528812,"233":-0.020830133296130947,"234":-0.09547681723408362,"235":-0.05766678660566505,"236":-0.004818864022891391,"237":-0.04035122773698902,"238":-0.016679243158901808,"239":0.011222598475648998,"240":-0.03797123613466587,"241":-0.06300486799078861,"242":-0.0376888426297549,"243":-0.04221990553610992,"244":0.012202031812648171,"245":0.04870982124799626,"246":0.016318425600607405,"247":-0.018852635534011213,"248":-0.046167632058645935,"249":0.06425346128743736,"250":-0.08235521437433853,"251":-0.03275818941461705,"252":0.022769226361527964,"253":0.030939385958811596,"254":-0.0798043615543059,"255":0.017605246265676285,"256":-0.06279535453707208,"257":-0.08099456748362885,"258":-0.09078163439880149,"259":-0.04419288800060042,"260":-0.06499429907705144,"261":0.02736800027289609,"262":0.07614496059098605,"263":0.03550386008075575,"264":-0.10466490330934115,"265":0.05083477807390826,"266":-0.08816535439987946,"267":-0.06828763757316957,"268":-0.023664502239048826,"269":0.05322613913857408,"270":-0.11951287267593791,"271":0.04170778376231652,"272":-0.03636720528227188,"273":-0.0457125716310453,"274":-0.023924086314556364,"275":0.01759429359192505,"276":0.062211298403321624,"277":0.1365968859745671,"278":-0.03445420203737539,"279":0.050602381643597004,"280":-0.08753126704232202,"281":0.007046504759938364,"282":-0.12556083542528843,"283":-0.07936927992184901,"284":0.02039163947172861,"285":0.02806014219286499,"286":-0.03956625522688413,"287":0.06765163284102955,"288":-0.05304261514972671,"289":-0.0006376198380518821,"290":-0.0725092974616793,"291":0.06713109775835552,"292":-0.0030995096891726316,"293":0.03815142804007957,"294":0.025757063105853423,"295":0.06349307557697292,"296":-0.004426896774801461,"297":-0.0465903976588232,"298":-0.14783695021078475,"299":-0.06507783184457544,"300":-0.09367418787138647,"301":0.12109591344906352,"302":-0.09747233785634678,"303":0.07949152288964415,"304":0.025677783411806744,"305":-0.05633363538663351,"306":-0.15934249474189244,"307":-0.013672706306474113,"308":0.0005997589599255591,"309":0.01564152113786657,"310":0.061580131962226524,"311":0.08162216878428522,"312":0.05230646257413153,"313":-0.008943596162436661,"314":-0.022237533647252238,"315":0.07307684932900203,"316":-0.07734095954292448,"317":-0.01418156994384588,"318":-0.10972932076393259,"319":0.03126122225656412,"320":-0.03467930565926156,"321":0.07905084231910782,"322":-0.028475499142221042,"323":-0.049593703587644734,"324":0.022901857712523482,"325":0.10244288202984043,"326":-0.0008584780348391207,"327":-0.009685443997745409,"328":0.05231875269177114,"329":0.03849512445982544,"330":0.0631769456966481,"331":0.047493950835589493,"332":-0.019537884574498544,"333":0.062034934143002464,"334":-0.02891726394765037,"335":0.021711354997101265,"336":0.0438184756228016,"337":0.023093340341122814,"338":-0.010955318015150234,"339":-0.01338192482338924,"340":0.004998371091254555,"341":0.012069441089332692,"342":-0.07124429759629734,"343":0.00791325711232943,"344":-0.006033164134704581,"345":0.03189428488602445,"346":-0.02516513449575912,"347":0.003944868753252994,"348":0.004997924095257957,"349":0.023880701286361564,"350":-0.19338022944341154,"351":-0.045239629765465014,"352":0.09928109408650973,"353":-0.0331565872615173,"354":-0.09157763846635367,"355":-0.01716395285135378,"356":0.030322246680292927,"357":0.07551927338963535,"358":0.05710044003966054,"359":0.00788980960700702,"360":-0.01964492576247926,"361":0.0036669594507862968,"362":-0.11024707881334792,"363":-0.08461361989264098,"364":-0.09259090812941864,"365":-0.02767066102766837,"366":-0.05930714675760059,"367":-0.07937869385461035,"368":-0.042104152818795405,"369":-0.00907265564685624,"370":-0.009787815636972733,"371":0.00040443945620124733,"372":-0.06434807106334196,"373":0.09262340698702123,"374":0.06630067364748707,"375":0.09017090089056343,"376":-0.03835586248776739,"377":0.033482160179351815,"378":-0.02890723985947437,"379":-0.0558388767096514,"380":-0.059048283149336495,"381":-0.00038902235423596396,"382":-0.07591654589108882,"383":0.009184932897481856,"384":0.01529794785800001,"385":0.02620141476433293,"386":-0.11076566748213067,"387":-0.022909320023696028,"388":0.000837676911363083,"389":0.02908481481073607,"390":-0.07862725016242253,"391":0.014409416903985934,"392":0.07212914807615071,"393":0.028549598071223967,"394":0.0009820653426010945,"395":0.00968608628027544,"396":-0.010842670552347087,"397":0.12365821371193648,"398":-0.047645536615274875,"399":0.05489705846012586}},{"sx":5,"sy":5,"depth":16,"w":{"0":0.03287808810693713,"1":-0.03442408120842479,"2":-0.027145902748304335,"3":-0.03618815520651646,"4":0.1398522140543611,"5":-0.002275180429558602,"6":0.028242065156869865,"7":-0.02048898230528294,"8":-0.0046911082143499825,"9":0.00037658629834618087,"10":-0.07888444485153563,"11":-0.07783041891340711,"12":-0.0029605100206566977,"13":0.11987916503000616,"14":0.024543040975135547,"15":0.01560315620878586,"16":0.007776080238407951,"17":-0.03821690782154186,"18":-0.007876839326526039,"19":-0.03611761278265854,"20":-0.008306281655251494,"21":0.015928324574111002,"22":0.07174655182739782,"23":-0.03885663364677067,"24":-0.010843377565782351,"25":0.014581878722520761,"26":-0.012302149011543959,"27":-0.0467813417536503,"28":-0.013256394435391972,"29":0.026595912404262703,"30":-0.0018918994480466584,"31":-0.0468197580508655,"32":-0.11104021644552159,"33":0.09850364492442053,"34":-0.008000028820779966,"35":-0.04257997290972322,"36":-0.012511157175106381,"37":-0.029839063205571514,"38":0.013673746823928556,"39":-0.01091612564108148,"40":0.03384206806922918,"41":0.09298097279893318,"42":0.09541437854320195,"43":-0.05550367500650248,"44":-0.025279069129942912,"45":-0.014131589082347596,"46":0.05502498192506896,"47":0.016465297882013254,"48":-0.025491843351735387,"49":0.0313116586715175,"50":-0.09230087637224947,"51":-0.05689786664010429,"52":-0.09215912178062743,"53":-0.016132637410837994,"54":-0.10612012681625374,"55":-0.028750605986216662,"56":-0.032197564384439804,"57":-0.013184967228635625,"58":0.007506600446992096,"59":-0.09259522670774283,"60":-0.00605311041713763,"61":0.0019424786543147227,"62":-0.1519644123921988,"63":-0.005313350616085984,"64":-0.03247688524818295,"65":-0.06139627386020708,"66":-0.11867867905172658,"67":0.02168186312654758,"68":-0.13974092704885646,"69":0.03242241347119388,"70":-0.06043270295348333,"71":0.013584962482217688,"72":-0.0059186974539956775,"73":-0.001665008295254442,"74":-0.10401575857982759,"75":-0.086481108614416,"76":-0.08481373558826552,"77":-0.012642743660345138,"78":-0.011134824623422274,"79":-0.09943168178403929,"80":0.009023971607083453,"81":0.0013679868417444136,"82":-0.03963877260851905,"83":-0.029278908071080367,"84":0.09199321366801695,"85":0.06770702507343503,"86":-0.0019538468002394532,"87":-0.0708150045287283,"88":-0.029679995715803636,"89":0.053841000066154665,"90":0.024804986560771347,"91":0.0026797883646764867,"92":0.018038188694273077,"93":0.16358121384519778,"94":0.03963302396082458,"95":0.039524905667442,"96":0.08053841958715231,"97":-0.06541299050400337,"98":0.04383510967032773,"99":0.0013854319612214487,"100":0.09899348347686344,"101":0.012352995587712964,"102":0.040965327228260906,"103":-0.04659662069698956,"104":0.0221631635112463,"105":0.01980363554702368,"106":-0.07923506719604924,"107":0.0187098618110499,"108":-0.01822389204052641,"109":0.04070217480752821,"110":-0.01883103098059808,"111":-0.019736510437881077,"112":-0.025155932854867138,"113":-0.0077218514089104325,"114":-0.08306251845989755,"115":0.009819329367691495,"116":0.03843384307940991,"117":0.023359014705409575,"118":-0.024112808506785183,"119":-0.024511012399876058,"120":-0.02593241796255521,"121":0.0879759541505202,"122":0.0022731753874449243,"123":0.0070488184047021755,"124":-0.026430760501050702,"125":-0.025397611936859313,"126":0.008298023081740663,"127":0.01016888312185162,"128":0.0018363405121379318,"129":0.02882732377583611,"130":-0.04514990907302511,"131":0.024115249936782157,"132":-0.08697468223433312,"133":-0.025402883230841933,"134":-0.03416419662867943,"135":-0.04911610822144045,"136":-0.05148228767732784,"137":0.04433207046495164,"138":-0.07157017378792234,"139":-0.05273286845401476,"140":-0.03390948840170688,"141":0.02060173088429262,"142":-0.04028055406540856,"143":0.009621116044511198,"144":-0.1468762168745138,"145":-0.04229430676811052,"146":-0.0756033590938351,"147":-0.06405382542350892,"148":-0.010825682849728997,"149":0.005695295675309576,"150":0.03447399214793752,"151":-0.020520240706855257,"152":0.06470822217233999,"153":-0.06762837694891606,"154":-0.08297852398552433,"155":-0.037279321284710065,"156":-0.08215616738912651,"157":0.00395929996458503,"158":-0.008077244547121455,"159":-0.004779553940310868,"160":0.0007567830946397609,"161":-0.03153955761011601,"162":0.05866839926621009,"163":-0.02807004519082049,"164":0.03335992049507547,"165":0.037811310591207785,"166":0.005552774129389666,"167":-0.07193874977922794,"168":-0.030732504028132983,"169":0.035607737351108934,"170":0.02208402194280112,"171":0.02109248338274124,"172":0.019405794664862787,"173":0.11249891360526619,"174":0.029945792665645416,"175":-0.09685465884181364,"176":-0.05735327405179654,"177":-0.001553078560097379,"178":0.02141697484871684,"179":-0.0015600429773996868,"180":0.04740652148683953,"181":-0.0174247863807339,"182":-0.11009359048446749,"183":-0.04955700720401131,"184":0.05890004459125234,"185":0.058215412414381745,"186":-0.11490344289747165,"187":-0.035893453185649814,"188":-0.047478216041549906,"189":0.013483065454304225,"190":0.0594537960601055,"191":-0.07461018064885636,"192":-0.015330679597231929,"193":-0.014517731120310852,"194":-0.10790188337733332,"195":0.025563566721541305,"196":0.0040882923954242084,"197":0.029273356627527936,"198":0.03234629116012986,"199":-0.024467380930308293,"200":0.041923492598272626,"201":0.011697705652874636,"202":0.05947262463171142,"203":0.10025586198471909,"204":-0.01323062232722283,"205":-0.006622750742277824,"206":-0.0002532340842895169,"207":-0.0395979573214686,"208":-0.04165690120660666,"209":-0.044627284197243065,"210":-0.07731809009193219,"211":-0.09399830806212436,"212":-0.02780603673949434,"213":0.04001541300292582,"214":0.08877213511045996,"215":-0.021625473610553964,"216":0.042325059296551844,"217":0.02454600648652647,"218":-0.06148931132101694,"219":-0.03015548174069824,"220":-0.03986619439583323,"221":-0.016006097047318323,"222":-0.09637013734516085,"223":0.06243058431498945,"224":-0.11770016268758192,"225":-0.04846282540909123,"226":-0.04857303768883121,"227":0.038581422826778476,"228":0.06254829931422401,"229":0.01871325234116003,"230":0.09045846564034542,"231":-0.011909346510844328,"232":-0.04894401185951347,"233":-0.030344313144944467,"234":-0.0614917416619242,"235":-0.07892695751565655,"236":-0.004586219035265779,"237":0.02708071956541823,"238":0.025821979670288493,"239":-0.042642322621530636,"240":0.01949228091831098,"241":-0.03370976184989293,"242":0.10267813030025846,"243":-0.03181214426636333,"244":0.06769999086897033,"245":0.08106505185514497,"246":-0.007158177386521113,"247":0.007516808215127046,"248":-0.03964463274948178,"249":0.08116833347904011,"250":0.01664237895759671,"251":-0.018081096557050858,"252":-0.09335171904114,"253":-0.004778016964636432,"254":0.045552623466602264,"255":-0.001812415052756081,"256":0.04357143528345158,"257":0.050313689908124744,"258":-0.030178233022205247,"259":-0.033322453146621585,"260":-0.004042756432645485,"261":-0.017408984624783956,"262":-0.0129910616413503,"263":-0.10357418553993097,"264":-0.04553121528575054,"265":0.1091256525954961,"266":-0.09399099222043542,"267":-0.00892633489930551,"268":-0.10656389472452313,"269":0.025426261666813988,"270":0.019881431742755997,"271":-0.042141426766402555,"272":0.0440746214966396,"273":-0.042996269444914956,"274":-0.015770238152017287,"275":-0.14141043272385068,"276":0.030922429949839667,"277":0.015432233276769257,"278":0.029006353458673594,"279":-0.08384108374574653,"280":0.06567997938113132,"281":0.036238126180777104,"282":0.05479679818429194,"283":-0.07560025229548803,"284":-0.06275109898106863,"285":0.04124398491394586,"286":0.11385095151799755,"287":0.03353690668693378,"288":-0.038003088523863235,"289":-0.013407472995957037,"290":-0.0455659039265028,"291":0.03110063659394325,"292":0.037588093625847335,"293":0.01771175668147729,"294":0.05100310017909209,"295":-0.10453038542435555,"296":0.01724873355754343,"297":0.017677475214641206,"298":-0.02972425809051678,"299":-0.10382127989712737,"300":-0.03728972649453769,"301":0.043221845441947286,"302":0.02730048914729091,"303":-0.07313297643675706,"304":-0.11853229518666558,"305":0.03493735327144599,"306":-0.007047102396664999,"307":-0.049003635627233325,"308":-0.03951943889520788,"309":-0.013444273649661635,"310":-0.020316526098561164,"311":0.018191298410767116,"312":-0.05328455168275099,"313":-0.08708235327711558,"314":-0.09166666570529405,"315":-0.0796378294157486,"316":-0.027278967669561813,"317":0.010292389213842339,"318":0.03316810120494676,"319":-0.09407998812346988,"320":0.005469092550502951,"321":0.02058499920249092,"322":-0.0343191757595422,"323":-0.0316490840155833,"324":0.007807801440436768,"325":0.09431796002659115,"326":0.02252746868037467,"327":-0.07563315203987934,"328":-0.021213679074787238,"329":0.09016311611245881,"330":-0.011517438457188974,"331":-0.013612449574234577,"332":-0.011142034684651601,"333":0.060960353872142714,"334":0.030598969780709518,"335":-0.12114468843589257,"336":-0.1410336022341069,"337":0.03305136899094118,"338":-0.014231654852605453,"339":-0.16057136434928523,"340":0.015146882392265417,"341":0.0565283316949347,"342":0.06436976338807167,"343":-0.10938170109743808,"344":-0.015918915916161475,"345":0.16043601512923147,"346":-0.11462496689689523,"347":-0.03858980331750859,"348":-0.06648992701592425,"349":-0.07748358733304082,"350":0.00893994599430467,"351":0.06857940406520104,"352":0.09664249665632586,"353":-0.0003474778804596981,"354":0.012306725991395444,"355":-0.05434023004481221,"356":-0.02105136993077274,"357":0.04055337135014277,"358":0.10505640713295356,"359":-0.01586545904872986,"360":-0.12888926479484272,"361":0.09822494375744552,"362":0.0036484554353730125,"363":-0.025942288334132174,"364":-0.0012813608513676923,"365":0.07949742087329441,"366":0.011272566928870872,"367":0.06865882156967525,"368":0.04759734114662149,"369":0.044389149583053074,"370":-0.06713927610260341,"371":-0.019127607690024247,"372":-0.003064131027807027,"373":-0.02364057801729716,"374":-0.00949176557834017,"375":-0.028407803204767993,"376":-0.035273664187047464,"377":-0.024353779604629346,"378":0.028178380777038926,"379":-0.11693095568709405,"380":-0.016925921280607152,"381":0.026506119066978022,"382":-0.022919738999952366,"383":-0.02703891730879679,"384":-0.021502039964732902,"385":0.0021972633259369767,"386":-0.03978729635770194,"387":-0.020568158947224476,"388":-0.011654297269204084,"389":-0.08760891168202836,"390":-0.033329128016879324,"391":-0.10493508154315975,"392":-0.05287765886740909,"393":-0.03778836255525937,"394":0.0034177051551400163,"395":-0.010185189614778604,"396":-0.02048141143209887,"397":0.029949034620666167,"398":0.008391686410113954,"399":-0.08622962234507728}},{"sx":5,"sy":5,"depth":16,"w":{"0":0.03143130911964562,"1":-0.045400498632339456,"2":0.06628466838277607,"3":0.11185669958581976,"4":0.007424926613666926,"5":-0.08151991286211707,"6":-0.05338441606950578,"7":0.011168566320607455,"8":0.09053674642794743,"9":-0.042605396796515184,"10":0.10471404623188703,"11":0.005341063246422827,"12":0.11046728595295224,"13":0.058704620169013344,"14":0.019088584021102053,"15":0.07674559732258687,"16":-0.14344040242190126,"17":-0.006311405009541395,"18":0.04370436078533178,"19":0.015264522096349336,"20":-0.0759218206814982,"21":-0.03780845752766872,"22":-0.018382239246450896,"23":0.048035919308850226,"24":0.07819034722286529,"25":-0.01109698080303758,"26":-0.036013138486570916,"27":-0.02554142293562481,"28":0.057643225212300496,"29":-0.019788174807863573,"30":0.008754850825458219,"31":0.11040954067082495,"32":-0.06792293279292294,"33":-0.06018268987473162,"34":-0.043476979945083795,"35":0.04048938109918164,"36":-0.046274920548652544,"37":-0.043667486102150335,"38":0.02550858464953016,"39":-0.1098147481968408,"40":-0.0012393069903844163,"41":-0.06245973229996245,"42":-0.002918618891752646,"43":-0.07024874619242474,"44":0.017135429673259758,"45":-0.07175147046090515,"46":0.016679177983629865,"47":0.07331565137741977,"48":-0.04580536413599391,"49":-0.07291415929856412,"50":0.06554832048788299,"51":0.014160351878452503,"52":-0.07588820863482161,"53":0.027831086583473493,"54":-0.022039188684149346,"55":0.00875956699021768,"56":0.17558534067431017,"57":-0.028834560799254852,"58":-0.019268763779335844,"59":-0.04445250817509609,"60":0.00411297761523702,"61":-0.11172539357760654,"62":0.007501794796414289,"63":0.04566399873608938,"64":0.061473575892413576,"65":0.011319523002862576,"66":0.05302510397037536,"67":0.09361250343361127,"68":-0.05402274631753445,"69":0.012136118520496394,"70":0.032377363338239894,"71":-0.038497412939485144,"72":0.0936500091203291,"73":0.034737894608294566,"74":0.16222634965487234,"75":0.025931850480951465,"76":0.04957136493727571,"77":-0.05821992608698411,"78":0.046418117163212376,"79":0.10767138642705919,"80":-0.00257600121190852,"81":-0.038306171267590845,"82":0.09244740409888433,"83":0.013966606388969733,"84":-0.10077030950405906,"85":-0.12295922446818681,"86":-0.11660916457530646,"87":0.1185784376403282,"88":0.08365906917588149,"89":-0.012947368311301046,"90":-0.04886003823341333,"91":0.1343684670091689,"92":-0.065425326935705,"93":0.05054241954561453,"94":-0.012646715000715951,"95":-0.040318603683310465,"96":-0.04401119439330057,"97":0.033665010829251205,"98":0.04022292709746564,"99":0.04185257664332173,"100":-0.033537488305410104,"101":-0.10653830481541378,"102":-0.06692405314926557,"103":-0.01158487492471864,"104":-0.04249675310830621,"105":0.03240039685562438,"106":-0.1255368376877042,"107":-0.00115907449350048,"108":0.06703259810121552,"109":-0.015842928661142956,"110":0.06787456833063217,"111":-0.025110096846751178,"112":-0.060424665523853324,"113":-0.048328808821550315,"114":0.005664405012992719,"115":-0.04956305671490704,"116":-0.14135494875658836,"117":-0.1050566054432722,"118":-0.08984632738465037,"119":0.07210498933772577,"120":-0.07167126790652037,"121":0.011207845478707066,"122":-0.0589469467985099,"123":-0.11616267408599353,"124":-0.117074350835856,"125":0.06856978729458303,"126":0.0020116864485844642,"127":-0.015714748687881794,"128":-0.0037496099783036357,"129":0.007984764700459382,"130":-0.007488472527172996,"131":0.0570767334596927,"132":-0.03650843266573624,"133":0.03924836444952325,"134":-0.023234349177567865,"135":0.06667831155343705,"136":0.00039837604106749097,"137":0.07324516224938522,"138":-0.02772652185109321,"139":-0.025518860585951736,"140":-0.040166549706636294,"141":-0.03306698836094426,"142":-0.00454929360007414,"143":0.03602462692415776,"144":-0.0075063403639968095,"145":-0.03821828183829109,"146":0.08274218919345239,"147":0.027720334889407335,"148":-0.019241119994821167,"149":0.00011399560277095114,"150":0.012154138366401813,"151":0.035543911843869465,"152":-0.026986324140875217,"153":-0.023096190538717632,"154":0.06238468097800213,"155":-0.07375484462774289,"156":-0.029703857153946387,"157":0.08344086342298376,"158":-0.0018619323298148817,"159":0.07242889503551023,"160":-0.013133276770795134,"161":-0.03530404518802564,"162":-0.042993037436027684,"163":0.0703801277007616,"164":-0.015518112255704172,"165":-0.1298818945282824,"166":-0.13571443943309885,"167":0.013651502856506311,"168":0.033046635170981324,"169":-0.044764090965022346,"170":-0.008699985722944606,"171":0.12193194677458506,"172":0.04501416163372204,"173":-0.044337854834336554,"174":-0.0884467691133481,"175":-0.11516245517735517,"176":-0.09286170918083853,"177":-0.05024767599104007,"178":-0.005127549410569539,"179":0.11609262408161285,"180":-0.02921903139419784,"181":-0.11317217444919553,"182":-0.037056932588077005,"183":-0.013774373916864015,"184":-0.004029146143301535,"185":-0.04522094199932447,"186":0.001606130823713449,"187":0.006386609286130792,"188":-0.08299164113191984,"189":-0.05682547875833871,"190":0.006748412137536675,"191":0.020709242393964346,"192":-0.16760885202946132,"193":0.008028471580396246,"194":-0.06711314385468792,"195":0.041158992095702424,"196":-0.09198552451493557,"197":-0.14554308681511022,"198":-0.017566436508097635,"199":-0.010052435069003343,"200":-0.07491604986190073,"201":-0.06822835184513393,"202":-0.003980286848944213,"203":-0.10423317234202588,"204":-0.03463725700371906,"205":-0.0004740726478160751,"206":0.025017983455597966,"207":-0.035569245268998226,"208":-0.10689580522819196,"209":0.022886936959053694,"210":0.019703972207036496,"211":0.01772758125038429,"212":-0.134196544867465,"213":-0.06504207584153764,"214":-0.010629375522193011,"215":-0.012742180977020675,"216":-0.005554219985296791,"217":-0.022831960886701728,"218":-0.00026025626708866276,"219":-0.07379917098243632,"220":-0.08247038798586291,"221":0.017971110859677116,"222":0.024043627569192975,"223":0.01902159601561088,"224":0.07205307820831373,"225":0.03301490833491096,"226":0.030301242651507274,"227":0.012089558162489949,"228":-0.0028665501482241533,"229":0.025424254369878715,"230":-0.07855217425217237,"231":-0.04967769654760329,"232":0.02869339914436605,"233":-0.040365403185262126,"234":-0.04007295699696962,"235":0.038438735280753616,"236":0.07044722479533677,"237":0.03448389775157631,"238":0.0365920212989049,"239":-0.06061443661565266,"240":0.0811520574962374,"241":-0.02031270960571911,"242":-0.04271713648600323,"243":-0.028206068658906666,"244":-0.08814863258763193,"245":-0.08619075198541944,"246":-0.1257443606478982,"247":0.004987680907569295,"248":0.08924610271964696,"249":-0.04786150086689904,"250":-0.02347092963999712,"251":0.07738508720149163,"252":0.0934347630141347,"253":0.11628397105760915,"254":-0.031722733292858164,"255":-0.1498198938835754,"256":-0.1105913314303726,"257":-0.003888444040021182,"258":0.013353943981065965,"259":0.05453888982312004,"260":-0.033077579613571606,"261":-0.1471040514448321,"262":-0.07748921762160217,"263":0.038200719753798934,"264":-0.0415308401787103,"265":-0.07509643409856712,"266":-0.027685352393679082,"267":-0.006866885143478102,"268":0.031463993923379896,"269":-0.04462314892563224,"270":0.02443634141443951,"271":-0.093517162997849,"272":-0.10339104291114129,"273":-0.027649445740919664,"274":-0.005451600801980313,"275":-0.026870326240681655,"276":-0.1222169293562337,"277":-0.07356909798014094,"278":-0.009248613697487739,"279":-0.09359397331587088,"280":-0.014068344134043348,"281":0.00312114284764174,"282":-0.10072156441829415,"283":-0.03246059783143403,"284":-0.0762049427784645,"285":-0.05362678760433132,"286":-0.03414733615755604,"287":-0.09275654522850663,"288":-0.09895917915572387,"289":-0.0448987915528824,"290":0.002741659736927682,"291":0.05515573473281276,"292":-0.038880269389472324,"293":0.019952814870839896,"294":-0.00635805214178855,"295":-0.0005456996434978643,"296":0.03790347204421997,"297":-0.0016427939484688994,"298":0.00435735713286963,"299":-0.1485172289366478,"300":-0.08709489589420961,"301":0.004460865772482384,"302":-0.013348030893227366,"303":-0.001257009818492622,"304":0.07345569501445758,"305":0.09307721558177065,"306":-0.028881748681513254,"307":-0.022336848987704716,"308":-0.026239388455427507,"309":0.06609150785066492,"310":-0.050897219083483346,"311":-0.09134484751748106,"312":0.12046122725241233,"313":-0.11217662861803102,"314":-0.004525910660914026,"315":-0.06000784388766795,"316":0.06821813504137327,"317":-0.01385735964945057,"318":-0.02998692217208026,"319":-0.0006892947469413221,"320":0.05650176015420521,"321":-0.014826212568894876,"322":-0.03755617165166551,"323":0.05271113902028149,"324":-0.008018376174607487,"325":-0.09244658271507672,"326":-0.10522844309234211,"327":0.05925353969852856,"328":0.014229383394245653,"329":-0.052420078812051955,"330":-0.015917395940231793,"331":0.10885610179014653,"332":0.03585492908491521,"333":0.028961911459757225,"334":0.06531693852383666,"335":-0.10018442127028558,"336":-0.0560996257832051,"337":-0.06407390808542625,"338":0.06904225994002852,"339":-0.021423850614060453,"340":-0.0319191368398271,"341":-0.040796183977194915,"342":-0.10765528503444761,"343":0.05237060614697222,"344":0.037176391134528454,"345":-0.00888665759210323,"346":-0.014027671206711823,"347":0.002584395123872071,"348":-0.026105213166975165,"349":-0.012633753886820434,"350":0.06732456011912198,"351":-0.05253718117968522,"352":-0.11328734543537052,"353":-0.07630753450399841,"354":-0.04504764266178313,"355":0.021662084896381852,"356":0.04760262489094957,"357":-0.18867395039283827,"358":-0.03645448583625298,"359":0.04260455113094439,"360":-0.029096201185221878,"361":-0.03405655432610718,"362":0.05232374092820493,"363":0.012492805982062604,"364":-0.020510848768464925,"365":-0.02558350193742432,"366":0.03595572097985152,"367":-0.14028386995379732,"368":-0.024566585954417054,"369":0.01781008963203525,"370":0.055714378703839745,"371":-0.04111253983771408,"372":-0.021323105546946993,"373":-0.004278321090793737,"374":-0.08745850045615287,"375":0.025146848125408246,"376":0.04091984313640981,"377":-0.0164686098159988,"378":0.03912959419508346,"379":-0.03399760126812459,"380":0.03680747834532549,"381":-0.03831976165026047,"382":0.04051522542329566,"383":0.061493501736729905,"384":-0.0015580012558562197,"385":0.0446791659399403,"386":0.047698882359835125,"387":0.12497513569812942,"388":0.01287872012890283,"389":0.07985763959179037,"390":-0.10560394989398891,"391":-0.0324745429072999,"392":0.055084953735996596,"393":0.027515181071782035,"394":0.028362263699587636,"395":-0.005281759127999275,"396":0.03149495116034481,"397":-0.010389649037750704,"398":0.0033417586739260046,"399":-0.08324705928510125}},{"sx":5,"sy":5,"depth":16,"w":{"0":-0.041425515590070155,"1":-0.03159892441450332,"2":0.004189892971219415,"3":-0.03979284155830842,"4":-0.032704469380282944,"5":-0.03617798009038251,"6":-0.04600831395193399,"7":-0.08502682324457239,"8":-0.08453198743966144,"9":0.07171306262573539,"10":-0.050998672822626906,"11":-0.008444056386784683,"12":-0.017083831904278972,"13":-0.08644359397289897,"14":0.017963703339556165,"15":-0.06251896705776888,"16":-0.008382862658927155,"17":0.03313875721339049,"18":-0.04390625152714818,"19":0.06508796455743968,"20":-0.06912218821747003,"21":-0.006954368286411248,"22":-0.02798880873909748,"23":-0.03866910034877746,"24":0.012337080327763907,"25":0.09712393404598438,"26":0.018758560830849442,"27":-0.07078943712611449,"28":-0.0025055549868583556,"29":-0.033520813891940525,"30":0.04521704871436426,"31":-0.013016052134610292,"32":-0.009485495519218567,"33":0.040614223973104886,"34":0.029159103680690066,"35":0.05872436095574625,"36":-0.042656098474990065,"37":-0.03486140599882286,"38":0.03403886232237134,"39":0.004115562866069456,"40":-0.020716262891695283,"41":0.07247594531942661,"42":0.014567319687403475,"43":0.0001987645003991633,"44":-0.06102653988720101,"45":-0.004774224582505639,"46":0.007826371489920617,"47":0.02087348603563518,"48":-0.03446592677735814,"49":-0.05487590108517617,"50":-0.02398483234382022,"51":0.06458659236973652,"52":-0.08793508877098505,"53":-0.036499265023788495,"54":-0.06739336269679207,"55":0.052437834859238946,"56":-0.03017831437045458,"57":-0.012157771873186039,"58":-0.08774629757324041,"59":-0.1292046085013525,"60":0.010332466035754174,"61":-0.025569552820021785,"62":-0.11072416725703052,"63":0.000946771947485444,"64":0.06808483155667336,"65":0.013251762790292613,"66":0.028240189557443455,"67":0.005828254069968521,"68":-0.06795902254956131,"69":-0.01331399044303652,"70":0.09300554023423022,"71":-0.04141154506048484,"72":-0.02982309640565597,"73":0.058795721318027315,"74":-0.07095983712902368,"75":-0.03271896601391806,"76":0.03838030208015345,"77":0.0016044429111792134,"78":-0.0473475917132681,"79":0.004577852923312234,"80":-0.004429866870696701,"81":0.07827861161497177,"82":0.025812760407681032,"83":-0.04201851348613079,"84":0.02253598773415493,"85":-0.08789408007808698,"86":-0.07889099738019408,"87":-0.06408265704244227,"88":0.026011110952864628,"89":0.05854590223619555,"90":-0.05353118670558132,"91":-0.00549418953618115,"92":-0.03751419403928653,"93":-0.012888443926634645,"94":0.011808346205228084,"95":-0.05126299985280392,"96":-0.03160384090596795,"97":-0.0101295146447705,"98":-0.018699156058173065,"99":0.05660031137856053,"100":0.009428904134756484,"101":-0.0912168119683917,"102":0.02040909460103895,"103":-0.008278050295266702,"104":-0.00625991831494897,"105":0.05287659801908056,"106":0.013274751668881923,"107":-0.12696288623706922,"108":-0.061373610204021725,"109":-0.01474837092503374,"110":-0.009133947037269791,"111":-0.017590394435749255,"112":-0.08042106154084597,"113":-0.002019912455240741,"114":-0.009485020360614677,"115":0.03864773176907288,"116":-0.008559600132051473,"117":-0.14516089255042364,"118":0.09280919473610255,"119":0.053288538253531165,"120":0.023951618503146234,"121":0.08014662457889694,"122":-0.04173703194929862,"123":0.011968862721432003,"124":0.03392319183397004,"125":-0.004273859092912658,"126":-0.03685228954910456,"127":-0.08036921045479249,"128":-0.06956450339037375,"129":0.03738839657658661,"130":0.06630540295758316,"131":0.021061520070513456,"132":-0.029184179864449964,"133":-0.116429520688463,"134":0.08654169914230998,"135":-0.03953419703589341,"136":-0.01274043946735807,"137":0.04588810860754036,"138":-0.03363311314596772,"139":-0.025606896732968846,"140":0.0365436278999463,"141":0.04746916400220905,"142":-0.1509762591570147,"143":0.048966273189006475,"144":-0.04292914797880249,