{"layers":[{"out_depth":3,"out_sx":32,"out_sy":32,"layer_type":"input"},{"sx":5,"sy":5,"stride":1,"in_depth":3,"out_depth":16,"out_sx":32,"out_sy":32,"layer_type":"conv","l1_decay_mul":0,"l2_decay_mul":1,"pad":2,"filters":[{"sx":5,"sy":5,"depth":3,"w":{"0":-0.02054400292329549,"1":0.04425169467518506,"2":0.10182497767572937,"3":0.09654527811528267,"4":-0.039220035550560334,"5":0.0680652303482099,"6":0.07316971850761514,"7":0.12078584480658446,"8":0.09237778421842756,"9":0.04709969552057909,"10":0.14302474060011178,"11":0.017807368096525278,"12":-0.062328988921346806,"13":-0.17057706497238487,"14":0.1080585648754959,"15":-0.1735007389070254,"16":0.09803623616882688,"17":0.09815976591584315,"18":-0.09349228861521539,"19":0.0802765063734843,"20":-0.027224960363440083,"21":0.32238048539404784,"22":0.05348057527413634,"23":0.17489799037289022,"24":0.26211212063129297,"25":0.1892121120794015,"26":-0.0392160255275175,"27":-0.051585097336940666,"28":-0.20486062231684402,"29":-0.03698118316775405,"30":-0.05366877583258333,"31":0.05596491386893566,"32":-0.10772806584999188,"33":-0.17633517369856763,"34":-0.13107608708019328,"35":-0.13636957851183848,"36":0.1254947663550235,"37":0.015189384750362614,"38":0.1198505509832427,"39":0.037634587981493994,"40":-0.021657124938288908,"41":-0.01883015188765296,"42":-0.11456812026355197,"43":-0.1782633680212212,"44":-0.07370602624686787,"45":-0.15708097647920535,"46":-0.13095867716889653,"47":0.08032231056946713,"48":0.011997261153712233,"49":-0.14673429930620913,"50":-0.010328787634785262,"51":0.2825009604550333,"52":0.05848090475225414,"53":0.12436351395509057,"54":0.00020757598007983854,"55":0.17732754369623166,"56":-0.022546143810049563,"57":-0.03194721161524222,"58":-0.0768721403766805,"59":-0.09162846711343851,"60":0.06151270486223829,"61":-0.1848614899660167,"62":-0.037576628302849434,"63":-0.3040713842224575,"64":0.06235719749681572,"65":-0.10944845995601876,"66":0.17805661563018974,"67":0.25744675201198025,"68":-0.05870314059412045,"69":0.02544817015919048,"70":0.1284336110729259,"71":0.008752168414133683,"72":0.018323391935296116,"73":-0.09594243897820241,"74":-0.13810693154801937}},{"sx":5,"sy":5,"depth":3,"w":{"0":-0.030098854347071373,"1":0.10761053324100463,"2":0.1145851173734473,"3":0.07526933136458848,"4":0.026582429728482515,"5":-0.11924392011161795,"6":-0.026099333126915564,"7":0.016146558691962864,"8":0.045531409184943215,"9":-0.24129726329989712,"10":-0.01124752471892404,"11":-0.11170806550719026,"12":-0.06085051841277653,"13":-0.17568065035239444,"14":-0.27762523870271605,"15":-0.04112568587453483,"16":0.12193575624039663,"17":0.0156436214107811,"18":-0.07391001071624481,"19":0.07813292934726805,"20":0.021753175427353763,"21":-0.14542219613339064,"22":-0.16771628348260265,"23":-0.09441090767480033,"24":0.1363736034143003,"25":-0.15833116507176034,"26":-0.22941727940209258,"27":-0.30296238451540897,"28":0.04844614767089085,"29":-0.040238314657979495,"30":0.10217359330861003,"31":-0.018988118704239797,"32":-0.0286394092815274,"33":0.12490579717477993,"34":-0.020594929001539843,"35":-0.054181790785887814,"36":0.10427519518101062,"37":-0.045196615006351484,"38":-0.2296540979656467,"39":0.050023375759066166,"40":-0.3176747666431995,"41":0.07286047944155899,"42":-0.08704474767047617,"43":-0.17858789808650335,"44":0.21761641915677282,"45":0.16796502462710247,"46":0.099058365380689,"47":-0.15447694574423912,"48":0.05563491047574318,"49":-0.11392125337047461,"50":0.015620795099960505,"51":-0.09169695777145964,"52":0.031251720091973426,"53":0.07300722129943518,"54":0.047917992294905884,"55":-0.035147110531737205,"56":-0.026907332444594825,"57":-0.055382723337347915,"58":-0.06380960896897378,"59":-0.06403981274020563,"60":0.14882901239349144,"61":-0.035940854813331986,"62":0.09533952018075861,"63":0.0793474968715034,"64":0.10737245654348966,"65":-0.0015899435821266484,"66":0.17797014784853707,"67":-0.014633615283278726,"68":-0.0864591550689264,"69":-0.0151251990570975,"70":-0.04791494505728705,"71":-0.025161000207076015,"72":0.03434681518544476,"73":0.025231369270196036,"74":-0.14730024819345733}},{"sx":5,"sy":5,"depth":3,"w":{"0":-0.08405474186330994,"1":0.13154226375169242,"2":0.1345129856636358,"3":-0.009033710692688593,"4":0.2289679997874611,"5":0.02575324622487518,"6":-0.019606090716927062,"7":0.10338758663494085,"8":0.20391364951196997,"9":0.0005798675930298357,"10":0.14474551958290577,"11":0.20457601471520723,"12":0.02526420658042936,"13":0.1405984965204717,"14":0.069784759311896,"15":0.024367991766962006,"16":0.00045102142761984553,"17":-0.04904763114936536,"18":-0.16025631669441434,"19":-0.004267858296251219,"20":-0.07433531223352839,"21":-0.04511837615444108,"22":0.0484131239084725,"23":-0.05492542611098556,"24":-0.1450724532788667,"25":0.04646067954498744,"26":-0.238248090992018,"27":-0.0893510358906329,"28":-0.022611995413886747,"29":-0.07316317360407977,"30":-0.18621776922247613,"31":0.11089953537602873,"32":0.11693456758808941,"33":-0.07229283880257077,"34":-0.0012074705293283715,"35":-0.07434303222449078,"36":0.04897982616913621,"37":-0.00589258475727171,"38":0.12608631438633364,"39":0.04397464507424952,"40":-0.0306626728657073,"41":-0.005536966743625923,"42":0.052608215094305875,"43":-0.002258775766254227,"44":0.07723548976669206,"45":-0.06340653172489351,"46":0.06649501890731567,"47":0.05893578260801385,"48":-0.053878347925086015,"49":0.05604201031686142,"50":0.04640055802443439,"51":-0.06843402531991662,"52":0.1871010568659731,"53":0.006982622691944642,"54":-0.08044864164936338,"55":-0.038295264225393415,"56":-0.0364950986633032,"57":-0.12137233926083882,"58":0.14970620696883077,"59":-0.04692340656522626,"60":-0.16559146321074664,"61":0.09788577286281466,"62":0.03474309972856679,"63":-0.019525933527031226,"64":-0.0021659189582298437,"65":-0.17996012840365216,"66":0.11431873350776946,"67":0.040504501091765205,"68":-0.15450971210397435,"69":-0.04921293627547072,"70":-0.06362061871066357,"71":-0.16755267599892834,"72":0.03126448626754356,"73":0.030463148192946633,"74":-0.07575902440877884}},{"sx":5,"sy":5,"depth":3,"w":{"0":0.029332988948790908,"1":-0.17455128714300938,"2":0.058503452593097235,"3":0.029049376953873458,"4":0.13384612039227625,"5":0.12694948265094724,"6":-0.09322362342775525,"7":-0.1080198673022524,"8":-0.10369969993452097,"9":0.11304243772576265,"10":-0.033047607461615745,"11":0.10427948722258094,"12":0.039872569794851445,"13":0.052110643507297334,"14":-0.006884160333303885,"15":0.14133517851640023,"16":0.02516162058062421,"17":-0.055400819221544786,"18":-0.04319409596076184,"19":-0.01712962610258831,"20":0.05988221468491684,"21":0.046076497500638566,"22":-0.032690927755498,"23":-0.004775057701349422,"24":0.15075402055381742,"25":-0.0037956941974293308,"26":-0.055762932136598574,"27":0.03745209329610692,"28":-0.2432902329123197,"29":-0.1341950593694252,"30":0.11623515129644808,"31":0.06323210899183701,"32":-0.1090398110909317,"33":0.06754538034064925,"34":-0.1297087495663099,"35":0.022972490210757958,"36":0.05296460477873877,"37":0.06830303854080685,"38":-0.026011994699516084,"39":0.08575222025312067,"40":0.17590128353994705,"41":-0.0457035253336229,"42":-0.0682578084194409,"43":0.010369347739443688,"44":-0.03632076913921992,"45":0.14806805721317218,"46":0.03395905479155806,"47":-0.0489438545466976,"48":-0.009254825959094418,"49":-0.1604564662520477,"50":-0.10681664588984034,"51":0.018022980557168954,"52":-0.03857086664974182,"53":0.05314506974617638,"54":-0.19719437445965182,"55":-0.06881391701087375,"56":-0.10813112211899407,"57":0.0047100133040246265,"58":-0.044699918583788474,"59":0.008081483069662462,"60":-0.08235441825951775,"61":-0.05912437111268986,"62":-0.005509675524463336,"63":-0.008403428725459306,"64":0.10863481380443404,"65":0.029906383883920893,"66":0.017132530254243248,"67":0.13277533957640333,"68":-0.09048226544449182,"69":0.02922298031754977,"70":0.05757117477965544,"71":-0.04612543012687933,"72":0.05616888730982182,"73":0.0626300977788641,"74":-0.021694165691795886}},{"sx":5,"sy":5,"depth":3,"w":{"0":0.03230046805858991,"1":0.05828960503052121,"2":-0.08650197220837047,"3":-0.09004948992318373,"4":-0.0077304675489796425,"5":0.02071513892355726,"6":-0.01037716453921154,"7":0.06639839753738969,"8":-0.015986855528341205,"9":0.08708574955288967,"10":-0.03531935844703759,"11":-0.15103355023036957,"12":0.15847516321277608,"13":-0.07438032265929898,"14":0.12566379789271906,"15":-0.04711081893785292,"16":0.13318014035441755,"17":-0.04372302408057329,"18":-0.06278030892207193,"19":-0.04135512645419366,"20":0.050596258266972165,"21":0.011081635946454562,"22":0.22906593290633637,"23":-0.1571465294239602,"24":0.04869681224806154,"25":-0.08341643509215718,"26":0.015853900870623747,"27":0.17951400035500542,"28":-0.1850071951297205,"29":-0.04548668328653714,"30":-0.19497884713407823,"31":-0.005251399339864701,"32":-0.038878346444178286,"33":-0.06570701415172282,"34":0.06293289028466657,"35":0.06927247912478779,"36":0.20151111825132498,"37":0.09176598417131936,"38":0.10073013335642482,"39":-0.2457281230123509,"40":0.056600074334741624,"41":0.13356563315786343,"42":0.04325059803943845,"43":-0.1989902353853588,"44":-0.11746128571601,"45":0.09379048465480552,"46":-0.14017256181321627,"47":-0.06107296687980144,"48":-0.024510297670849664,"49":0.15988318051279993,"50":-0.16136979703224505,"51":-0.029716691319358956,"52":0.04489409980145391,"53":-0.05009962697489778,"54":-0.07924536766468634,"55":-0.06490381674527096,"56":-0.027365762035461615,"57":-0.06390334867730639,"58":0.09764409602961716,"59":0.030069857034339974,"60":0.18300391925758155,"61":0.2189612684799314,"62":0.16458493857711518,"63":-0.04703597985067454,"64":-0.07114723103770149,"65":-0.09890742211070329,"66":-0.13821057221819227,"67":0.000004177324212568926,"68":0.03223058174868212,"69":-0.011751269210570956,"70":-0.21077076874288272,"71":0.06776831694211286,"72":-0.03892793539498677,"73":0.05778726315991645,"74":0.05249741167648247}},{"sx":5,"sy":5,"depth":3,"w":{"0":-0.07479804119433954,"1":-0.2078101237614196,"2":-0.16987771879629182,"3":-0.004514521692846929,"4":-0.1999364264861134,"5":-0.13942456200578576,"6":-0.1056565555917523,"7":0.061251209733839955,"8":-0.10171987704005997,"9":0.24635874597869856,"10":0.07900952188501519,"11":0.0626515314420251,"12":0.09155556391947021,"13":0.07354749411574767,"14":0.26246824877900604,"15":0.11112950507038542,"16":-0.065995785727223,"17":-0.13665233480315736,"18":-0.14475939963664025,"19":-0.17946136964930928,"20":-0.07886337959149872,"21":-0.13551126168494115,"22":-0.13057897720027448,"23":-0.12607723133546558,"24":0.15709956001903044,"25":0.10771371795393471,"26":0.0825162338003777,"27":0.08959075892175922,"28":0.22942215214454062,"29":0.21749675112139333,"30":-0.11072453843573672,"31":0.0790649944849029,"32":0.1265898403563858,"33":-0.05505087543294937,"34":-0.15282946540791195,"35":0.16889138798490042,"36":0.15518334087980193,"37":-0.06929227872197663,"38":0.0603463328650633,"39":-0.079059152559882,"40":-0.16863263010719728,"41":-0.16437741697989813,"42":0.12186742016892321,"43":-0.016388293759022152,"44":0.0692969960080911,"45":-0.02134448067180228,"46":0.12140594720139912,"47":0.009317866775322883,"48":0.0002726467025385056,"49":0.11616009352459593,"50":0.009545239563575647,"51":0.07908320570061442,"52":0.0634192084077383,"53":0.03618167087349345,"54":0.019214245091020613,"55":0.02536401964008777,"56":-0.06728831291710327,"57":-0.41224673723573546,"58":0.09111332580295409,"59":0.019611939006834275,"60":0.11406297158246517,"61":0.03345514431455279,"62":0.043913787705177676,"63":0.23241235579677855,"64":0.08105447004848661,"65":0.3544261065180764,"66":0.1040037753826529,"67":0.010131643064964961,"68":-0.0021792007129071626,"69":-0.006337506047025802,"70":-0.03797078094333427,"71":-0.1680838848323703,"72":-0.24693590467039214,"73":-0.25237543644791843,"74":-0.1886568145514466}},{"sx":5,"sy":5,"depth":3,"w":{"0":-0.2890197831718842,"1":-0.25493210554862056,"2":-0.017467134333016922,"3":-0.26177101276946585,"4":-0.15770722762058773,"5":-0.11339841436871222,"6":0.09278096035259718,"7":-0.08707417513741923,"8":0.007119004912898861,"9":0.006154809930897882,"10":0.08668443408370458,"11":-0.004271730233575948,"12":0.16488504247200766,"13":-0.011818597260626994,"14":0.042868981861413295,"15":-0.08417460441836379,"16":-0.11666356691856596,"17":-0.09570236113065497,"18":-0.16920555772409665,"19":-0.07739095261687616,"20":0.06177256160268883,"21":-0.10647438549172335,"22":-0.08250606577596939,"23":-0.15658002781476446,"24":-0.10876165135893792,"25":0.006453927103399082,"26":0.10848479279551416,"27":0.17791768322446438,"28":0.12424189756004726,"29":0.07623932794180312,"30":0.1919657897032757,"31":-0.1599938021256096,"32":-0.2214647043591533,"33":-0.12662559040906524,"34":-0.016048475573083934,"35":-0.08946266250043453,"36":-0.00154147300457567,"37":-0.05373713327449951,"38":-0.009659896553696007,"39":0.11541472024820774,"40":-0.03293320934843348,"41":0.02960722091400226,"42":0.18951579990856518,"43":0.09995273153764947,"44":0.3395982256339752,"45":-0.013801012135798381,"46":-0.05992137538782772,"47":0.00953375216560419,"48":0.052118948736029895,"49":-0.14665467464379647,"50":0.11786599260727787,"51":0.007908680839621813,"52":0.07784191367655784,"53":-0.06330344466428738,"54":0.1465747027777385,"55":-0.027862487081278284,"56":0.07692257429102588,"57":0.009129668436008046,"58":-0.08268724278404724,"59":-0.009249524414379288,"60":0.11274490240196881,"61":0.09745494730330549,"62":0.20324240349777997,"63":0.11279826290982001,"64":0.1900416274061454,"65":0.005894705010743635,"66":0.025120614591062747,"67":0.16567201760035033,"68":0.25834772218551244,"69":0.09351279019197788,"70":-0.09766231008031431,"71":0.22026837064601598,"72":0.08950438617775834,"73":0.12203626048435373,"74":0.014859499018934755}},{"sx":5,"sy":5,"depth":3,"w":{"0":0.08915165189767227,"1":-0.22882518326636733,"2":0.03619503751965245,"3":0.2995048978747788,"4":-0.09031460913136476,"5":0.31112101530262226,"6":-0.03559901991399801,"7":-0.011742118494388505,"8":-0.056336312887187136,"9":0.07733959376735358,"10":-0.07410639923801923,"11":0.12293287490162638,"12":0.05013213906249567,"13":0.006908284642169274,"14":0.08170290804253107,"15":0.03880234043774683,"16":0.07614246927585823,"17":-0.198966999656171,"18":-0.01575676597500945,"19":-0.18257126819515695,"20":-0.06627660347205842,"21":0.02869388783910512,"22":-0.10376580515600892,"23":-0.014051311917028493,"24":-0.10761875049157424,"25":0.1321386322756956,"26":-0.04390160035913202,"27":0.12573498356670776,"28":-0.1864539735999541,"29":-0.06773071529875975,"30":0.023603341307107912,"31":0.07601089114032698,"32":-0.08228501652238192,"33":0.1017143559040991,"34":-0.2034708230213117,"35":0.2954687361825841,"36":0.02449964922838035,"37":-0.007444209350706893,"38":-0.16043313423176986,"39":0.018029059214361497,"40":0.04835165795831748,"41":0.00436711591958697,"42":0.10474368460764648,"43":-0.108333709446701,"44":0.03657492549029872,"45":-0.1760873343595641,"46":0.006115499674899108,"47":-0.21915751435880682,"48":0.10127207314692029,"49":-0.01663295840348046,"50":0.10054201689815724,"51":-0.10262959188637957,"52":0.015867066896808134,"53":-0.12386663123228751,"54":-0.029639864651177274,"55":0.054074905878240306,"56":-0.0576029097617572,"57":-0.04342736139415645,"58":-0.08240377857714026,"59":-0.09582472984464815,"60":0.11862281530894118,"61":0.1445173862344233,"62":-0.09413050728553674,"63":-0.12032104342796004,"64":0.09987997469503328,"65":0.035804957693243454,"66":-0.03769337667825443,"67":-0.010643607752643277,"68":0.1324859435729258,"69":0.1209783392446818,"70":-0.1348903916390276,"71":-0.012349314721872891,"72":0.05970339906515467,"73":0.0015107803279107229,"74":0.18903970506039414}},{"sx":5,"sy":5,"depth":3,"w":{"0":0.06688532458897138,"1":-0.04587970420729264,"2":0.07021766207194444,"3":0.03301064275952575,"4":0.1466216092650695,"5":0.10518812910053918,"6":-0.1354261022249379,"7":-0.09038380106265267,"8":-0.0481119905766668,"9":-0.11117888407260083,"10":-0.03401625569585427,"11":0.03353482212070579,"12":-0.18143117336808262,"13":0.042788397983006446,"14":-0.010674052378885048,"15":-0.06509362441965562,"16":-0.08618808925392178,"17":0.07468593132665127,"18":-0.02630095961609594,"19":0.01668877013947833,"20":-0.11521828467833901,"21":0.02528147753980861,"22":-0.09170580427504646,"23":-0.2870225585687396,"24":0.04312041399889329,"25":0.016986521140429204,"26":-0.060883032517615066,"27":0.14971887229732855,"28":0.12432473394754455,"29":-0.08897443879499704,"30":0.2363870265205298,"31":-0.015700476861888118,"32":-0.004579078745460829,"33":-0.051953621738766144,"34":0.0991823555348898,"35":0.04248903493414345,"36":0.10922796549435108,"37":0.09337215276796085,"38":0.13896536363467482,"39":0.050634089552041114,"40":0.15261793447481783,"41":-0.04857171914662316,"42":0.02297027039713149,"43":0.02387724004417987,"44":-0.032755911323061576,"45":-0.09106182836563988,"46":-0.23617899195240616,"47":0.026749713562044645,"48":0.1522829600336763,"49":0.06994549531033008,"50":-0.12267555345669379,"51":-0.08823197480212025,"52":0.1343515473306438,"53":0.037563760377207246,"54":-0.05141759081928423,"55":0.20736866308437985,"56":-0.16055572535740772,"57":-0.042116337404148926,"58":-0.14419826624267099,"59":-0.14494360424249628,"60":-0.05569760047024169,"61":-0.03657000838283872,"62":-0.09029388693837193,"63":0.04132317329557189,"64":-0.014490470201055384,"65":0.16702853593162473,"66":-0.21490331356374093,"67":0.03149530674993948,"68":0.0025075429188414215,"69":0.14665957337149477,"70":0.12044985875614182,"71":0.08979180411139175,"72":-0.06467220480087674,"73":0.17473779370548065,"74":0.02662873745202086}},{"sx":5,"sy":5,"depth":3,"w":{"0":-0.000198500308747865,"1":0.06616395677516841,"2":-0.07762500743240856,"3":-0.03600546023443065,"4":0.037272145146060726,"5":-0.18744665826093468,"6":-0.009917150250851502,"7":0.18586338780396253,"8":-0.01956072387877762,"9":0.18187476433913002,"10":0.0046417485017958325,"11":-0.02361129652481612,"12":-0.06130077814119868,"13":0.13026702519950778,"14":-0.08222779289287922,"15":-0.12142440643694241,"16":-0.05820806728949844,"17":-0.017578555997143298,"18":-0.026485055553106963,"19":-0.09380900380014603,"20":-0.06709109497666398,"21":0.04678281806574204,"22":0.04785400887683584,"23":-0.16290310142281447,"24":0.07591146801868415,"25":0.05775731920800722,"26":-0.04910301327291157,"27":0.11739597096374042,"28":0.1277481575749981,"29":-0.09174060264510485,"30":-0.25790234502509646,"31":0.0873478650191113,"32":-0.0567759504021396,"33":-0.1547943006015177,"34":-0.1218032800666081,"35":-0.16349230145845506,"36":0.013414268792407227,"37":0.04302806333719853,"38":-0.0342045958714979,"39":-0.04125489822546854,"40":-0.04581992124397857,"41":-0.0775498963784003,"42":0.0948036067354596,"43":0.03567266132512614,"44":-0.11774531359407069,"45":-0.0999852895787532,"46":-0.0740559714742378,"47":0.01665580909539816,"48":-0.15620677309360528,"49":0.1335482648134895,"50":-0.10805520987100864,"51":-0.04514197067338373,"52":0.007137033037595232,"53":-0.2901835440829512,"54":-0.09703832193308874,"55":-0.030463629275001174,"56":-0.00919443367981175,"57":0.06688582083948777,"58":0.04809793908995122,"59":-0.006387571494946623,"60":0.09744144608655866,"61":-0.01984049285397729,"62":0.02363067224526472,"63":0.0072237368659391924,"64":-0.029461782491704953,"65":-0.0569272761800398,"66":-0.21131127226596677,"67":0.1920937295848316,"68":-0.1259634826897821,"69":-0.05923470763682253,"70":0.05966267647272082,"71":-0.01669895731836045,"72":0.12968049657123285,"73":-0.025279088777465326,"74":0.046022876725398856}},{"sx":5,"sy":5,"depth":3,"w":{"0":0.041826015195516174,"1":-0.040453649430722105,"2":-0.02521705724063908,"3":-0.12694418016323558,"4":-0.15870160207973702,"5":-0.11229321842324022,"6":-0.1343023347195409,"7":0.10880967552002051,"8":-0.10478707527315609,"9":-0.10546843290901343,"10":0.06340303241855867,"11":0.010052254752140617,"12":-0.0630350818722057,"13":0.09854104017855667,"14":0.2593936432699243,"15":-0.20606067289877866,"16":0.19599876056096527,"17":0.04002378259042638,"18":-0.04402798733549071,"19":-0.06831768277082452,"20":0.11590508503190929,"21":-0.18114678336745463,"22":0.30910154267791684,"23":0.21256433802308727,"24":0.08906351047876138,"25":0.10701305020809025,"26":0.1462082797517001,"27":-0.015897866503528767,"28":-0.03932593032970741,"29":0.08275357585484863,"30":0.11447599074445453,"31":0.12927506889680188,"32":0.036638049891580475,"33":-0.1952842328384919,"34":0.04749227910699684,"35":0.04631574834060279,"36":-0.22758939236702955,"37":0.07433607234756148,"38":0.23859240421893532,"39":-0.04574969504490286,"40":-0.08276478023714728,"41":0.1983800627929954,"42":-0.009389068141972472,"43":0.057383366460594575,"44":0.16780528193115224,"45":-0.10252716606064764,"46":0.07614648298586878,"47":-0.16459821201803776,"48":-0.18730513993633108,"49":0.07265618617997008,"50":-0.013010028210306552,"51":-0.1432992935763957,"52":0.003689396605449428,"53":0.09327226759309241,"54":-0.09559901409888458,"55":0.04826438027905334,"56":0.15591265924204625,"57":-0.05878799190568849,"58":0.06527424440997713,"59":0.1360893151907959,"60":0.04269732891530864,"61":-0.004063115674444484,"62":0.047341424804562986,"63":0.009493784090375258,"64":0.14161971025065814,"65":0.04450545610782712,"66":-0.0341129195651067,"67":0.04334761459636617,"68":-0.003118485553005983,"69":-0.15652411136389605,"70":-0.11592945859580822,"71":0.19386611495448577,"72":-0.0013662064877357878,"73":0.0490016423062599,"74":0.06988989664924643}},{"sx":5,"sy":5,"depth":3,"w":{"0":0.10881468424775752,"1":0.2523638349253266,"2":0.06577580152113006,"3":-0.1057376334553882,"4":0.008360220799694625,"5":-0.10334479912191603,"6":-0.1795044625946118,"7":-0.02450993512852189,"8":0.12994024145598174,"9":-0.07196051783971001,"10":-0.18885202039481067,"11":0.024364243809590083,"12":0.04986326805393978,"13":-0.06639245765647227,"14":-0.11277230729983596,"15":0.0623577694088799,"16":0.07705722821640973,"17":0.17008284317433725,"18":0.04909956857694642,"19":0.006937583230450058,"20":-0.0954520829229954,"21":-0.06092668685968607,"22":-0.019655380391746764,"23":-0.0021719277158566983,"24":0.1955940457873462,"25":-0.050113958204639514,"26":0.032455908450209056,"27":0.17044659179723542,"28":0.01086600405653013,"29":0.03893726935189722,"30":-0.009148850763449897,"31":0.0703520710598225,"32":0.17039549119596176,"33":-0.08099051901343403,"34":-0.037690795173716624,"35":-0.0477204465692502,"36":0.11977929747450299,"37":-0.10512474859724809,"38":0.05982486560834085,"39":-0.13528619302006764,"40":-0.19941813711389622,"41":0.005863971365174909,"42":-0.04566659621966843,"43":-0.009902163267394425,"44":0.029502013428247837,"45":0.24386106364678414,"46":0.15121030675169178,"47":0.12116911473943902,"48":-0.10248204656960991,"49":-0.12065967802381776,"50":-0.11991954887849453,"51":-0.0715361963463537,"52":0.17358951580227322,"53":0.07780766777710388,"54":-0.010916697692202782,"55":-0.010240123671607851,"56":0.020936733230817857,"57":-0.029195572624338906,"58":0.10721514774221705,"59":0.1325969373143111,"60":0.06665794745983643,"61":-0.07576339956297952,"62":0.21489089235337305,"63":-0.14691040024591415,"64":-0.05273500721952615,"65":-0.13947016449484168,"66":-0.1243255350432393,"67":-0.07785006484298441,"68":0.023099699950376137,"69":0.022632445499917754,"70":-0.09666602427276919,"71":0.1258827592616507,"72":-0.1341188528512946,"73":0.1569987270764942,"74":-0.19716416613059443}},{"sx":5,"sy":5,"depth":3,"w":{"0":-0.12350182667396352,"1":-0.09496942772906777,"2":0.04267494395753389,"3":0.0006898736678709361,"4":0.028004334731870625,"5":0.023129452503490345,"6":-0.00683978554921651,"7":-0.10501131569275904,"8":-0.17377728550604477,"9":-0.05565556804239529,"10":0.0762401250061095,"11":-0.022218380521746982,"12":-0.06033116967416648,"13":-0.019431602603422995,"14":-0.006385635347010605,"15":-0.04270518567194647,"16":-0.10171230810950548,"17":-0.07518887515049592,"18":0.0798966343687273,"19":0.16907405573825904,"20":-0.1322141389043308,"21":0.04599678894074202,"22":-0.08446581279489745,"23":-0.08523869896272399,"24":-0.08136562859068354,"25":0.015951035836930926,"26":-0.08424141094623838,"27":0.10550406540338801,"28":0.03796107260949194,"29":-0.07161286694207655,"30":-0.07824703174536808,"31":0.15393909539027734,"32":0.063201765412059,"33":0.10808326039609678,"34":0.2173955988327684,"35":0.005347582995533575,"36":0.08554938066170795,"37":-0.08216469882924934,"38":0.04565121624320709,"39":0.18281545649359962,"40":0.13643539119889778,"41":-0.07929849017950293,"42":-0.06571539839113831,"43":0.10322886019818714,"44":0.15538027357339018,"45":0.06666775684221042,"46":-0.08172525808940896,"47":-0.05988934845554626,"48":0.04079543080423643,"49":0.044223335686957285,"50":0.027541275519942055,"51":0.03077775859805222,"52":-0.11884834817768951,"53":-0.04289770473446444,"54":0.0032942022418715527,"55":0.09884077712543979,"56":-0.021641493234853176,"57":0.0920233874135745,"58":0.09183107265305292,"59":0.008077477786795923,"60":0.05718336321988849,"61":0.10573445624080365,"62":-0.057294662933147944,"63":0.16388208709975396,"64":0.16161589969599716,"65":0.19784488667402764,"66":0.11380847319942272,"67":-0.02034824263720591,"68":0.07707526760485002,"69":0.10952013828500075,"70":0.059102463059839475,"71":0.10986544842831096,"72":-0.03190220032720142,"73":0.22668691410061126,"74":0.0850081286988899}},{"sx":5,"sy":5,"depth":3,"w":{"0":0.19121180384319977,"1":0.06526908819131674,"2":0.09070949338222409,"3":0.16131128121593696,"4":0.021509019404943396,"5":0.12811066951236094,"6":0.03044656769425413,"7":0.06186718839591582,"8":0.14069384004272614,"9":0.08769735705038909,"10":-0.025192334087081526,"11":0.22052755882089264,"12":0.019039090384647753,"13":-0.09290025464124682,"14":-0.018814239166441316,"15":-0.027278544176610894,"16":0.07131232583789016,"17":0.08354014747004954,"18":0.23493516230004416,"19":0.00891168313860852,"20":0.20486325907528116,"21":0.16383077526807646,"22":0.06059466638599221,"23":0.0448785446229877,"24":0.2167428218679314,"25":0.0002643733676961629,"26":0.17718020292572662,"27":0.020710396450504622,"28":0.11728684126530417,"29":0.09587242917242761,"30":-0.09972629327119771,"31":-0.0720235996640324,"32":0.19676513307798035,"33":0.11096388507652197,"34":-0.05049276292570036,"35":0.24546186861472064,"36":0.024878011552830114,"37":0.09308700564452217,"38":0.1905380494182914,"39":0.1324887448639504,"40":0.04410055449145109,"41":0.02554789871486074,"42":0.09909972308890452,"43":-0.12744322976429392,"44":0.058857557048590234,"45":-0.23196368641678977,"46":0.13175370128882502,"47":0.011254010398277335,"48":0.053257272345745,"49":-0.0001989376949208407,"50":0.08691320278817483,"51":0.114055851144915,"52":0.010324275228832223,"53":0.06387893906567275,"54":0.01416466097533932,"55":-0.09411756745645039,"56":-0.005008813729461096,"57":0.16008026360027522,"58":0.06430859484358718,"59":0.1247621791990901,"60":0.04315417517739525,"61":0.014928351686638487,"62":0.0038970761100464903,"63":-0.027362471139146107,"64":-0.02519016609453487,"65":0.0378764498349346,"66":0.12375450138619429,"67":-0.0769129890379803,"68":0.027378761517444568,"69":0.11122250022757574,"70":0.02062460892935358,"71":-0.07269134560280546,"72":0.10573848265319091,"73":-0.2220972485039653,"74":-0.13948069207898878}},{"sx":5,"sy":5,"depth":3,"w":{"0":-0.23889796211924486,"1":0.11136475041810931,"2":-0.09259409620200611,"3":-0.08028068552530676,"4":0.14311051489061294,"5":-0.13872229520975415,"6":-0.02083013283690365,"7":0.15129802534215786,"8":0.030693028645481648,"9":0.00015617662742425015,"10":0.09600196445249562,"11":-0.01993508705694674,"12":-0.12774572271857149,"13":0.2180905548417156,"14":-0.007582659756941298,"15":0.039230832041530994,"16":0.1204257492348093,"17":0.07534539679769525,"18":-0.19056477503043617,"19":0.0360175462313645,"20":-0.00808350436422861,"21":0.02751047100238035,"22":0.015946280657497126,"23":0.034091914123092405,"24":-0.24574696095078255,"25":0.04550650289294983,"26":0.08806863520150744,"27":0.03668339019772461,"28":-0.010688398301417342,"29":-0.0012354347165095627,"30":0.0691387715672049,"31":0.04971876070547368,"32":-0.033743133567298494,"33":0.03725766960800511,"34":0.06960599516402448,"35":-0.1331772255239441,"36":-0.005466591067472852,"37":0.015363516344194045,"38":0.029510565030458336,"39":-0.15994133173227812,"40":0.17150072291232243,"41":0.00012382985791142592,"42":0.05277776179655237,"43":0.10682509996940669,"44":-0.047978526179701414,"45":-0.0486655057647058,"46":0.0859692876661655,"47":0.05442828865616689,"48":-0.066399301563909,"49":0.045665552494130096,"50":0.07450464558753606,"51":0.04593806282889873,"52":0.22460196394881443,"53":0.17005549443370627,"54":-0.19257413476230945,"55":0.04685150002737055,"56":0.056617429771003085,"57":0.05014057652391311,"58":0.14898846145990874,"59":-0.0047852137586912955,"60":-0.08627453190015892,"61":0.05220150361585874,"62":0.08126970563096912,"63":-0.004437789721521358,"64":-0.017131508918086867,"65":-0.02736139351826472,"66":-0.10160120357466124,"67":0.048787691743783376,"68":-0.10524573067500083,"69":-0.1867613261217517,"70":0.010852262174365983,"71":0.023939979172005407,"72":-0.1231393437418684,"73":0.08705632708740518,"74":-0.08956833327337603}},{"sx":5,"sy":5,"depth":3,"w":{"0":-0.0493760984089048,"1":-0.16869934937156175,"2":0.0333133441775223,"3":-0.17028045808436476,"4":-0.26467771864895745,"5":0.05649089217363184,"6":-0.06414397390867503,"7":-0.259162231196681,"8":-0.14522896035305075,"9":0.052592722120092174,"10":-0.09546485903295585,"11":0.023794623167310815,"12":0.04224021220359398,"13":0.010200574239350495,"14":-0.04767367985428284,"15":0.04651791088233712,"16":-0.07930781871490801,"17":0.012438214329981568,"18":0.1234200181752155,"19":-0.07480051184241816,"20":-0.032564303351853154,"21":0.20074636054561693,"22":-0.03518831811494806,"23":0.0669942693160462,"24":0.0016465775762311457,"25":0.09288117217840404,"26":0.13753255771321804,"27":0.07896519279524361,"28":0.12171475968135616,"29":0.09391179671976997,"30":-0.016787380034742068,"31":0.22287968283310158,"32":-0.010249702890918073,"33":0.12291776971600862,"34":0.07949978178788551,"35":0.13356155175750564,"36":-0.005978764080819423,"37":-0.15935243318772843,"38":0.20431257111530005,"39":0.06103684516438914,"40":-0.13214723075142432,"41":0.17257510437123727,"42":0.15094208670354323,"43":0.021980656568609997,"44":0.16262891171933788,"45":0.006666051049267956,"46":-0.16342856569169925,"47":0.07485789670247756,"48":-0.1628502791367141,"49":-0.12461187437174089,"50":0.0477345322461832,"51":-0.06821167727437129,"52":0.011461444744300461,"53":-0.15181982523486434,"54":-0.07494749801936634,"55":0.07893551858467032,"56":-0.06424052018340812,"57":0.00400359325162071,"58":-0.06205941672758075,"59":-0.03552280538989925,"60":-0.06769880981138314,"61":-0.0017115335641312156,"62":-0.029753039189241694,"63":0.06160423467016992,"64":-0.08409597251417746,"65":-0.04128975162939978,"66":0.09880200783006782,"67":-0.09344539070079563,"68":0.10426952308753769,"69":0.03506437600486542,"70":-0.07952793613002394,"71":0.03702362308323247,"72":0.1854233357582455,"73":-0.004583717534078134,"74":-0.03983562675114861}}],"biases":{"sx":1,"sy":1,"depth":16,"w":{"0":-0.011386663896718626,"1":0.09411300512070266,"2":0.027149219206634666,"3":0.05421725208460313,"4":-0.0462408667514973,"5":-0.059675685613888946,"6":0.07175624277075048,"7":0.02719232285605707,"8":0.012189658736063563,"9":0.07067932540412694,"10":0.013649089485745535,"11":0.01529499314688516,"12":0.06916824920898579,"13":0.1926562188994338,"14":-0.030218415395000673,"15":-0.005052244803887874}}},{"out_depth":16,"out_sx":32,"out_sy":32,"layer_type":"relu"},{"sx":2,"sy":2,"stride":2,"in_depth":16,"out_depth":16,"out_sx":16,"out_sy":16,"layer_type":"pool","pad":0},{"sx":5,"sy":5,"stride":1,"in_depth":16,"out_depth":20,"out_sx":16,"out_sy":16,"layer_type":"conv","l1_decay_mul":0,"l2_decay_mul":1,"pad":2,"filters":[{"sx":5,"sy":5,"depth":16,"w":{"0":-0.04762407379909198,"1":-0.025838088929282577,"2":-0.03873648675583291,"3":-0.06534828587682576,"4":-0.1263568301274967,"5":-0.23342085357710565,"6":-0.02425606904043502,"7":-0.028332396138305422,"8":-0.07357764624135972,"9":-0.010893213508644941,"10":0.0014890695293492203,"11":-0.0022427903724903282,"12":0.0009490777086707849,"13":-0.1751762576415788,"14":-0.019869268765416923,"15":-0.0900298397893752,"16":-0.03198664762546735,"17":-0.10750758614321433,"18":-0.0012997791271930122,"19":-0.09573056623058089,"20":-0.08936779771501231,"21":-0.1749561005205038,"22":0.026720495695042316,"23":-0.03978263930757949,"24":-0.05171180630558581,"25":-0.07878631506580809,"26":-0.01793573627621171,"27":0.021932135948683994,"28":-0.05285987335972947,"29":-0.17429872438220909,"30":0.05848010436158244,"31":-0.07950501955698884,"32":-0.006875929644931219,"33":-0.028070064966862297,"34":0.08285215405187915,"35":-0.02608270392858315,"36":-0.05154467249892165,"37":-0.14949107790797875,"38":0.05958892284622504,"39":0.06434285376188044,"40":-0.06539807216581721,"41":0.007560470468903457,"42":-0.024362704633322702,"43":0.048893852134830676,"44":0.012549352964042108,"45":-0.05705300681215514,"46":0.04966991850713572,"47":-0.011080646736382106,"48":0.052526418536505075,"49":-0.006796913308334034,"50":0.05135541529278101,"51":0.008859724180837863,"52":-0.05218105740755478,"53":-0.09939795836788713,"54":-0.054995261031045,"55":0.0026584104742906323,"56":0.015662079308193657,"57":0.02627259016436709,"58":0.08574606478885732,"59":0.08517545898117537,"60":0.07158978465463771,"61":-0.07802054809193947,"62":0.03849062808338674,"63":-0.043471658835041525,"64":0.05703570972372942,"65":-0.025796827773810153,"66":0.010536263788896235,"67":-0.018907975472375924,"68":-0.026598053845721458,"69":-0.05217385096945325,"70":-0.029227318509900617,"71":-0.07885020429929192,"72":-0.009065703752613511,"73":0.03349195376939629,"74":0.09039102542724363,"75":0.00996758313914615,"76":0.09377216641270612,"77":0.021605214018430303,"78":-0.025125250265901834,"79":-0.055645501647361414,"80":0.008476126709429719,"81":-0.04501358166844506,"82":0.03255068570736608,"83":-0.12356100539491098,"84":-0.0624827483569404,"85":-0.1398554863656197,"86":0.0030371901774471836,"87":0.0071538263379109105,"88":-0.018185131367117465,"89":0.051511030665262636,"90":0.007397849663708551,"91":-0.02929313241637847,"92":0.018744340833656843,"93":0.003040178180224554,"94":0.04869059610524446,"95":-0.07962858294968592,"96":-0.06802307576336963,"97":0.035273232026203645,"98":0.05185831745529384,"99":-0.027890972106098606,"100":-0.06446615640030283,"101":-0.14405943276300015,"102":-0.021377066704018146,"103":0.028747078661734395,"104":-0.02122087052732046,"105":0.03605414347615167,"106":0.080187111319997,"107":0.057104254014970934,"108":0.012571524181746598,"109":-0.05969461596491068,"110":0.04856244447039557,"111":-0.014950305462868846,"112":0.10130087293678891,"113":-0.017160605443722235,"114":0.07577587150347505,"115":0.00778381936083856,"116":0.0017900081188210672,"117":-0.033128674593964964,"118":0.004939969633882447,"119":0.10332509613201066,"120":-0.06825725790735952,"121":0.032536280740288775,"122":0.06424497574262347,"123":0.05047168558902869,"124":0.03844584240606661,"125":-0.049751145772435036,"126":0.005396635373104125,"127":-0.056915152069767994,"128":-0.0013356728727153275,"129":0.029018205805381073,"130":0.11417843940505937,"131":0.03157648128874323,"132":0.0708092208282815,"133":-0.04442739528565839,"134":0.041898751272747066,"135":0.05924283820894763,"136":0.015352365055036604,"137":0.11735933198207303,"138":0.05596134382570973,"139":0.127546196459343,"140":0.1158840858266282,"141":-0.036706354265458506,"142":0.07445512539844931,"143":0.035004993841475165,"144":0.049632502693675536,"145":-0.021315534174474494,"146":-0.04425839216363287,"147":-0.007685095306673586,"148":-0.022499285442511067,"149":-0.08120044871884546,"150":-0.03473086337696847,"151":0.02357886858196364,"152":-0.07444468472771441,"153":0.07830065050525767,"154":0.04207723843420353,"155":0.04275543459419786,"156":-0.04504509302747453,"157":-0.044300969986948435,"158":0.05008507556138486,"159":-0.0018719890055358837,"160":0.017273226877278877,"161":0.04123005975595957,"162":-0.0023898845783421486,"163":-0.064262531765843,"164":0.03888712879124016,"165":-0.13028661554018806,"166":-0.006379946339802681,"167":-0.0608882446157473,"168":-0.05865597644500498,"169":-0.060745759154008296,"170":0.05751439849305053,"171":-0.018050848917374896,"172":0.014008641001528929,"173":-0.12079089730305921,"174":0.03616913527809003,"175":0.02395624873300057,"176":-0.10147843208026774,"177":0.015963755856805123,"178":0.10548017871242728,"179":-0.07574324703674323,"180":0.00411409392353265,"181":-0.1331195927198347,"182":0.07056573229539523,"183":0.04558886219410929,"184":-0.03506215242991928,"185":-0.11557503746912759,"186":0.15984111855357355,"187":0.002588706657032934,"188":0.10868222485204226,"189":-0.04872082053459726,"190":0.06463462151373187,"191":0.018416978691798917,"192":0.07242332996784241,"193":0.008907053919738507,"194":0.1066153091311006,"195":-0.06179518780397261,"196":0.009833842469348429,"197":-0.049429404366922246,"198":0.09804043071369395,"199":0.0428985552940535,"200":0.06173371889819641,"201":0.01351228214508268,"202":0.08668766602799484,"203":0.04412036863007296,"204":0.11049289690225914,"205":0.006305161182763559,"206":0.08438354039088786,"207":0.0401060877985302,"208":-0.021428609268722518,"209":0.05957035541863846,"210":0.00536019611489247,"211":-0.011626008733365735,"212":0.07214856106024208,"213":-0.07942008353208949,"214":0.03626894311756912,"215":0.033139544731587464,"216":0.08008298953078838,"217":0.04234049569876675,"218":0.13070739552086064,"219":0.05725211707789226,"220":0.09555228886760728,"221":-0.030847764977195734,"222":0.026740248491517314,"223":0.014060151776175072,"224":0.06113982217697265,"225":0.032110207581122326,"226":0.0914302366193615,"227":-0.013909003858232278,"228":0.00037907240536011824,"229":-0.16429179321490128,"230":0.08965539885399408,"231":0.05792574840112842,"232":-0.0017889721879901638,"233":-0.0701200835864128,"234":0.07958186423907013,"235":0.05914880997778702,"236":0.1218687096568038,"237":-0.06139196387362423,"238":0.009339077890536332,"239":0.08646077091763199,"240":-0.10355285410374984,"241":-0.07487889555426423,"242":-0.0012944146831871154,"243":-0.05148204652074399,"244":-0.027879684529605077,"245":-0.05894060233368886,"246":0.03971526328934146,"247":-0.09767112941762131,"248":-0.05972636454590674,"249":-0.0343055767510644,"250":0.030465484192800832,"251":0.026552171652131827,"252":-0.014804847275526292,"253":0.00674268008244692,"254":-0.014365570642942646,"255":0.15135049192804986,"256":0.02517413755384676,"257":-0.0672682119256255,"258":0.056346929425382074,"259":-0.13235408241965987,"260":-0.04033021951729883,"261":-0.20198143960261505,"262":0.03861332850146384,"263":-0.06467976625774975,"264":-0.0328360204602071,"265":-0.03238579294237053,"266":0.023010874716701168,"267":0.025651505635844684,"268":0.07564234630837088,"269":-0.03765954734298284,"270":0.09646588698236795,"271":0.14927982350920152,"272":0.0947016266641286,"273":-0.026750181881971303,"274":0.10188360078251517,"275":-0.04378259240750925,"276":0.000641921705887548,"277":-0.0800726671837505,"278":0.02498902883835495,"279":0.017396252327465594,"280":0.12582419392620758,"281":-0.010272699162768486,"282":0.09736001042469805,"283":0.15735614827001487,"284":0.10669139455376637,"285":0.01577638979864944,"286":0.10889547237377277,"287":0.08380574065096129,"288":0.099790876409982,"289":0.05348974025431997,"290":0.08274150215963583,"291":-0.08181373608683132,"292":0.06148756596339752,"293":-0.042498573534458864,"294":0.0742104075105201,"295":0.06385588702256653,"296":0.007400935492000625,"297":-0.013055496903699183,"298":0.15831281827164131,"299":0.11682871109053873,"300":0.07670409177309961,"301":0.0003464008905273402,"302":0.0658869099418434,"303":0.13167371413530618,"304":0.01790038371596063,"305":-0.086707358800479,"306":0.12204843680348015,"307":-0.026297899368152442,"308":-0.03358975428390348,"309":-0.06402947752688937,"310":-0.019310601866359873,"311":0.011362682318334217,"312":0.000055315852633003,"313":0.04024138641033217,"314":0.12040288133170227,"315":0.06462667067097794,"316":0.05869034830591019,"317":-0.031161303165203554,"318":0.08623315336056393,"319":0.06326176305560899,"320":0.06833782277036608,"321":0.016806233695261515,"322":0.08658475721759551,"323":-0.1355698878126663,"324":0.023858891695854676,"325":-0.13125565898852296,"326":0.038159479786040264,"327":-0.024964292675930318,"328":-0.023233011654769393,"329":0.020948070702813,"330":0.11011218942060039,"331":-0.04355645269070207,"332":-0.0017762577729627858,"333":-0.03584859784958996,"334":0.06984381983942439,"335":0.04794934778970287,"336":-0.014773667747227092,"337":-0.0463770973460061,"338":0.11564709312752512,"339":-0.11186359614112809,"340":-0.05558643141696726,"341":-0.21265102425347684,"342":-0.04899240478046627,"343":0.06289393577708,"344":-0.0863033264562143,"345":-0.015357890891672589,"346":0.051715697621567205,"347":0.013607407732597877,"348":0.03783812529349472,"349":0.03951904870068744,"350":-0.028848157130872097,"351":0.055296335196769734,"352":0.13754695000948164,"353":0.03534669978049473,"354":0.10853718379768945,"355":0.0043115029829500166,"356":0.00009064218190891511,"357":-0.11109981423506941,"358":-0.02375677898952805,"359":0.030851328149601624,"360":-0.013436337733207564,"361":0.04769504903693781,"362":0.08004692507973325,"363":0.08521529171221463,"364":0.10367401014114058,"365":0.024136191930015993,"366":0.09866285210667534,"367":0.06660568936073437,"368":0.0803492658488319,"369":-0.016855722965356545,"370":0.08369800424514731,"371":-0.006845089738233095,"372":0.0015014783277492528,"373":-0.12152186917421309,"374":-0.02774122055772402,"375":0.10046815391141034,"376":-0.05489331145558634,"377":0.008136053846657085,"378":0.04187324051345175,"379":0.12246142457471756,"380":0.08787105196974125,"381":0.012374941519762523,"382":-0.033096740802854595,"383":0.08880356286487397,"384":0.08012658655053162,"385":-0.02373034289378771,"386":0.026455152434175632,"387":0.006797971432340937,"388":-0.026202649999688143,"389":-0.038830622627554004,"390":0.029492463709464723,"391":0.01662659784294093,"392":-0.006755620797761334,"393":0.07151393472348323,"394":0.06737119663316507,"395":0.018588011255767912,"396":0.01881583506751242,"397":-0.042310183001846524,"398":0.09280911472404361,"399":0.053745106792073824}},{"sx":5,"sy":5,"depth":16,"w":{"0":0.09507456535871624,"1":0.06460969903601015,"2":0.050674892317845686,"3":0.023707708763980918,"4":-0.014467098865043996,"5":-0.06923311119769006,"6":0.06197307074658897,"7":0.015628832472169275,"8":0.033387979049214006,"9":-0.02201133867981187,"10":0.06219313565243628,"11":0.16305118834769175,"12":0.04928449800963452,"13":0.1430571001615805,"14":0.0553251469487432,"15":0.09067483976690512,"16":0.030311965710492977,"17":0.06291884383743888,"18":0.06373189727490186,"19":0.002896180095393364,"20":-0.017350035432279982,"21":-0.13715282492968953,"22":0.05967817760012152,"23":0.07409196385109387,"24":-0.037822055685682365,"25":0.0077140699808695605,"26":0.009756957540964001,"27":0.04514058408895446,"28":0.04896064439088369,"29":0.041794747154648336,"30":0.031324986817534616,"31":0.04674271386024667,"32":0.03947311329891425,"33":0.016098765594240217,"34":0.03378877218767192,"35":0.0017865705741484598,"36":-0.08837333826988168,"37":-0.13856462465424732,"38":0.06576633208765888,"39":0.03505392228690224,"40":0.07468254732168746,"41":0.03336775604079022,"42":0.08054949867914633,"43":0.07389980410117389,"44":0.09580362415247021,"45":0.0302840778028769,"46":0.0179537318961567,"47":0.12066036957850948,"48":-0.02615170146478614,"49":-0.011323263232700527,"50":0.06749712626256689,"51":-0.02947957758424653,"52":-0.05954468924896966,"53":-0.15463175359459724,"54":-0.07434984011232348,"55":-0.10670291091760292,"56":0.036993824115603584,"57":-0.0791224268278706,"58":0.00299183558036543,"59":-0.0009517778156965308,"60":0.10841833366008882,"61":0.028788361137074316,"62":-0.0334674022898288,"63":0.05420269387515621,"64":-0.09120215692260332,"65":-0.08654079597628285,"66":0.034132804360053864,"67":-0.10071828987205757,"68":-0.21369996934520355,"69":-0.20739070997061737,"70":-0.0799725444661983,"71":-0.021912503911092045,"72":-0.009865686371305422,"73":-0.11386211028779562,"74":0.08100380044015748,"75":0.0036398033817213807,"76":0.0981444790980477,"77":0.03840530683215793,"78":0.007077906669770676,"79":0.05344223947437336,"80":0.03163120381945489,"81":0.048124803405886374,"82":0.08581421431989729,"83":0.024783097728138342,"84":-0.12837866480692497,"85":-0.05956114761560632,"86":-0.047495331205110264,"87":0.11305926274549392,"88":-0.06686886797906617,"89":0.04817839464375414,"90":0.029517786781403217,"91":0.11536955193068199,"92":-0.05885719059357356,"93":0.0413755106278216,"94":-0.021598747884300933,"95":0.03422184804583219,"96":0.0672822896485251,"97":0.027139622999328435,"98":0.09119892513312039,"99":0.018695491177098,"100":0.03281601921424834,"101":-0.03391324720699206,"102":-0.045952470914046514,"103":0.07243353506630579,"104":-0.10603898420576723,"105":0.06265883235459545,"106":0.025000580101211232,"107":0.10989894450592297,"108":-0.039536931894286885,"109":0.026460188575924873,"110":-0.04997225260871259,"111":-0.008538501216563545,"112":0.050367985089281544,"113":0.01047920308926776,"114":0.05565513243282911,"115":0.058853775501031436,"116":-0.061794029970819925,"117":-0.17429981654600837,"118":-0.11025197252390384,"119":0.13674620159319417,"120":-0.0229931533234722,"121":0.04620368977160844,"122":0.0441092123683374,"123":0.021224187318285653,"124":0.02044526088406322,"125":0.010575780461886237,"126":-0.051108497839506176,"127":0.06890452814984128,"128":0.05088538104489558,"129":-0.0939430536352733,"130":0.025584567212773066,"131":-0.0544956399987338,"132":-0.042696266377770846,"133":-0.30785042172707044,"134":-0.04490374423102959,"135":0.10357445981762804,"136":-0.12458010611022288,"137":0.022158717289630418,"138":0.029893431306745558,"139":-0.15022272428022687,"140":-0.05490068456237089,"141":0.06004328246666002,"142":-0.013997011115729468,"143":-0.025586549378298157,"144":0.007367274484029625,"145":-0.09372033863869943,"146":0.12512021587089556,"147":-0.07054622151222735,"148":-0.04758041314551685,"149":-0.16816052129377887,"150":-0.16654240788604638,"151":0.07621669604471243,"152":-0.1222515852842422,"153":-0.0631656510412423,"154":0.027155265070905075,"155":-0.024712824607723713,"156":-0.014376520766811974,"157":0.019095020504889402,"158":0.008221988009910737,"159":0.04124671804484692,"160":0.023984396215660623,"161":0.002693225686008528,"162":0.010094151387508039,"163":0.0012319542959466074,"164":-0.12875124821513537,"165":-0.12162452675321257,"166":-0.056866273692502356,"167":0.08375995838692894,"168":-0.04394828616985473,"169":0.08491369421728338,"170":0.03147176330132797,"171":0.08124328543960863,"172":-0.03640624600829157,"173":-0.058216987207240646,"174":-0.008932135914143557,"175":0.025206786517745147,"176":-0.005821990055313933,"177":0.03694547719784983,"178":0.0026470241281097346,"179":-0.11147944983705688,"180":-0.0917530396904865,"181":-0.05746586200296882,"182":-0.03786870656358945,"183":-0.015256450279226477,"184":0.035134690806414424,"185":0.06127109981247636,"186":-0.009495335259209328,"187":0.009713440711945407,"188":0.001258859925405351,"189":-0.0015129284280002535,"190":-0.008227166207173122,"191":0.030638688006593414,"192":-0.056702779647821694,"193":-0.02462339257953991,"194":0.06275507659513287,"195":-0.005198508377389946,"196":-0.10317646301895977,"197":-0.13045229509154208,"198":0.010254597069632443,"199":-0.01610652789695583,"200":-0.0019396257100288338,"201":0.025678516363829045,"202":0.059217039815181595,"203":-0.01958006031523345,"204":0.09885496418282186,"205":-0.06076368008058298,"206":-0.0584551221346287,"207":-0.02231458164516856,"208":-0.03540869729128436,"209":-0.0463480768875721,"210":0.02863452340776616,"211":0.03424921356601883,"212":-0.21812468940108445,"213":-0.24011657300985292,"214":-0.06958615463883576,"215":0.08549464111613496,"216":-0.04725203833893256,"217":-0.003802518709869071,"218":-0.07666565684192085,"219":-0.14340833234460554,"220":0.05433281335245538,"221":-0.06689058422254261,"222":-0.09440329243545673,"223":-0.04524948118921381,"224":-0.10126623460781707,"225":-0.04704270619690794,"226":-0.035030576190357605,"227":-0.04098848483801345,"228":-0.205431088933668,"229":-0.24237573207360222,"230":-0.13635158969116393,"231":0.04920669814345635,"232":-0.09368168433716836,"233":-0.09552880679525644,"234":-0.06545269688297047,"235":-0.023037690577767823,"236":-0.06870788261834668,"237":-0.1403834156046541,"238":0.007448000799551307,"239":-0.13371152134344158,"240":-0.012056472976480307,"241":0.047355289861362254,"242":-0.0658559717694614,"243":0.014932331483984783,"244":-0.12888672104206916,"245":-0.07403142167327388,"246":-0.015365826494436295,"247":0.041521857966959244,"248":-0.031732877708995404,"249":-0.024238769144581656,"250":-0.045701893764247666,"251":0.1020252282061452,"252":0.06047915881620603,"253":-0.07523439061547059,"254":0.04048097006305876,"255":-0.05896102638838368,"256":0.027492398078148073,"257":0.006275640838184218,"258":-0.054259846822804235,"259":-0.005725389043941867,"260":-0.021828388711153956,"261":-0.09806509473499393,"262":-0.05877101573654459,"263":0.0279682554736029,"264":0.02599452245879323,"265":0.13906965959335268,"266":-0.024513294594627925,"267":0.00009075662400974578,"268":-0.013605101211699094,"269":-0.05842779006484747,"270":-0.05575054279775163,"271":-0.04627514840764381,"272":-0.018335486013454187,"273":0.03318248847530236,"274":-0.09590437179466905,"275":0.110434316291066,"276":-0.16066697922911044,"277":-0.09684578701936622,"278":0.006469508455444748,"279":0.08748834796615841,"280":0.028026298547529756,"281":0.03265231476866472,"282":-0.02180961492076182,"283":-0.037508687032882966,"284":0.01834645911033192,"285":-0.05047200919659238,"286":-0.031000965631868417,"287":-0.034289630729424966,"288":-0.034034377373178194,"289":-0.04532355109578407,"290":0.014410767260496572,"291":0.03661673969508384,"292":-0.22600083698558546,"293":-0.21467700128271555,"294":-0.06760345271989564,"295":0.01322626846879192,"296":0.00017239401280858013,"297":-0.10656618069648174,"298":-0.013813565969759705,"299":-0.07626860241388643,"300":-0.0025378500305789056,"301":-0.05031564394045902,"302":-0.08997446833044269,"303":-0.06083569863794658,"304":-0.20272726696426935,"305":-0.07476427318353987,"306":-0.014333879761126008,"307":-0.009140812071207895,"308":-0.243150046631363,"309":-0.28582720831935843,"310":-0.14928405251055538,"311":0.05459738983309935,"312":-0.1068723855391529,"313":-0.10377792644196791,"314":-0.07007844647959247,"315":0.014418580946903414,"316":-0.04426090538282812,"317":-0.13047678703532986,"318":0.019665523632612966,"319":-0.07927163822274853,"320":-0.009963575053746884,"321":-0.004822714721327318,"322":-0.0636170301912205,"323":0.024556958944494122,"324":0.07527287074457754,"325":0.015049032074006742,"326":0.03647723240868496,"327":-0.04230819219716945,"328":0.038478949915048764,"329":0.03089420862994039,"330":-0.018735788611449523,"331":-0.03529305220612131,"332":-0.03241053950769388,"333":-0.044214559521178656,"334":-0.057492751145090455,"335":-0.00615867281479289,"336":0.049818544818123,"337":0.029386778709304198,"338":0.0004870122814197098,"339":0.1162113822967561,"340":0.017545084716996645,"341":-0.046851200248831236,"342":0.0026547573719190327,"343":-0.03322405137542657,"344":0.051548099200229604,"345":0.00004290536966842476,"346":-0.0397357918019191,"347":-0.0028194193103517565,"348":0.09978311533045442,"349":-0.07531032849945031,"350":-0.03795263911427792,"351":0.026291177801644555,"352":-0.014400145614629847,"353":-0.016942229854973546,"354":-0.041522818209526594,"355":0.032915185992635064,"356":-0.01053914929036043,"357":-0.05984331742616725,"358":0.029385835245122737,"359":0.13153933641125887,"360":-0.00003975731899477999,"361":-0.03330954809190804,"362":0.12341532874775954,"363":-0.012682152964751376,"364":0.04939319294860011,"365":-0.027132235927859745,"366":-0.04643378548326357,"367":0.0035617756643752515,"368":-0.048775764458205334,"369":-0.03891512115578831,"370":-0.02844001401301056,"371":0.07064725157646046,"372":-0.04036538611042659,"373":-0.13428384082220066,"374":-0.03149001322775787,"375":0.010805025926129442,"376":0.0655387373098944,"377":-0.0617403140399106,"378":-0.06866991036905104,"379":-0.10914765697915571,"380":0.034289649571682984,"381":-0.05054551983486244,"382":-0.11434271084245096,"383":-0.019026017506261428,"384":-0.15600672423604048,"385":-0.04152156709147012,"386":-0.06981172271006775,"387":-0.03349297676010541,"388":-0.10176971290952755,"389":-0.26702022092815986,"390":-0.089652505763726,"391":0.06271321652710837,"392":0.012558652322744309,"393":-0.10338013652224111,"394":-0.054995619811948046,"395":-0.013750334476012751,"396":0.03687411324292313,"397":-0.021837735813940617,"398":-0.0232751975290095,"399":-0.10255769209415587}},{"sx":5,"sy":5,"depth":16,"w":{"0":-0.030067851722365,"1":0.001986357978907378,"2":0.11655107748689092,"3":-0.013166988909121234,"4":-0.02880961601818416,"5":-0.040061325608007375,"6":-0.07267670071805925,"7":-0.014327074409558634,"8":-0.036482491311522064,"9":-0.0005082244988941768,"10":-0.01668742348348139,"11":-0.050190486104090534,"12":-0.02589204711417188,"13":-0.08525141752033868,"14":-0.029899222293824353,"15":-0.06080076296360271,"16":0.03877990950803736,"17":-0.020080844163563108,"18":0.0676506222011924,"19":0.00586723026169964,"20":0.06326465277749545,"21":-0.10325016461256117,"22":-0.02214035645149405,"23":0.031779362961570023,"24":-0.033553703443522674,"25":-0.010204316310488758,"26":-0.004248482715781792,"27":-0.006921607113462431,"28":0.07024119681633027,"29":-0.011348528680208605,"30":-0.032537889283451006,"31":0.009951633004104739,"32":-0.0401199537900281,"33":0.0005603934857550551,"34":-0.022547836136647393,"35":-0.010244145655834168,"36":0.010526817792108272,"37":-0.02397713198975889,"38":0.005972563708215972,"39":0.040633059840597695,"40":-0.028525003786028177,"41":-0.04057287305286037,"42":0.03739187941206023,"43":0.06591455717853048,"44":-0.004206699770724414,"45":0.007562070352546249,"46":0.042257415570793176,"47":-0.03574572238306372,"48":0.10981299105512336,"49":-0.02786710047611021,"50":0.03914564262908857,"51":0.03514018656463855,"52":0.12004632276972248,"53":-0.06404085949480745,"54":-0.04033500685103155,"55":0.09290778179202226,"56":-0.0361596459624791,"57":0.038085007034345336,"58":-0.038574703652519235,"59":0.0316215647495328,"60":0.07222612730308312,"61":0.05408293093796664,"62":-0.016728044579948285,"63":0.039343554379139604,"64":-0.02117709538189361,"65":-0.05209666211033775,"66":0.07924832589403681,"67":0.01955576895521066,"68":-0.13560536590434888,"69":-0.09945977486692034,"70":-0.024818014362160558,"71":0.08406466222842951,"72":-0.0012131771806382875,"73":-0.04555668527382624,"74":-0.006866066097425848,"75":0.015026986642309632,"76":0.055712759840323346,"77":0.06515148828497909,"78":-0.03305381309845143,"79":-0.04039512023633541,"80":-0.008851469276572283,"81":0.0038303312298317497,"82":0.06723778358420282,"83":-0.015099750328854678,"84":-0.009014327541240316,"85":-0.0896072694934225,"86":0.007792752451228225,"87":0.07171823891394466,"88":-0.0007714980340864375,"89":0.012996142938762664,"90":-0.036056226683491864,"91":-0.10661994697991499,"92":-0.047407070582259514,"93":-0.03539264186937239,"94":0.045142797947608115,"95":-0.08179458453602374,"96":0.02907085341084041,"97":0.039203407704777246,"98":0.03687106933304779,"99":0.022697594087070908,"100":0.002844746722850975,"101":-0.09711409020131735,"102":-0.06889570509682467,"103":-0.07875736345632867,"104":-0.059700801824434525,"105":0.003984437602071086,"106":-0.060644951236619934,"107":0.029930531773383715,"108":0.011988716841570846,"109":-0.01802692969081809,"110":-0.07574131271311609,"111":-0.1102664181516029,"112":-0.002211231871219766,"113":0.03208784737800927,"114":-0.10600824692651395,"115":0.01291832116626746,"116":-0.04977299990336042,"117":-0.028792856535592697,"118":-0.023641590216721086,"119":0.020944690515759538,"120":-0.028015258195475387,"121":-0.010684124254876503,"122":0.09991054678578525,"123":0.03547269909807329,"124":-0.0563126287126858,"125":-0.028356765948292516,"126":-0.023689537389475632,"127":-0.05306033996710834,"128":0.10368700561803447,"129":0.03710161291258805,"130":0.0713399822480711,"131":0.05504225901747611,"132":-0.027735820440964166,"133":-0.05100220793198574,"134":-0.019197731210591446,"135":0.037558216513922896,"136":0.012556011971114122,"137":-0.06314040768575546,"138":-0.07356044933635908,"139":-0.017892184825153184,"140":-0.038840719851804345,"141":0.005147789250111759,"142":-0.08424021032055513,"143":0.048328670468505704,"144":-0.06261119635233482,"145":-0.09387455273903599,"146":0.05756663369935192,"147":-0.04996086051931487,"148":-0.11088852220921647,"149":-0.07343330684681397,"150":-0.07850312114381035,"151":0.014299633680115484,"152":-0.037265152508654295,"153":-0.02741829818720652,"154":0.05616143545595556,"155":0.09517209439176065,"156":0.020984280005759276,"157":-0.019510168747238585,"158":0.040024003862174695,"159":-0.12403123378106976,"160":-0.030464154800729,"161":-0.024338227062892806,"162":0.01769958547064809,"163":0.07491915249612711,"164":0.04481365321487097,"165":-0.02236983741518149,"166":-0.0071912518092308265,"167":0.005592637625513119,"168":0.01949066463535471,"169":0.038215925525167664,"170":0.03471085889621621,"171":0.019924350619344954,"172":0.05767225255269056,"173":-0.04278753196956114,"174":0.014110579900169487,"175":-0.050119802403418526,"176":0.01512444891637989,"177":-0.022909527792685465,"178":-0.061272327205126514,"179":-0.058571758904075004,"180":0.05748780022315161,"181":-0.08519807274779612,"182":-0.04345137859429881,"183":0.007747997409733715,"184":-0.03600386788389338,"185":-0.10536155325254216,"186":0.07096212724035389,"187":-0.025076748171831767,"188":0.0629754538056686,"189":0.008842830718609715,"190":0.001526767073496299,"191":-0.10636033254912265,"192":-0.05193584724060931,"193":0.011195728493747266,"194":-0.01763173814856635,"195":0.06600695171993855,"196":0.01718469303777012,"197":0.0073012431182365185,"198":-0.02490069693668874,"199":0.03182237902522115,"200":-0.01581259943348054,"201":0.031351549131613976,"202":0.012889268097732519,"203":0.05306233432808231,"204":0.07432058665696388,"205":-0.006817824167500687,"206":-0.011338520400980589,"207":0.0013516555109084748,"208":0.07329126949799038,"209":-0.007775005898336583,"210":-0.06603020009582151,"211":-0.010879119181320939,"212":0.029329520257287148,"213":-0.12759457739614177,"214":-0.005675254570340128,"215":0.09090770374348049,"216":0.0439177806775695,"217":-0.0461474209020139,"218":0.011829744654752705,"219":-0.06483378751831055,"220":0.06456241411779685,"221":0.003295091923977984,"222":-0.0036457928699112066,"223":-0.05493450945434968,"224":-0.030391003209622604,"225":-0.06699679036912827,"226":-0.055013245252105165,"227":-0.07337931708900206,"228":-0.06318073386583956,"229":-0.1653653941588455,"230":-0.024983089250596387,"231":0.08211095647952436,"232":-0.04216594725813725,"233":0.025781036329390834,"234":-0.04121563238279038,"235":0.007320112871395711,"236":0.06765696717745524,"237":-0.000754069185096079,"238":0.038556148610411047,"239":-0.01457247290204508,"240":0.043323069753276114,"241":-0.06549380703008514,"242":-0.032312773985807466,"243":0.020399907337706625,"244":-0.011792691574476023,"245":0.019919096869470285,"246":-0.003935219145394256,"247":0.030056582534615246,"248":-0.027721688976642716,"249":0.07211067215520159,"250":0.035653605746865366,"251":0.01932511460412887,"252":-0.037800012846199285,"253":0.024066302640518927,"254":0.03900777785728107,"255":0.06684664399593956,"256":0.016644134921054807,"257":0.014474080287013903,"258":0.06427034501303255,"259":0.02032802325860082,"260":0.044256893279377436,"261":0.02222825158330741,"262":-0.00951700357062047,"263":0.06761346022146864,"264":0.014181335085790316,"265":-0.023148935779831865,"266":-0.0382768198082454,"267":0.033379789633595974,"268":0.07853528752016826,"269":-0.009002937536721272,"270":-0.010893313722273595,"271":0.016232869373090552,"272":0.0038302439303360834,"273":-0.006465853376370415,"274":-0.07144418660593166,"275":0.09679237064830158,"276":0.026083073222435853,"277":0.0075703336628808945,"278":-0.016735132576020495,"279":0.035986635363924206,"280":-0.0038491666456297643,"281":-0.00425557340402557,"282":-0.008669967828753991,"283":0.09131211630549739,"284":-0.00479437066513645,"285":-0.04419838590572311,"286":0.01088521618175409,"287":0.0035884968903492362,"288":0.08631137554728105,"289":0.02005998869943475,"290":0.13488689570065326,"291":0.046681929390172065,"292":0.04873310627135788,"293":-0.08248302264670654,"294":-0.08021506163847997,"295":0.02977273598848349,"296":-0.019817767388011873,"297":-0.06418353908900083,"298":0.018795018330556152,"299":0.04352665613590884,"300":0.11100023854599234,"301":-0.11495955294173585,"302":0.001151288781358067,"303":0.013888237892861519,"304":-0.1812940159659381,"305":-0.055386903157959,"306":0.027983457799070726,"307":-0.03619334679580709,"308":-0.05646461926676118,"309":-0.06076802536353599,"310":-0.09508791313429363,"311":0.029053977086786538,"312":-0.04880935942568228,"313":-0.027066694610396146,"314":-0.02944969441462149,"315":0.123658170296234,"316":0.02904435219109261,"317":-0.035608351654289404,"318":0.06246443468562263,"319":-0.07388557921958107,"320":-0.005853567382357322,"321":0.03211620616232635,"322":0.05093687078054777,"323":-0.002300469740507254,"324":-0.010645097521574156,"325":-0.11811479639930302,"326":-0.020411601619074755,"327":0.016546850137479956,"328":0.020609563839392636,"329":-0.007102897593646517,"330":0.06825309837256702,"331":0.06229472286658574,"332":0.036929528433372695,"333":-0.07708763423358615,"334":0.05632599263754287,"335":0.09296044533290879,"336":0.007031414283063218,"337":0.012558264667520098,"338":0.009892849366174706,"339":-0.06348800902767397,"340":-0.005161414897707623,"341":-0.09439316591610689,"342":-0.0203002903688561,"343":0.01953217873997667,"344":0.013493611169988654,"345":-0.029919512760509276,"346":-0.02962256973260649,"347":-0.020277145640783107,"348":-0.046129460286881814,"349":-0.029885517216381902,"350":0.0065612117901984795,"351":-0.004982911934980365,"352":0.05919528425014614,"353":-0.0483441944428085,"354":-0.024417660396329283,"355":0.036069195213807526,"356":-0.06569530998280675,"357":-0.01116406599155311,"358":-0.0585648451847169,"359":0.022790526954950718,"360":0.013374677956966658,"361":-0.013347811857883345,"362":0.005371919790840567,"363":0.08712305715806094,"364":0.08123222567357957,"365":-0.01346026069686214,"366":0.07670024338031166,"367":-0.02107595356200545,"368":0.05455493888582059,"369":-0.024066770845350985,"370":0.012977815925214275,"371":0.021967782643423254,"372":0.021986293786622115,"373":-0.08256438802102656,"374":-0.051916779491043834,"375":0.05857680260429176,"376":0.012878346204058115,"377":0.0016434513154899826,"378":-0.003610926274251179,"379":-0.05079601855677009,"380":-0.009358527950981273,"381":-0.007326942454352793,"382":-0.029034452350701463,"383":0.06892367994345559,"384":-0.04890559048552646,"385":-0.053460336100636066,"386":0.03757248829649413,"387":-0.043608459880302895,"388":-0.09237858165409443,"389":-0.11960978456029163,"390":-0.03827749063317077,"391":0.06047640686954628,"392":-0.03403556928381785,"393":0.01503509970711757,"394":0.04348653203466082,"395":0.008178621178857138,"396":0.04448263225659465,"397":-0.06971419095765786,"398":0.10463720259356689,"399":-0.08029583268484239}},{"sx":5,"sy":5,"depth":16,"w":{"0":-0.02195402444225319,"1":-0.012469235069190275,"2":0.02338357709668396,"3":0.029296785330345968,"4":-0.020480364957493027,"5":0.03489306221282825,"6":0.0014342836079909885,"7":-0.011852558941087096,"8":0.023470660885442352,"9":-0.03750476842804471,"10":-0.05026221720264204,"11":0.06080558887042919,"12":-0.044689143337050485,"13":0.05573856459784215,"14":-0.043016255605251325,"15":-0.006503452812107293,"16":-0.019662457642938985,"17":-0.027022859755570137,"18":-0.051197317807393644,"19":-0.045217063254744914,"20":-0.010251788873045259,"21":-0.04126345718767836,"22":-0.012277087228018683,"23":-0.06742055881240835,"24":-0.043586158402520433,"25":-0.035996160603862674,"26":-0.06433784712114952,"27":0.025478657386583618,"28":0.023190518969517945,"29":0.06406560518333677,"30":-0.10904882414936981,"31":-0.0021502937162913133,"32":-0.0368041120641419,"33":-0.00911364803888308,"34":-0.09130334918720186,"35":-0.027475613084559633,"36":0.004015392430536173,"37":0.010868309611323974,"38":-0.031561921003355524,"39":0.020729674036554357,"40":0.03928715950163873,"41":0.0017176534997932692,"42":-0.1959639093799335,"43":-0.04294801183209097,"44":0.03515561410922586,"45":0.04080056044072294,"46":-0.09617254816492637,"47":0.015585142853848813,"48":-0.07713894347821593,"49":-0.044490171773525565,"50":-0.09589125670714063,"51":0.08773751897552652,"52":-0.047281224585769596,"53":0.00888058672491308,"54":-0.007243603542807188,"55":0.04466543367240828,"56":0.017789792641151915,"57":0.02080901055912671,"58":-0.051381132677004664,"59":-0.061019176651115226,"60":0.06319264119162835,"61":-0.013072580054535451,"62":-0.14707420780455993,"63":-0.0363027823010457,"64":-0.03156692142919302,"65":0.06665608545438703,"66":-0.006547424979204028,"67":0.04468595815695112,"68":-0.009995562234949549,"69":0.018009490942427375,"70":0.02466396912492438,"71":0.04921004385457233,"72":-0.032586961435039245,"73":0.005725140270843965,"74":-0.02246518049391447,"75":-0.019376658276673082,"76":0.03889957017799134,"77":0.04671332786222594,"78":-0.09039602894170078,"79":-0.057223497782946185,"80":-0.0407767472206835,"81":0.03498098263944203,"82":-0.06710006411896464,"83":-0.016454486570552367,"84":0.006256978503885553,"85":0.08202742483395287,"86":0.05055704281175955,"87":-0.0025550535816144092,"88":0.02612182885008714,"89":-0.005440808171225997,"90":-0.0837347706112954,"91":-0.0071451842482602255,"92":0.03937472454882336,"93":0.07699926050314573,"94":-0.058954376833257674,"95":0.014760108578128523,"96":-0.052631987997661125,"97":-0.042597748163905144,"98":-0.023085995001955645,"99":0.02002512576897362,"100":0.00015317808684146123,"101":0.04002983913868151,"102":-0.023097910898868347,"103":-0.010942761235875119,"104":-0.02690188787016966,"105":0.0024857225580717786,"106":-0.12099416414471653,"107":-0.06134056139227593,"108":-0.018695871279524538,"109":-0.006672237519623953,"110":-0.1676872721836849,"111":0.05954853396088586,"112":0.043846521022665556,"113":-0.009518951458443744,"114":-0.08410733078218283,"115":-0.01565701483085183,"116":0.009987783524108892,"117":0.09705364120102652,"118":0.012239508988224037,"119":-0.021914414091581538,"120":-0.052164378123236696,"121":-0.12007408484063793,"122":-0.17553836145961726,"123":-0.05982803546086396,"124":-0.022206829596344402,"125":0.04936786195757878,"126":-0.237858186755236,"127":0.10269731950259614,"128":0.016789591217959938,"129":0.0241283016185187,"130":-0.13647419742024933,"131":0.018076008209373124,"132":0.018305345302395977,"133":0.04303226729200102,"134":-0.04896758582365654,"135":0.08943436227650399,"136":0.02605456429456019,"137":-0.06518174568853172,"138":-0.14010967007134678,"139":-0.043821312440620264,"140":0.010812559608894655,"141":-0.004915436209365562,"142":-0.09950338037422238,"143":0.039861076774388084,"144":-0.06562475734643071,"145":0.014988559060425786,"146":-0.029703927273766816,"147":0.02708578975941662,"148":-0.03540448625223639,"149":0.046537788990747925,"150":0.02735760858318141,"151":0.011528860804082715,"152":-0.023219097399274927,"153":-0.04318151768663819,"154":-0.07655136062828759,"155":-0.05017736097111072,"156":-0.04410333791132483,"157":0.007537856942447633,"158":-0.07130672856970081,"159":-0.01331232281713827,"160":-0.03628219224138672,"161":-0.08798937409333372,"162":-0.045972414140811664,"163":0.07585373194006913,"164":0.0052698914625744706,"165":0.0374363677375603,"166":0.08164779315287976,"167":0.03701949776724139,"168":0.039517096748319866,"169":-0.05371977773476744,"170":-0.20129633821733542,"171":-0.019533655217575746,"172":-0.03417836220802944,"173":0.006981857347764616,"174":-0.096161553597411,"175":-0.0042985067634610935,"176":-0.05867018449420057,"177":-0.05406127483670898,"178":-0.08973350324397592,"179":-0.0041779230957680125,"180":0.07096214368328996,"181":0.04090477315350765,"182":0.009263616233929867,"183":0.005187040283297051,"184":-0.04871984227303447,"185":-0.06421454276357749,"186":-0.17347466541396264,"187":-0.04774386870248744,"188":-0.020705976480938196,"189":0.13265458195397994,"190":-0.24441712985672676,"191":0.09097481753579229,"192":-0.052238147485183614,"193":-0.06980796243220438,"194":-0.13132772043219176,"195":0.06065583335676288,"196":0.05129683304133143,"197":0.05081107216991767,"198":0.02029681421324926,"199":-0.005588228060102676,"200":-0.006640672953824432,"201":-0.04254794547762862,"202":-0.12026682304597926,"203":-0.10677381642510637,"204":-0.006263057778622883,"205":0.11736684519467339,"206":-0.1785644292110267,"207":0.10036335407278568,"208":-0.01750925444499996,"209":-0.02947940060287448,"210":-0.08505219462632575,"211":-0.0028211602538383233,"212":-0.049023674267221234,"213":0.11367141721668994,"214":0.01861715313624555,"215":-0.017895819396954022,"216":-0.015051029281585422,"217":-0.07648216153423323,"218":-0.14324153526294323,"219":-0.008144306739395514,"220":-0.03765683537444095,"221":0.01552668613982501,"222":-0.23868416350287724,"223":0.05014312118773291,"224":-0.049964186596946646,"225":0.04387382042046959,"226":-0.12808194651662352,"227":-0.04040520262794373,"228":-0.18809957175379685,"229":0.08074510559024052,"230":-0.08457102670990517,"231":0.02151526852112331,"232":0.06571156032096165,"233":-0.010989681240023497,"234":-0.09062668414514786,"235":-0.06282720926340789,"236":-0.01032419797686489,"237":-0.043850476154617034,"238":-0.029128150414194524,"239":0.008859434721557063,"240":-0.03991171112290569,"241":-0.06792277203497257,"242":-0.0426934318926459,"243":-0.04585038954206141,"244":0.028607234798249323,"245":0.053682449017440896,"246":0.0017045478277929818,"247":-0.02173651000110076,"248":-0.05048626514874846,"249":0.06706552848743029,"250":-0.09660354852072872,"251":-0.040360222023531206,"252":0.013043578799286562,"253":0.02563633465716325,"254":-0.0882929999443627,"255":0.002864127706945276,"256":-0.07331596926253166,"257":-0.08084983489114526,"258":-0.10055530572078239,"259":-0.04379109677474752,"260":-0.05223345764737369,"261":0.02613520501612106,"262":0.05520388026478343,"263":0.03838792619225181,"264":-0.10114885396738425,"265":0.05465408533671062,"266":-0.11368924345033937,"267":-0.061750629464790485,"268":-0.03231474446838146,"269":0.048434196044289474,"270":-0.13699434167361124,"271":0.025406681999149958,"272":-0.04594996568368393,"273":-0.044332169988366324,"274":-0.04353315537887037,"275":0.018655650543340285,"276":0.054376695330757355,"277":0.14879459835898173,"278":-0.045101642758013094,"279":0.053076529001096696,"280":-0.0831898405497027,"281":0.015836065993395432,"282":-0.1426688063402837,"283":-0.07906544082163473,"284":0.009593463396556865,"285":0.020466480398341598,"286":-0.061575590024690686,"287":0.058691398678578165,"288":-0.05174480567990455,"289":0.006342250912909647,"290":-0.09252886781222584,"291":0.06691991970280875,"292":-0.00936502400046809,"293":0.038934076157021234,"294":0.011441255611484517,"295":0.06562127836875775,"296":0.005454527680615968,"297":-0.03943353938671898,"298":-0.16067113322608684,"299":-0.08353554902874627,"300":-0.1002949632233645,"301":0.11219982602427518,"302":-0.11521564551175108,"303":0.06743092357266209,"304":0.032145325573002155,"305":-0.04750629069867163,"306":-0.16841890393794218,"307":-0.011555949979232927,"308":-0.005692740288487792,"309":0.027270907025928735,"310":0.05674483211173281,"311":0.08085979702417485,"312":0.06385683504286024,"313":0.0010973011333303528,"314":-0.010528064279124916,"315":0.0664500933546709,"316":-0.07907763487356434,"317":-0.02031777983595679,"318":-0.11498615742560556,"319":0.01619981326471915,"320":-0.040765146108801206,"321":0.07995519653171937,"322":-0.03689368052919832,"323":-0.058425085926596065,"324":0.038804159542826844,"325":0.10522727979999119,"326":-0.010490752522746404,"327":-0.025306022416843064,"328":0.05197012109600535,"329":0.038408722492093296,"330":0.06093211960332156,"331":0.03931756178689971,"332":-0.025719027976329027,"333":0.053966120416478476,"334":-0.020662965516594425,"335":0.009810104241328011,"336":0.028958150407471586,"337":0.026032551683913437,"338":-0.01833079726815929,"339":-0.016708822993461922,"340":0.018901993647780963,"341":0.015603858295360066,"342":-0.09262255887955106,"343":-0.0018391058691608945,"344":-0.00584796894940322,"345":0.03520197884754731,"346":-0.03605331162106397,"347":0.010556576237277793,"348":-0.0047608618014028745,"349":0.01725947301008242,"350":-0.1914270698567793,"351":-0.05907979614846557,"352":0.08608301615417914,"353":-0.030661591774952392,"354":-0.10325027866569784,"355":-0.02013524596463936,"356":0.029717865132976452,"357":0.0815394815506513,"358":0.043067766922998414,"359":-0.003131652896365771,"360":-0.021016647294353038,"361":0.011272723920680327,"362":-0.11141185464227417,"363":-0.08096554439871538,"364":-0.10357599446024222,"365":-0.0376528880514487,"366":-0.05748888645147945,"367":-0.08222716730031703,"368":-0.03974749828261222,"369":-0.006548931009668719,"370":-0.021973616813450086,"371":-0.004893382923459788,"372":-0.07667277318059225,"373":0.10027053530786666,"374":0.05443443499757905,"375":0.07983335362833423,"376":-0.03706681598530781,"377":0.03796237107002184,"378":-0.021239939646703523,"379":-0.06990005815717153,"380":-0.06783698075125191,"381":-0.008734450603539338,"382":-0.0686839075033427,"383":0.002848989658433257,"384":0.020684544584219398,"385":0.03008218710260791,"386":-0.11320955043853137,"387":-0.02803004646063144,"388":0.00044592751910380604,"389":0.03812079569969547,"390":-0.08439836320037547,"391":0.0015457255510064219,"392":0.08221969296436685,"393":0.03527235083401785,"394":0.021403296023781302,"395":0.0066062493840211515,"396":-0.01010647711436325,"397":0.12068176937195477,"398":-0.024504013690185397,"399":0.04723180648257766}},{"sx":5,"sy":5,"depth":16,"w":{"0":0.027683622814493956,"1":-0.03091936014659357,"2":-0.034011704528431344,"3":-0.03798227730782625,"4":0.1351011980222473,"5":0.00396032770460497,"6":0.020596952726428416,"7":-0.02974239226869272,"8":-0.0014329994633122624,"9":0.002753238237583192,"10":-0.08248303922581326,"11":-0.08156439093778234,"12":0.006100346885728863,"13":0.12204224062191021,"14":0.02628660533008037,"15":0.013909071721306487,"16":-0.009763054314397872,"17":-0.042575432873749146,"18":-0.014176544408854306,"19":-0.042044413444168496,"20":-0.0089754718701211,"21":0.0448960907669189,"22":0.07421426937614023,"23":-0.047384268238336726,"24":-0.02246840241121136,"25":0.018351197136415927,"26":-0.008718968496470433,"27":-0.05788763663410919,"28":-0.008914627334865227,"29":0.0277374613474393,"30":0.005124757634377268,"31":-0.03580126229449742,"32":-0.10158969556685703,"33":0.08971136257126594,"34":-0.008932568388146038,"35":-0.045573663974535404,"36":-0.00834135116177976,"37":-0.013175271478772042,"38":0.014134576178799667,"39":-0.013483298523691803,"40":0.00914256243152287,"41":0.09525819670683694,"42":0.11020002022649436,"43":-0.07007342311132438,"44":-0.02433109738747864,"45":-0.010872083449186396,"46":0.06370300333381705,"47":0.025058545824774136,"48":-0.002787470998309346,"49":0.03585428182303818,"50":-0.09044337751387709,"51":-0.04542920329991293,"52":-0.08970898309686748,"53":-0.028785402820858196,"54":-0.12077664063368894,"55":-0.021728238101552885,"56":-0.03276032858576741,"57":-0.019130430820564443,"58":0.009336411088313797,"59":-0.09250581818423148,"60":-0.00671458909866737,"61":0.010725570826658714,"62":-0.14813452051631437,"63":-0.0076423760762202725,"64":-0.029036236687379584,"65":-0.05557619582546051,"66":-0.11740513089096201,"67":0.02836290850553838,"68":-0.12856769123282963,"69":0.024687587866416113,"70":-0.06921503721625277,"71":0.024383534409464166,"72":-0.008020905922187927,"73":-0.003662716168715559,"74":-0.10636016520302344,"75":-0.06246713443959415,"76":-0.09342797455379322,"77":-0.017288551909203226,"78":-0.013041636282855585,"79":-0.08539916794939832,"80":0.008677818566378464,"81":0.004446629580402301,"82":-0.03336974722515568,"83":-0.028626240005693283,"84":0.08862880184993349,"85":0.08323831723996497,"86":-0.010043268365399058,"87":-0.08086396371706144,"88":-0.03305392615845626,"89":0.06400078291694215,"90":0.02763148075994207,"91":0.0058726672067579665,"92":0.021968789510098247,"93":0.17124338857033025,"94":0.05209023693110789,"95":0.033418972504813564,"96":0.07189196580184469,"97":-0.06520131093965316,"98":0.05064806730144177,"99":-0.00025596930465310026,"100":0.10452398153552264,"101":0.03606748314944216,"102":0.026173982807388255,"103":-0.057671045918152954,"104":0.007812915631397962,"105":0.027989504016353587,"106":-0.07327693200140296,"107":0.012479891614058445,"108":-0.016537631119651914,"109":0.04570141515211295,"110":-0.010291931061309482,"111":-0.024491810164735756,"112":-0.029033089157854255,"113":-0.011358607764814375,"114":-0.0723337994647091,"115":0.01072795802657323,"116":0.04178380237307119,"117":0.03830125446324133,"118":-0.03140137811939602,"119":-0.028248829321724785,"120":-0.04289374323536662,"121":0.09774922241335439,"122":0.017609285764310603,"123":0.003626066387279037,"124":-0.030164960569053052,"125":-0.02543390433221579,"126":0.02065248972921608,"127":0.01243905071277889,"128":0.02118977355997537,"129":0.03142230385736583,"130":-0.03552976205095468,"131":0.03308603091843398,"132":-0.09284381467415136,"133":-0.012230762115384363,"134":-0.04253242238379774,"135":-0.042948175249018804,"136":-0.04767299423797924,"137":0.047149585444787805,"138":-0.0669752672121884,"139":-0.06149755399047068,"140":-0.03527121514105952,"141":0.02555015333276582,"142":-0.03462939149396866,"143":0.014311417434402519,"144":-0.1410859119566833,"145":-0.03947074312864213,"146":-0.07260121136704446,"147":-0.057219241070599704,"148":-0.001780268449536116,"149":0.008766721699637093,"150":0.029218933838284337,"151":-0.010182508130575564,"152":0.0686587612553752,"153":-0.06311229292012133,"154":-0.08571483486306854,"155":-0.020135050715301445,"156":-0.08605533281955183,"157":-0.0013661802654384857,"158":-0.006098676956191122,"159":0.009076872356602622,"160":0.0031528640950968245,"161":-0.02448459829503772,"162":0.07329759093401782,"163":-0.02877722396599064,"164":0.035060780346583456,"165":0.03850802935999078,"166":-0.008188560630730764,"167":-0.08178118642580201,"168":-0.03828001681284187,"169":0.049437286289734095,"170":0.02651498675001521,"171":0.03502377514791981,"172":0.016793305334099617,"173":0.11921485861710207,"174":0.044628946065214725,"175":-0.10320002158025447,"176":-0.06078921757893403,"177":0.001980497768027535,"178":0.030330924326038476,"179":-0.002946959533021193,"180":0.03584768457210431,"181":-0.00042769331787314,"182":-0.1247656647255441,"183":-0.06336137348770632,"184":0.05045559453807676,"185":0.06819714339932004,"186":-0.10968745044400599,"187":-0.043240667558556344,"188":-0.04907204911492741,"189":0.01848324832103886,"190":0.0670488439040765,"191":-0.08020007124533636,"192":-0.019514672262160276,"193":-0.01267270000694474,"194":-0.10219216425215254,"195":0.02170957114190473,"196":-0.012192194903814863,"197":0.041718214811343406,"198":0.034706376569017795,"199":-0.03648805502917476,"200":0.03261785105763259,"201":0.024413605049853657,"202":0.07886082568420232,"203":0.09525088096301862,"204":-0.01438803794203378,"205":-0.009460581189011899,"206":0.014092336712157195,"207":-0.03993065811681143,"208":-0.02461068614285645,"209":-0.040663667889553716,"210":-0.07195482878564594,"211":-0.08908074995415687,"212":-0.02898493253338677,"213":0.04714307459009626,"214":0.08867139205213649,"215":-0.018908113488804845,"216":0.048536681647156674,"217":0.030703020914633606,"218":-0.057850873633922835,"219":-0.04390413942111208,"220":-0.03989713369366563,"221":-0.012580129731527341,"222":-0.08719694222162098,"223":0.05803630401097764,"224":-0.12512703175490097,"225":-0.04462508824037619,"226":-0.04203556135061777,"227":0.03804091159690305,"228":0.06343526860299777,"229":0.03213631240780244,"230":0.0915364964023891,"231":-0.005204706000907116,"232":-0.053256406153413115,"233":-0.024985562499882378,"234":-0.06390980059407349,"235":-0.06987696097646558,"236":-0.008163288458230899,"237":0.022596077352539937,"238":0.03641730037556926,"239":-0.038842476358275736,"240":0.012498357355091498,"241":-0.024668175246105904,"242":0.11979154577689459,"243":-0.03802000972832275,"244":0.06752358396659423,"245":0.09636279425065387,"246":-0.005568569258429762,"247":-0.003928066077431644,"248":-0.04623016609606958,"249":0.09650285953869216,"250":0.02423793020691323,"251":-0.0011014416513440194,"252":-0.08990954807132157,"253":-0.0031286975887601853,"254":0.05729085962730787,"255":-0.011082224553446504,"256":0.03783014521540916,"257":0.056844743889642835,"258":-0.024771032421410773,"259":-0.044016991371309995,"260":-0.005790371170367433,"261":-0.002077154150332,"262":0.00011466292354880134,"263":-0.11803932847511248,"264":-0.039287461436933034,"265":0.11786422531846162,"266":-0.08260516801202582,"267":-0.01923261196119903,"268":-0.09452174232238739,"269":0.029219602544044057,"270":0.03230547833919664,"271":-0.050157330568190654,"272":0.035404714778181724,"273":-0.03773781906610023,"274":-0.013528302190980883,"275":-0.1610223316349022,"276":0.042478089336643335,"277":0.05660681281683755,"278":0.04679866890123515,"279":-0.1078806864705078,"280":0.06485125860642789,"281":0.046485903369810025,"282":0.08145472971391826,"283":-0.08355655753965127,"284":-0.05118364884391963,"285":0.040739676364615826,"286":0.13525577183758763,"287":0.033297142078765496,"288":-0.02267478971222937,"289":-0.009870931738989628,"290":-0.043228505780075276,"291":0.02139373078719422,"292":0.049449525204707356,"293":0.040672021690658665,"294":0.06430053945400771,"295":-0.11414376590564607,"296":0.022868915115435692,"297":0.024767677211984893,"298":-0.01716991944138051,"299":-0.11363701216595871,"300":-0.031187496727837126,"301":0.047795033350334484,"302":0.041987034621892086,"303":-0.07060267245902938,"304":-0.12489817010704223,"305":0.03823609171218771,"306":-0.002713861120085753,"307":-0.055255285095439505,"308":-0.029734622960876603,"309":-0.0019460555314921046,"310":-0.016677876888895337,"311":0.011698181948445801,"312":-0.052769788529783215,"313":-0.0821954278678817,"314":-0.08609928307483446,"315":-0.06928302762274677,"316":-0.025274875546862946,"317":0.006556837986331814,"318":0.04589533101374023,"319":-0.0811283543725702,"320":-0.012748467964864963,"321":0.026668571674476435,"322":-0.023567954861524344,"323":-0.04577837081290428,"324":-0.0075230919731101575,"325":0.12051426274859757,"326":0.03495185188018498,"327":-0.10589509998390874,"328":-0.002642646320143657,"329":0.10183620424404671,"330":0.0020579292173459112,"331":0.0027290907860898755,"332":-0.0012065666573961619,"333":0.06331082631537382,"334":0.04113485939215033,"335":-0.10621253892811958,"336":-0.1467817567810979,"337":0.03639350602698134,"338":-0.011210957507695114,"339":-0.1818676963669169,"340":0.010354892500659523,"341":0.09010473735041775,"342":0.07958563237103865,"343":-0.13948895975706618,"344":-0.002157314660989279,"345":0.16510775345439568,"346":-0.09254880209810167,"347":-0.05266548517222052,"348":-0.05086118719530721,"349":-0.06869938702063519,"350":0.02593901628754902,"351":0.07526838928879012,"352":0.08804268902945873,"353":0.005011899705098496,"354":0.015504447502226987,"355":-0.07370234643766231,"356":-0.004071330677607153,"357":0.08010635003701362,"358":0.11727105949056651,"359":-0.0502625178446848,"360":-0.1278023652133175,"361":0.1027619899414569,"362":0.034107407423083054,"363":-0.03404149577014613,"364":0.006660847710652002,"365":0.08782096750023545,"366":0.03711980495959459,"367":0.07327116519767722,"368":0.0584664526762909,"369":0.04971298937510017,"370":-0.060081635022831315,"371":-0.028551413427769737,"372":-0.00043587404261164993,"373":0.0042661034504109345,"374":-0.007548368024393435,"375":-0.05426698396216351,"376":-0.034835958765056,"377":-0.01739808638165961,"378":0.04917786902809673,"379":-0.11855025571313922,"380":-0.013572993201503581,"381":0.03404344723439166,"382":-0.0032993785189071633,"383":-0.020426457668613736,"384":-0.02332533392593207,"385":0.0058636715885049704,"386":-0.030871931365060952,"387":-0.030484454172729283,"388":-0.013592212151512068,"389":-0.08394478993266981,"390":-0.04509174860088063,"391":-0.1226053639840909,"392":-0.05873888611355971,"393":-0.029692255054922786,"394":0.019838433638210702,"395":-0.0014896624917146786,"396":-0.021747268091841476,"397":0.031248914653254096,"398":0.02125827314855229,"399":-0.06930545251242179}},{"sx":5,"sy":5,"depth":16,"w":{"0":0.03658526147282744,"1":-0.03204182319691825,"2":0.07055475570328348,"3":0.1256821605028144,"4":-0.0076066258522752535,"5":-0.09924648974822345,"6":-0.05300307459333836,"7":0.025611389379686877,"8":0.09516105672168511,"9":-0.026405599434534674,"10":0.10646645648978681,"11":0.007402728189988923,"12":0.10976239249478463,"13":0.05414231765892517,"14":0.01757082637269072,"15":0.09089648655146887,"16":-0.15943883450795052,"17":0.0006602712626425349,"18":0.0485056705132257,"19":0.026821230046180963,"20":-0.11520121410809893,"21":-0.054634219836233726,"22":-0.016003125064103643,"23":0.062262998344257775,"24":0.07793437598593726,"25":0.006564113359188518,"26":-0.030618032603060157,"27":-0.02906795831612226,"28":0.06047240659169247,"29":-0.023217959628175945,"30":0.010402285976893499,"31":0.12345825812088751,"32":-0.08140624869874691,"33":-0.055180441375446344,"34":-0.03681703296694279,"35":0.052174488739348074,"36":-0.08470233618536513,"37":-0.07520414591115393,"38":0.022434040422799877,"39":-0.09504067915688469,"40":0.000774572319488037,"41":-0.05098027219887,"42":-0.003070979201698059,"43":-0.08909598537142513,"44":0.020636371515161483,"45":-0.06939749043043401,"46":0.017003457159551375,"47":0.0830821422616902,"48":-0.042839372856727065,"49":-0.06639375851063835,"50":0.06835607569882604,"51":0.03120760783441166,"52":-0.09327274230932654,"53":0.00663546317209957,"54":-0.021002319111172715,"55":0.020085559453565615,"56":0.1761035436614532,"57":-0.022452838276723907,"58":-0.01886542180864231,"59":-0.046254442962662554,"60":0.009906508914598289,"61":-0.10130976329120181,"62":0.007387429614553521,"63":0.05170870751703861,"64":0.07317654931431392,"65":0.023352948728445837,"66":0.04887954558516646,"67":0.10963256104727856,"68":-0.06194106577712351,"69":0.012258278178794014,"70":0.03552335966739821,"71":-0.030522276397430378,"72":0.08834535242542803,"73":0.04148421275732686,"74":0.16286292652742915,"75":0.017170565649765282,"76":0.05552516263117435,"77":-0.042580824997368066,"78":0.048057124805885226,"79":0.11241647358348457,"80":0.011975310975303449,"81":-0.021519758761746076,"82":0.0952097494446692,"83":0.027253750959127805,"84":-0.10350779446999679,"85":-0.1498256508233695,"86":-0.13270190714642616,"87":0.14090667987873026,"88":0.07394842749813095,"89":0.004298720472671706,"90":-0.04293550562097833,"91":0.13370472090097152,"92":-0.06933560868308832,"93":0.0491156352557979,"94":-0.013364904360741241,"95":-0.03384458959789952,"96":-0.04578921408874191,"97":0.046086988070058246,"98":0.04436181269893357,"99":0.051804227053069106,"100":-0.04826732610026939,"101":-0.15953828985724,"102":-0.08344538481733699,"103":0.007864482473099458,"104":-0.05741613804912842,"105":0.04820687006317037,"106":-0.11969388079794684,"107":-0.006595361985389342,"108":0.06319795113399719,"109":-0.014585066486275684,"110":0.06924915209490741,"111":-0.019697173392006082,"112":-0.0720342752137049,"113":-0.03854185303445713,"114":0.010932186085771197,"115":-0.03837863513898057,"116":-0.1737411194331779,"117":-0.14127634257713204,"118":-0.09331530390443124,"119":0.0922264268527394,"120":-0.07800064685836999,"121":0.021903784005206553,"122":-0.05901576770007463,"123":-0.13737250514800803,"124":-0.11875186783937965,"125":0.07134506940894522,"126":0.002333823551517268,"127":-0.01463939122356243,"128":-0.0036418832309088904,"129":0.01960325291058334,"130":-0.005189579173140387,"131":0.06981137759887007,"132":-0.03526768426574099,"133":0.016342823397573102,"134":-0.019240197771215956,"135":0.08525082171516356,"136":-0.007053752116974329,"137":0.08074757982913122,"138":-0.026559365077629418,"139":-0.039228256764715135,"140":-0.038455467304751856,"141":-0.02510684600372711,"142":-0.005230002948280669,"143":0.03536221754964396,"144":0.001500703094901091,"145":-0.022650409096161662,"146":0.07774036151328136,"147":0.04331533971750535,"148":-0.020969486013259632,"149":-0.004159312757046225,"150":0.02399936483546517,"151":0.04916594885763051,"152":-0.02755898980320996,"153":-0.016455719574206492,"154":0.06670031926117617,"155":-0.08923836910587438,"156":-0.02209992087012432,"157":0.09454202489674153,"158":-0.00021811682926552492,"159":0.0751219954446734,"160":-0.0034086790529245766,"161":-0.022819960095055596,"162":-0.043184879517985955,"163":0.0803084543467621,"164":-0.026585474190366182,"165":-0.14385656017532678,"166":-0.14370328107844188,"167":0.03150259121254477,"168":0.026720015501317702,"169":-0.03395278807783949,"170":-0.0019556523355953497,"171":0.12062982239350507,"172":0.04730360229766542,"173":-0.046236069242977476,"174":-0.08391174492075662,"175":-0.11870564384069542,"176":-0.12118328187887772,"177":-0.04051610405115532,"178":-0.003003067583804297,"179":0.12355635630416358,"180":-0.046330693318578316,"181":-0.1588559406922105,"182":-0.04638632197708483,"183":-0.0016509336970691672,"184":-0.01597190964471606,"185":-0.03350688182760533,"186":0.0074677801679922115,"187":0.005498779011413457,"188":-0.08102631518660093,"189":-0.05643627298254038,"190":0.010884115520733383,"191":0.018060912867124107,"192":-0.20108055181855158,"193":0.015023642998913303,"194":-0.06526177065249034,"195":0.05188835894086273,"196":-0.10974334773947925,"197":-0.1752038307857296,"198":-0.020523655501437678,"199":0.003397686377439243,"200":-0.07720194125479858,"201":-0.06031970830071313,"202":-0.002575580438445855,"203":-0.1253880228002958,"204":-0.030926149330308655,"205":-0.00002500175744682702,"206":0.028344134006390367,"207":-0.03498825154911145,"208":-0.11675618749338769,"209":0.03351317651461993,"210":0.023037825858999307,"211":0.029569545949292952,"212":-0.13132687350569355,"213":-0.06862194754965435,"214":-0.008941486263923404,"215":0.0007041472332091189,"216":-0.01506893963753587,"217":-0.016382187207617645,"218":0.0008547850231945088,"219":-0.08457140670165668,"220":-0.07525836163155038,"221":0.022602765651670235,"222":0.0287309448102112,"223":0.01565108003349962,"224":0.08119071342641082,"225":0.04779036486237942,"226":0.032663562893759046,"227":0.024876584247086574,"228":-0.012527382714504006,"229":0.03596112169623296,"230":-0.06579954325401742,"231":-0.03754955096176089,"232":0.0277730952768772,"233":-0.03231778058570097,"234":-0.03450107864394011,"235":0.024786079027205435,"236":0.08615810692166953,"237":0.044099881081458465,"238":0.04640887975247111,"239":-0.0549910141896226,"240":0.0894698849464885,"241":-0.010659530017019244,"242":-0.040186966197750564,"243":-0.019313436804584003,"244":-0.09417771145673604,"245":-0.09063804519857115,"246":-0.14081664219741125,"247":0.018955181369519153,"248":0.07143458033903055,"249":-0.03930158236506007,"250":-0.02315678635846725,"251":0.07842525383929588,"252":0.09269610983003028,"253":0.1177289126726251,"254":-0.02797770282965422,"255":-0.16869214315985437,"256":-0.13937087092759895,"257":0.0034416699024104,"258":0.016670742600829555,"259":0.06274449243201438,"260":-0.04909912549555724,"261":-0.1599798895058287,"262":-0.09365527013888232,"263":0.048784191371185906,"264":-0.06194832657509481,"265":-0.06119879519177817,"266":-0.02432502599820947,"267":-0.0025655160253546896,"268":0.026967706972811607,"269":-0.04190065459340208,"270":0.02702328645077466,"271":-0.10649440781350515,"272":-0.1317622469912922,"273":-0.023619297838806962,"274":-0.001679535664541039,"275":-0.018075761232195467,"276":-0.13158306373052886,"277":-0.0979900020477078,"278":-0.023723938185851667,"279":-0.08248732339021023,"280":-0.02563380476777784,"281":0.011770216866448847,"282":-0.10233215415629193,"283":-0.05606730650432903,"284":-0.07775959059000596,"285":-0.04913519097957817,"286":-0.03349206387895612,"287":-0.10268666751110607,"288":-0.09822119486956607,"289":-0.03836202914448296,"290":0.006945002776272257,"291":0.06665759672338023,"292":-0.044447468732914115,"293":0.006632894099733554,"294":-0.011465412918149958,"295":0.012819563025514452,"296":0.029862407152202963,"297":0.004520220428014494,"298":0.002195918011931305,"299":-0.15870746069482322,"300":-0.08302036906118107,"301":0.013704700959574479,"302":-0.011236672470239033,"303":-0.011288987495765828,"304":0.0878588354622354,"305":0.10391395183379619,"306":-0.027915851128045836,"307":-0.008346750995208504,"308":-0.038938193436866476,"309":0.08831693872501402,"310":-0.04102506608640867,"311":-0.07667663814742705,"312":0.11568699517744586,"313":-0.10417188748728277,"314":-0.0017220786382879634,"315":-0.0701235740632959,"316":0.07910507904999516,"317":-0.00014976271749584101,"318":-0.025993150053594455,"319":0.0025824377150340857,"320":0.06057127531955771,"321":-0.0012743128631851949,"322":-0.04449509130883553,"323":0.06180966434882107,"324":0.002729377239009335,"325":-0.10790306959119703,"326":-0.11651353362419747,"327":0.07415917652744673,"328":0.009225741209468116,"329":-0.05042153557560123,"330":-0.012248295443181408,"331":0.11199493860708497,"332":0.04249236423796868,"333":0.03168717052765838,"334":0.06822461513702094,"335":-0.1183305401278109,"336":-0.086660553941749,"337":-0.052790083025436405,"338":0.06470368506605056,"339":-0.015223439372752974,"340":-0.035802248878147175,"341":-0.06397605263295625,"342":-0.11946592267904789,"343":0.06132974198259817,"344":0.02117604361454393,"345":0.002842190667426947,"346":-0.0061108760020527515,"347":0.006677900837243943,"348":-0.027469840639775586,"349":-0.011324890353165933,"350":0.06891447667858887,"351":-0.06752121935618843,"352":-0.1488619697598012,"353":-0.0685218041226059,"354":-0.04764523228850102,"355":0.027237912254417268,"356":0.029965704755711857,"357":-0.21581475509770448,"358":-0.043439615767664426,"359":0.0505015890506726,"360":-0.04303307284372003,"361":-0.025764174118271574,"362":0.05516547619535885,"363":-0.006810625060132933,"364":-0.01995782370108715,"365":-0.023386259243174033,"366":0.03571733737033754,"367":-0.14423255381557198,"368":-0.03146699041092314,"369":0.02653846192505766,"370":0.05449255184402446,"371":-0.034961936910315114,"372":-0.031052153687454058,"373":-0.02994638410420037,"374":-0.08753582723393555,"375":0.03159399981124462,"376":0.03275599652044036,"377":-0.011374012098593749,"378":0.040089035966974655,"379":-0.051672418541263684,"380":0.04443980087557916,"381":-0.02860608114381394,"382":0.04103612023127031,"383":0.05818160618105791,"384":0.007194317349176626,"385":0.05608140693228751,"386":0.0468643579395985,"387":0.13470263246090228,"388":0.0013975222293601988,"389":0.08880518444016487,"390":-0.08990765659306212,"391":-0.026141745640836767,"392":0.05577139407427038,"393":0.031077905969100098,"394":0.032293028352977156,"395":-0.01759872942467359,"396":0.050493754910856295,"397":0.004329954736653377,"398":0.007481735810591093,"399":-0.07146318661718186}},{"sx":5,"sy":5,"depth":16,"w":{"0":-0.06505156644892296,"1":-0.025156573840882383,"2":-0.0011671662244534871,"3":-0.03965314836434946,"4":-0.04442291760019843,"5":-0.05340345078771478,"6":-0.04164560256258948,"7":-0.09875999063729451,"8":-0.08102273894659791,"9":0.07966031955271574,"10":-0.043501034253459796,"11":-0.004069722043896657,"12":-0.024440354294710573,"13":-0.1008426408395765,"14":0.01684108437219616,"15":-0.06171270609414962,"16":-0.021929867688966972,"17":0.02443013600891518,"18":-0.03644433132141782,"19":0.05969923052249693,"20":-0.06102776456592042,"21":-0.00210461282359996,"22":-0.014217660303194646,"23":-0.04823657134805711,"24":0.015892747530294987,"25":0.10267438916276876,"26":0.035906999446618244,"27":-0.06701347109659911,"28":-0.0008497146686075688,"29":-0.040414784654578984,"30":0.05977704152717307,"31":0.003807594700819178,"32":-0.01261319623121215,"33":0.017521726686468102,"34":0.03120354456249233,"35":0.054973404037084034,"36":-0.042891414212529594,"37":-0.04173606459566645,"38":0.03868592005695042,"39":-0.007939362973105,"40":-0.021539134552567993,"41":0.07116735197475309,"42":0.025958511991811706,"43":-0.007429821768295677,"44":-0.056609054584596336,"45":-0.000911920099379934,"46":0.018244468500518148,"47":0.03236178645246964,"48":-0.04489173279876882,"49":-0.07687935744117237,"50":-0.02244643106389354,"51":0.06956536471807687,"52":-0.09471271540139042,"53":-0.06308012831630129,"54":-0.07972710552729682,"55":0.0464522737565205,"56":-0.03407330115857857,"57":-0.01894088905424667,"58":-0.09114856104902785,"59":-0.12022081273771998,"60":0.012859152521919315,"61":-0.01567642786408813,"62":-0.10778215596450516,"63":0.0036600955899407004,"64":0.043393301768341656,"65":-0.0027118860970950813,"66":0.03677454794094668,"67":0.015259353558999928,"68":-0.09012344488550895,"69":-0.04716373507947517,"70":0.07195833754765589,"71":-0.048052445909249,"72":-0.04260798549531899,"73":0.044248310556143866,"74":-0.0697666224910134,"75":-0.03167391042525927,"76":0.03616110228531877,"77":0.00993571323577886,"78":-0.056672528061295344,"79":0.002698012707000254,"80":-0.0263458372026303,"81":0.07985664428255106,"82":0.007513748927026692,"83":-0.03718992523120795,"84":0.010068248418810518,"85":-0.08083618166477655,"86":-0.07086841756876165,"87":-0.06778472576928478,"88":0.01961274079379434,"89":0.0659520809171579,"90":-0.03624728386867052,"91":-0.01049097871657693,"92":-0.0478198139492569,"93":-0.022962466776955483,"94":0.009696723936731735,"95":-0.05001999881826507,"96":-0.022280410030710667,"97":-0.017258993762422962,"98":-0.01878378349398747,"99":0.05699938074455213,"100":0.03094618081314493,"101":-0.09521547099072505,"102":0.0266394160343954,"103":-0.007534900762319441,"104":-0.017198150819996264,"105":0.06443620830868736,"106":0.028456305957747598,"107":-0.12913273183447904,"108":-0.06731694921389836,"109":-0.01685425311727513,"110":0.0023851735161301854,"111":-0.006128661481500775,"112":-0.06789132807456932,"113":-0.020582242476939478,"114":-0.0042070307344242545,"115":0.04270094634693097,"116":0.006072036873005985,"117":-0.18417214556046335,"118":0.08270554570212263,"119":0.053213325395719505,"120":0.013784991242711299,"121":0.08462970749985604,"122":-0.03486677648230659,"123":0.015354701164211648,"124":0.0287278333918406,"125":0.002386824084240299,"126":-0.032355266048202824,"127":-0.07751190068919622,"128":-0.06519049191931878,"129":0.02080557260078934,"130":0.07518278008043555,"131":0.0337101369379344,"132":-0.0506923391839681,"133":-0.1624228786313721,"134":0.06576986774236927,"135":-0.030771650515674764,"136":-0.017609868174695065,"137":0.04889535692779685,"138":-0.04452592664122966,"139":-0.01685099279102594,"140":0.03126593678601827,"141":0.05577794689492924,"142":-0.1596059047865762,"143":0.042739986589231206,"144":-0.06550186115423777,"145":0.028210730675304444,